-39.009530450953044
-39.009530450953044
-39.009530450953044
-39.009530450953044
-39.009530450953044
-39.009530450953044
-39.009530450953044
-22.705639237563922
17.56311390051139
19.358247791724775
19.369264528126447
19.370883774988375
19.359833565783354
19.34614318921432
19.33142770804277
19.31357415155741
19.296410971641095
19.28322268712227
19.271770804277075
19.259264528126447
19.243532310553228
19.230038586703856
19.20777917247792
19.17895908879591
19.15008879590888
19.13557833565783
19.12303858670386
19.098636913063686
7.944030218503021
-4.4176434216643425
-5.448568107856812
-5.598304509530453
-5.836392375639237
-15.262789865178988
-38.055806601580656
-39.009530450953044
-39.009530450953044
-39.009530450953044
-39.009530450953044
-39.009530450953044
-39.009530450953044
-39.009530450953044
-39.009530450953044
-39.009530450953044
-39.009530450953044
-39.009530450953044
-39.009530450953044
-39.009530450953044
-39.009530450953044
-39.009530450953044
-21.034563923756387
68.94735239423525
81.04326034402604
81.1068251975825
81.0711808461181
72.42125197582519
7.951946536494653
-4.977743840074385
-5.059727103672711
-12.20325430032543
-25.608421664342167
-35.04912877731287
-39.009530450953044
-39.009530450953044
-37.00996559739656
-32.59123337982335
-38.41849697814969
-39.009530450953044
-39.009530450953044
-39.009530450953044
-39.009530450953044
-39.009530450953044
-39.009530450953044
-39.009530450953044
-39.009530450953044
-29.220245932124595
-3.9760325430032557
5.429482101348208
8.791984193398417
6.378674569967456
-1.0069614132961426
2.8502226871222676
35.32983774988378
66.12028126452813
77.52512645281266
80.1100971641097
80.1362268712227
80.13153231055323
80.09852812645279
80.06668293816828
80.03427289632728
79.98856159925616
79.94094653649464
79.86280009298
79.77990469549046
79.7216829381683
79.67980846118084
79.65803440260343
79.64746954904693
79.64151557415155
79.62494235239424
79.61127289632728
79.58715992561598
79.56483356578336
79.54032728963271
79.50890051139005
79.48571222687121
79.46823523942352
79.44894653649466
79.417569967457
79.38913900511389
79.34374569967459
79.29870804277081
79.26079172477918
79.21996327289632
79.18814737331476
79.16957415155743
79.13303858670386
79.08763691306368
79.05324779172479
79.01526452812645
78.97223523942351
78.93333565783357
78.89102603440261
78.8532980009298
78.8172310553231
78.78057415155743
78.74856159925613
78.72047791724779
78.68055323105531
78.63997582519758
78.6144569967457
78.58229381682938
78.550159925616
78.51759925615993
78.48098419339841
78.43908879590887
78.41375825197582
78.37718084611808
78.33642770804276
78.29281264528126
78.23412645281266
78.20676243607625
78.17748628544862
78.1430260344026
78.11287122268712
78.08211808461179
78.06985448628545
78.03946954904696
77.98826871222687
77.95305950720595
77.93600092980009
77.92336076243608
77.91266620176663
77.88854486285447
77.85664946536494
77.82971222687121
77.80940678754068
77.78630218503021
77.7464109716411
77.68088795908879
77.65105950720593
77.62323942352396
77.58556159925614
77.55466620176662
77.53333147373313
77.5260678754068
77.49969130636913
77.47294235239424
77.44558670385865
77.41633147373315
77.39065364946536
77.36891724779174
77.34815155741515
77.320980009298
77.29467038586705
77.24446118084612
77.18579172477916
77.15546954904696
77.11823523942353
77.08567456996745
77.04742352394234
77.0042519758252
76.96594653649464
76.93264109716408
76.89941515574151
76.86798419339841
76.83176243607625
76.79970804277079
76.76623523942354
76.73747791724779
76.70060344026034
76.66536076243607
76.61951975825197
76.58413063691306
76.56326034402602
76.5295532310553
76.49499674569968
76.47451557415154
76.44442770804275
76.42544444444445
76.38452812645282
76.34737331473733
76.31179590887959
76.28701766620176
76.25470385867038
76.23220595072057
76.2046620176662
76.17293398419339
76.14550720595071
76.12378754067876
76.1014318921432
76.0674318921432
76.03459088795908
75.99280846118084
75.96199674569966
75.9298879590888
75.90581682938168
75.86236076243608
75.83765364946537
75.81067875406788
75.7798419339842
75.75497582519759
75.72929800092979
75.70494235239423
75.67828963272896
75.6538712226871
75.62297164109717
75.5907540678754
75.54702185030219
75.48953649465365
75.46503440260344
75.44856578335656
75.42626034402602
75.38685448628544
75.35731055323104
75.3344779172478
75.30229800092981
75.26728126452812
75.24714737331473
75.21630636913065
75.18510971641098
75.15355741515575
75.1250469549047
75.09624360762436
75.07055741515573
75.04091724779173
74.9979130636913
74.95885448628545
74.92805532310554
74.88349465364945
74.84762436076244
74.82472477917246
74.78378754067876
74.74389214318921
74.708390051139
74.66460344026034
74.62404695490468
74.58615155741515
74.55215574151558
74.5250260344026
74.49197582519757
74.45581264528127
74.43034402603442
74.41556578335658
74.39525615992561
74.36319758251976
74.33301766620177
74.30396327289631
74.27655323105532
74.24633984193399
74.22712226871222
74.20156578335659
74.17049465364946
74.14452394235238
74.1181557415156
74.0879381682938
74.06271222687121
74.03549883774988
74.00957833565784
73.98565364946535
73.9572980009298
73.93103858670386
73.904749883775
73.87406369130636
73.84590051139006
73.81505113900512
73.78099256159926
73.75442352394234
73.73090051139005
73.69899256159925
73.66490051139004
73.63414318921431
73.59764109716411
73.56310134821013
73.53737749883776
73.50383774988379
73.47328544862853
73.4377959088796
73.41899674569967
73.39286285448628
73.34678754067876
73.31202185030219
73.2686369130637
73.22635239423525
73.19892980009298
73.17410553231056
73.14490051139005
73.10869549046956
73.07779590887958
73.04608461180847
72.9964821013482
72.95449465364945
72.90803021850303
72.88118921431891
72.85549046954904
72.82449465364945
72.78768293816827
72.747749883775
72.70546954904697
72.66559925615994
72.63611808461181
72.60782519758251
72.576980009298
72.52742770804278
72.4721390051139
72.43080009298001
72.39842352394236
72.36607624360761
72.32365364946537
72.29015155741517
72.26285867038588
72.22913900511392
72.20472896327291
72.16340678754067
72.13407624360762
72.10330636913064
72.07427289632729
72.05172059507206
72.02240260344024
71.99039005113902
71.97163691306369
71.94422268712228
71.92369967456997
71.89726452812644
71.86797582519758
71.82888377498837
71.79331892143189
71.76174151557416
71.73274151557416
71.70508879590888
71.67707624360762
71.6531390051139
71.62383774988378
71.59253231055322
71.56124360762436
71.53082938168293
71.50817247791726
71.4877331473733
71.45981682938168
71.41416410971641
71.38831055323104
71.34821850302185
71.3048210134821
71.28992143189214
71.27621850302185
71.26284611808461
71.23964109716411
71.20330218503021
71.17197164109714
71.14144026034403
71.11802185030218
71.09408042770805
71.06064946536495
71.03089214318922
70.99914737331474
70.95137331473735
70.90643189214319
70.84360762436076
70.80622268712229
70.77940260344026
70.75473733147375
70.71485448628545
70.68373733147374
70.66498837749883
70.64511390051138
70.6172561599256
70.57753649465364
70.54771222687121
70.51286703858669
70.47778754067875
70.43381264528125
70.39542770804277
70.35819758251975
70.31697164109717
70.26813063691306
70.2371641097164
70.20960344026034
70.18127708042769
70.1608461180846
70.13710134821014
70.09696327289633
70.0611180846118
70.0283440260344
69.9850720595072
69.93711390051139
69.90516829381683
69.87615574151557
69.85357833565783
69.81490051139005
69.77653649465364
69.74016829381682
69.7050720595072
69.66110134821014
69.62130636913065
69.59055323105532
69.56208879590886
69.51210971641096
69.43700929800094
69.39826871222685
69.36885448628543
69.33645699674568
69.30974988377498
69.26108879590888
69.23044862854485
69.21205950720596
69.19926452812645
69.17525197582519
69.15405950720597
69.11993816829383
69.06364109716411
69.02595490469548
69.00092143189214
68.98136076243608
68.93884193398421
68.90297582519759
68.87965364946537
68.86390051139004
68.85168712226871
68.83974569967458
68.81592143189214
68.79031473733147
68.7607289632729
68.73121013482101
68.69415155741515
68.66478754067876
68.64311808461181
68.61259088795909
68.5881390051139
68.56624360762436
68.53210553231057
68.50405532310553
68.47424779172476
68.44473733147375
68.42292980009299
68.38348628544864
68.34685030218502
68.31937331473733
68.29881682938168
68.27433984193397
68.23631055323105
68.20883356578335
68.17399256159925
68.13538586703858
68.09136076243607
68.05576662017666
68.01246118084615
67.96882519758253
67.9323231055323
67.91007624360763
67.89340260344025
67.87731055323106
67.85172477917247
67.8112561599256
67.76140260344025
67.72958670385867
67.69530218503022
67.64709716410972
67.60456578335659
67.56880427708043
67.54454067875406
67.5145030218503
67.47538168293815
67.44931055323104
67.3987331473733
67.36246954904695
67.32550720595071
67.30105113900512
67.27572059507206
67.23543607624362
67.198159925616
67.14723523942351
67.09549465364947
67.05734821013483
67.03048628544862
67.01411390051139
66.98774151557416
66.92583774988377
66.89579590887959
66.87385867038587
66.86046954904694
66.8092728963273
66.76535657833567
66.72519339841935
66.68517666201768
66.65501766620177
66.62251557415155
66.59495908879592
66.57951975825198
66.55942352394234
66.53277080427708
66.50974151557418
66.49824360762436
66.47334821013483
66.45138168293816
66.4302519758252
66.40135239423523
66.37357833565784
66.3387540678754
66.29865364946538
66.26323942352393
66.2266410971641
66.19915574151557
66.14546118084613
66.11157833565784
66.07303858670386
66.04931473733147
66.0263440260344
65.99945281264527
65.96025197582519
65.92963272896328
65.89825615992562
65.8655281264528
65.82710971641097
65.79450720595072
65.76542352394236
65.73385867038587
65.70785867038586
65.69096327289633
65.66243607624361
65.62644444444445
65.59459925615991
65.56089632728964
65.52383774988377
65.49406787540678
65.46028544862853
65.42351139005115
65.40230636913064
65.36994235239422
65.34234402603441
65.31604277080427
65.28166620176663
65.2458210134821
65.21086703858671
65.18377917247793
65.15880427708042
65.13075825197582
65.09553649465366
65.0606620176662
65.01850302185031
64.97399256159926
64.94947791724778
64.89919758251976
64.84799674569967
64.80169130636912
64.77015574151558
64.72462017666201
64.68777080427706
64.66088377498838
64.63431473733147
64.60946118084613
64.59164946536494
64.57206787540679
64.55191306369133
64.52615574151557
64.48910134821014
64.44452812645281
64.40413482101349
64.37149465364946
64.34772896327289
64.32148210134821
64.28794653649464
64.24926452812645
64.21585867038587
64.18955323105533
64.15866201766622
64.13969967456998
64.12191724779174
64.10175825197582
64.07302185030218
64.05226871222686
64.02762854486285
64.00532728963273
63.982804277080426
63.957059507205955
63.92877080427708
63.89419758251976
63.86032728963272
63.833766620176654
63.81131892143189
63.7787540678754
63.73710134821014
63.71182519758251
63.67374151557415
63.6354109716411
63.58462854486286
63.5348461180846
26.594134821013483
-37.98457229195722
-39.009530450953044
-39.009530450953044
-39.009530450953044
-39.009530450953044
-39.009530450953044
-39.009530450953044
-39.009530450953044
-39.009530450953044
-39.009530450953044
-39.009530450953044
-39.009530450953044
-39.009530450953044
-39.009530450953044
-39.009530450953044
-39.009530450953044
-39.009530450953044
-39.009530450953044
-39.009530450953044
-39.009530450953044
-39.009530450953044
-39.009530450953044
-39.009530450953044
-39.009530450953044
-39.009530450953044
-39.009530450953044
-39.009530450953044
-39.009530450953044
-39.009530450953044
-39.009530450953044
-39.009530450953044
-39.009530450953044
-39.009530450953044
-39.009530450953044
-39.009530450953044
-39.009530450953044
-39.009530450953044
-39.009530450953044
-39.009530450953044
-39.009530450953044
-39.009530450953044
-39.009530450953044
-39.009530450953044
-39.009530450953044
-39.009530450953044
-39.009530450953044
-39.009530450953044
-39.009530450953044
-39.009530450953044
-39.009530450953044
-39.009530450953044
-39.009530450953044
-39.009530450953044
-39.009530450953044
-39.009530450953044
-39.009530450953044
-39.009530450953044
-39.009530450953044
-39.009530450953044
-39.009530450953044
-39.009530450953044
-39.009530450953044
-39.009530450953044
-39.009530450953044
-39.009530450953044
-39.009530450953044
-39.009530450953044
-39.009530450953044
-39.009530450953044
-39.009530450953044
-39.009530450953044
-39.009530450953044
-39.009530450953044
-39.009530450953044
-39.009530450953044
-39.009530450953044
-39.009530450953044
-39.009530450953044
-39.009530450953044
-39.009530450953044
-39.009530450953044
-39.009530450953044
-39.009530450953044
-39.009530450953044
-39.009530450953044
-39.009530450953044
-39.009530450953044
-39.009530450953044
-39.009530450953044
-39.009530450953044
-39.009530450953044
-39.009530450953044
-39.009530450953044
-39.009530450953044
-39.009530450953044
-39.009530450953044
-39.009530450953044
-39.009530450953044
-39.009530450953044
-39.009530450953044
-39.009530450953044
-39.009530450953044
-39.009530450953044
-39.009530450953044
-39.009530450953044
-39.009530450953044
-39.009530450953044
-39.009530450953044
-39.009530450953044
-39.009530450953044
-39.009530450953044
-39.009530450953044
-39.009530450953044
-39.009530450953044
-39.009530450953044
-39.009530450953044
-39.009530450953044
-39.009530450953044
-39.009530450953044
-39.009530450953044
-39.009530450953044
-39.009530450953044
-39.009530450953044
-39.009530450953044
-39.009530450953044
-39.009530450953044
-39.009530450953044
-39.009530450953044
-39.009530450953044
-39.009530450953044
-39.009530450953044
-39.009530450953044
-39.009530450953044
-39.009530450953044
-39.009530450953044
-39.009530450953044
-39.009530450953044
-39.009530450953044
-39.009530450953044
-39.009530450953044
-39.009530450953044
-39.009530450953044
-39.009530450953044
-39.009530450953044
-39.009530450953044
-39.009530450953044
-39.009530450953044
-39.009530450953044
-39.009530450953044
-39.009530450953044
-39.009530450953044
-39.009530450953044
-39.009530450953044
-39.009530450953044
-39.009530450953044
-39.009530450953044
-39.009530450953044
-39.009530450953044
-39.009530450953044
-39.009530450953044
-39.009530450953044
-39.009530450953044
-39.009530450953044
-39.009530450953044
-39.009530450953044
-2.1628986517898667
62.39595072059507
63.435072059507206
63.4296829381683
63.40152812645281
63.37532728963273
63.352787540678754
63.31106369130638
63.26724779172478
63.24430636913064
63.22528126452812
63.203302185030225
63.17647373314738
63.15377917247791
63.1323691306369
63.10767038586704
63.074456996745695
63.04292143189214
63.02918921431891
63.003728963272906
62.95468712226871
62.907967456996744
62.86974151557414
62.85571222687123
62.83256996745699
62.80052812645281
62.777871222687125
62.755816829381686
62.732515574151556
62.71531055323105
62.69244026034403
62.661193398419336
62.62947791724779
62.60810134821013
62.56174151557415
62.50950720595072
62.485624360762436
62.4502310553231
62.39061180846119
62.358046954904694
62.34242770804276
62.328344026034394
62.317176662017665
62.307574151557425
62.269737331473735
62.2082310553231
62.17563691306369
62.16200511390051
62.15157415155742
62.14092980009298
62.117005113900504
62.08924779172478
62.04919758251975
62.01892561599254
62.00087540678754
61.97463272896327
61.957235239423525
61.935356578335664
61.911360762436075
61.88978754067875
61.85416829381683
55.74824779172478
-17.850225011622502
-39.009530450953044
-39.009530450953044
-39.009530450953044
-39.009530450953044
-39.009530450953044
-32.97294467689447
40.5395741515574
61.70745699674569
61.707318921431884
61.692800092979994
61.667582519758255
61.64576662017665
61.6187080427708
61.58955741515573
61.55471222687122
61.53117666201765
61.497277080427715
61.463996745699674
61.429649465364946
61.39825615992561
61.37779172477917
61.346812645281275
61.32539841933984
61.30112226871222
61.25267875406787
61.20424779172479
61.173235239423526
61.14258251975825
61.11922268712226
61.08008461180846
61.026745699674564
60.99410134821013
60.95822268712227
60.9326620176662
60.92214318921432
60.90516829381683
60.88022687122269
60.828381682938165
60.79176243607626
60.76288377498837
60.725423523942354
60.700251975825196
60.68514318921431
60.65213063691307
60.627712226871225
60.606507205950706
60.56771222687122
60.530925615992565
60.49446118084611
47.98512645281265
-16.150505346350535
-39.009530450953044
-39.009530450953044
-39.009530450953044
-39.009530450953044
-39.009530450953044
-39.009530450953044
-39.009530450953044
-39.009530450953044
-39.009530450953044
-39.009530450953044
-39.009530450953044
-39.009530450953044
-39.009530450953044
-39.009530450953044
-39.009530450953044
-39.009530450953044
-39.009530450953044
-39.009530450953044
-39.009530450953044
-39.009530450953044
-39.009530450953044
-39.009530450953044
-39.009530450953044
-39.009530450953044
-39.009530450953044
-39.009530450953044
-39.009530450953044
-39.009530450953044
-39.009530450953044
-39.009530450953044
-39.009530450953044
-39.009530450953044
-39.009530450953044
-39.009530450953044
-39.009530450953044
-39.009530450953044
-39.009530450953044
-39.009530450953044
-39.009530450953044
-39.009530450953044
-39.009530450953044
-39.009530450953044
-39.009530450953044
-39.009530450953044
-39.009530450953044
-39.009530450953044
-39.009530450953044
-39.009530450953044
-39.009530450953044
-39.009530450953044
-39.009530450953044
-39.009530450953044
-39.009530450953044
-39.009530450953044
-39.009530450953044
-39.009530450953044
-39.009530450953044
-39.009530450953044
-39.009530450953044
-39.009530450953044
-39.009530450953044
-39.009530450953044
-39.009530450953044
-39.009530450953044
-39.009530450953044
-39.009530450953044
-39.009530450953044
-39.009530450953044
-39.009530450953044
-39.009530450953044
-39.009530450953044
-39.009530450953044
-39.009530450953044
-39.009530450953044
-39.009530450953044
-39.009530450953044
-39.009530450953044
-39.009530450953044
-39.009530450953044
-39.009530450953044
-39.009530450953044
-39.009530450953044
-39.009530450953044
-39.009530450953044
-39.009530450953044
-39.009530450953044
-39.009530450953044
-39.009530450953044
-39.009530450953044
-39.009530450953044
-39.009530450953044
-39.009530450953044
-39.009530450953044
-39.009530450953044
-39.009530450953044
-39.009530450953044
-39.009530450953044
-39.009530450953044
-39.009530450953044
-39.009530450953044
-39.009530450953044
-39.009530450953044
-39.009530450953044
-39.009530450953044
-39.009530450953044
-39.009530450953044
-39.009530450953044
-39.009530450953044
-39.009530450953044
-39.009530450953044
-39.009530450953044
-39.009530450953044
-39.009530450953044
-39.009530450953044
-39.009530450953044
-39.009530450953044
-39.009530450953044
-39.009530450953044
-39.009530450953044
-39.009530450953044
-39.009530450953044
-39.009530450953044
-39.009530450953044
-39.009530450953044
-39.009530450953044
-39.009530450953044
-39.009530450953044
-39.009530450953044
-39.009530450953044
-39.009530450953044
-39.009530450953044
-39.009530450953044
-39.009530450953044
-39.009530450953044
-39.009530450953044
-39.009530450953044
-39.009530450953044
-39.009530450953044
-39.009530450953044
-39.009530450953044
-39.009530450953044
-39.009530450953044
-39.009530450953044
-39.009530450953044
-39.009530450953044
-39.009530450953044
-39.009530450953044
-39.009530450953044
-39.009530450953044
-39.009530450953044
-39.009530450953044
-39.009530450953044
-39.009530450953044
-39.009530450953044
-39.009530450953044
-39.009530450953044
-39.009530450953044
-39.009530450953044
-39.009530450953044
-39.009530450953044
-39.009530450953044
-39.009530450953044
-39.009530450953044
-39.009530450953044
-39.009530450953044
-39.009530450953044
-39.009530450953044
-39.009530450953044
-39.009530450953044
-39.009530450953044
-39.009530450953044
-39.009530450953044
-39.009530450953044
-39.009530450953044
-39.009530450953044
-39.009530450953044
-39.009530450953044
-39.009530450953044
-39.009530450953044
-39.009530450953044
-39.009530450953044
-39.009530450953044
-39.009530450953044
-39.009530450953044
-39.009530450953044
-39.009530450953044
-39.009530450953044
-39.009530450953044
-39.009530450953044
-39.009530450953044
-39.009530450953044
-39.009530450953044
-39.009530450953044
-39.009530450953044
-39.009530450953044
-39.009530450953044
-39.009530450953044
-39.009530450953044
-39.009530450953044
-39.009530450953044
-39.009530450953044
-39.009530450953044
-39.009530450953044
-39.009530450953044
-39.009530450953044
-39.009530450953044
-39.009530450953044
-39.009530450953044
-39.009530450953044
-39.009530450953044
-39.009530450953044
-39.009530450953044
-39.009530450953044
-39.009530450953044
-39.009530450953044
-39.009530450953044
-39.009530450953044
-39.009530450953044
-39.009530450953044
-39.009530450953044
-39.009530450953044
-39.009530450953044
-39.009530450953044
-39.009530450953044
-39.009530450953044
-39.009530450953044
-39.009530450953044
-39.009530450953044
-39.009530450953044
-39.009530450953044
-39.009530450953044
-39.009530450953044
-39.009530450953044
-39.009530450953044
-39.009530450953044
-39.009530450953044
-39.009530450953044
-39.009530450953044
-39.009530450953044
-39.009530450953044
-39.009530450953044
-39.009530450953044
-39.009530450953044
-39.009530450953044
-39.009530450953044
-39.009530450953044
-39.009530450953044
-39.009530450953044
-39.009530450953044
-39.009530450953044
-39.009530450953044
-39.009530450953044
-39.009530450953044
-39.009530450953044
-39.009530450953044
-39.009530450953044
-39.009530450953044
-39.009530450953044
-39.009530450953044
-39.009530450953044
-39.009530450953044
-39.009530450953044
-39.009530450953044
-39.009530450953044
-39.009530450953044
-39.009530450953044
-39.009530450953044
-39.009530450953044
-39.009530450953044
-39.009530450953044
-39.009530450953044
-39.009530450953044
-39.009530450953044
-39.009530450953044
-39.009530450953044
-39.009530450953044
-39.009530450953044
-39.009530450953044
-39.009530450953044
-39.009530450953044
-39.009530450953044
-39.009530450953044
-39.009530450953044
-39.009530450953044
-39.009530450953044
-39.009530450953044
-39.009530450953044
-39.009530450953044
-39.009530450953044
-39.009530450953044
-39.009530450953044
-39.009530450953044
-39.009530450953044
-39.009530450953044
-39.009530450953044
-39.009530450953044
-39.009530450953044
-39.009530450953044
-39.009530450953044
-39.009530450953044
-39.009530450953044
-39.009530450953044
-39.009530450953044
-39.009530450953044
-39.009530450953044
-39.009530450953044
-39.009530450953044
-39.009530450953044
-39.009530450953044
-39.009530450953044
-39.009530450953044
-39.009530450953044
-39.009530450953044
-39.009530450953044
-39.009530450953044
-39.009530450953044
-39.009530450953044
-39.009530450953044
-39.009530450953044
-39.009530450953044
-39.009530450953044
-39.009530450953044
-39.009530450953044
-39.009530450953044
-39.009530450953044
-39.009530450953044
-39.009530450953044
-39.009530450953044
-39.009530450953044
-39.009530450953044
-39.009530450953044
-39.009530450953044
-39.009530450953044
-39.009530450953044
-39.009530450953044
-39.009530450953044
-39.009530450953044
-39.009530450953044
-39.009530450953044
-39.009530450953044
-39.009530450953044
-39.009530450953044
-39.009530450953044
-39.009530450953044
-39.009530450953044
-39.009530450953044
-39.009530450953044
-39.009530450953044
-39.009530450953044
-39.009530450953044
-39.009530450953044
-39.009530450953044
-39.009530450953044
-39.009530450953044
-39.009530450953044
-39.009530450953044
-39.009530450953044
-39.009530450953044
-39.009530450953044
-39.009530450953044
-39.009530450953044
-39.009530450953044
-39.009530450953044
-39.009530450953044
-39.009530450953044
-39.009530450953044
-39.009530450953044
-39.009530450953044
-39.009530450953044
-39.009530450953044
-39.009530450953044
-39.009530450953044
-39.009530450953044
-39.009530450953044
-39.009530450953044
-39.009530450953044
-39.009530450953044
-39.009530450953044
-39.009530450953044
-39.009530450953044
-39.009530450953044
-39.009530450953044
-39.009530450953044
-39.009530450953044
-39.009530450953044
-39.009530450953044
-39.009530450953044
-39.009530450953044
-39.009530450953044
-39.009530450953044
-39.009530450953044
-39.009530450953044
-39.009530450953044
-39.009530450953044
-39.009530450953044
-39.009530450953044
-39.009530450953044
-39.009530450953044
-39.009530450953044
-39.009530450953044
-39.009530450953044
-39.009530450953044
-39.009530450953044
-39.009530450953044
-39.009530450953044
-39.009530450953044
-39.009530450953044
-39.009530450953044
-39.009530450953044
-39.009530450953044
-39.009530450953044
-39.009530450953044
-39.009530450953044
-39.009530450953044
-39.009530450953044
-39.009530450953044
-39.009530450953044
-39.009530450953044
-39.009530450953044
-39.009530450953044
-39.009530450953044
-39.009530450953044
-39.009530450953044
-39.009530450953044
-39.009530450953044
-39.009530450953044
-39.009530450953044
-39.009530450953044
-39.009530450953044
-39.009530450953044
-39.009530450953044
-39.009530450953044
-39.009530450953044
-39.009530450953044
-39.009530450953044
-39.009530450953044
-39.009530450953044
-39.009530450953044
-39.009530450953044
-39.009530450953044
-39.009530450953044
-39.009530450953044
-39.009530450953044
-39.009530450953044
-39.009530450953044
-39.009530450953044
-39.009530450953044
-39.009530450953044
-39.009530450953044
-39.009530450953044
-39.009530450953044
-39.009530450953044
-39.009530450953044
-39.009530450953044
-39.009530450953044
-39.009530450953044
-39.009530450953044
-39.009530450953044
-39.009530450953044
-39.009530450953044
-39.009530450953044
-39.009530450953044
-39.009530450953044
-39.009530450953044
-39.009530450953044
-39.009530450953044
-39.009530450953044
-39.009530450953044
-39.009530450953044
-39.009530450953044
-39.009530450953044
-39.009530450953044
-39.009530450953044
-39.009530450953044
-39.009530450953044
-39.009530450953044
-39.009530450953044
-39.009530450953044
-39.009530450953044
-39.009530450953044
-39.009530450953044
-39.009530450953044
-39.009530450953044
-39.009530450953044
-39.009530450953044
-39.009530450953044
-39.009530450953044
-39.009530450953044
-39.009530450953044
-39.009530450953044
-39.009530450953044
-39.009530450953044
-39.009530450953044
-39.009530450953044
-39.009530450953044
-39.009530450953044
-39.009530450953044
-39.009530450953044
-39.009530450953044
-39.009530450953044
-39.009530450953044
-39.009530450953044
-39.009530450953044
-39.009530450953044
-39.009530450953044
-39.009530450953044
-39.009530450953044
-39.009530450953044
-39.009530450953044
-39.009530450953044
-39.009530450953044
-39.009530450953044
-39.009530450953044
-39.009530450953044
-39.009530450953044
-39.009530450953044
-39.009530450953044
-39.009530450953044
-39.009530450953044
-39.009530450953044
-39.009530450953044
-39.009530450953044
-39.009530450953044
-39.009530450953044
-39.009530450953044
-39.009530450953044
-39.009530450953044
-39.009530450953044
-39.009530450953044
-39.009530450953044
-39.009530450953044
-39.009530450953044
-39.009530450953044
-39.009530450953044
-39.009530450953044
-39.009530450953044
-39.009530450953044
-39.009530450953044
-39.009530450953044
-39.009530450953044
-39.009530450953044
-39.009530450953044
-39.009530450953044
-39.009530450953044
-39.009530450953044
-39.009530450953044
-39.009530450953044
-39.009530450953044
-39.009530450953044
-39.009530450953044
-39.009530450953044
-39.009530450953044
-39.009530450953044
-39.009530450953044
-39.009530450953044
-39.009530450953044
-39.009530450953044
-39.009530450953044
-39.009530450953044
-39.009530450953044
-39.009530450953044
-39.009530450953044
-39.009530450953044
-39.009530450953044
-39.009530450953044
-39.009530450953044
-39.009530450953044
-39.009530450953044
-39.009530450953044
-39.009530450953044
-39.009530450953044
-39.009530450953044
-39.009530450953044
-39.009530450953044
-39.009530450953044
-39.009530450953044
-39.009530450953044
-39.009530450953044
-39.009530450953044
-39.009530450953044
-39.009530450953044
-39.009530450953044
-39.009530450953044
-39.009530450953044
-39.009530450953044
-39.009530450953044
-39.009530450953044
-39.009530450953044
-39.009530450953044
-39.009530450953044
-39.009530450953044
-39.009530450953044
-39.009530450953044
-39.009530450953044
-39.009530450953044
-39.009530450953044
-39.009530450953044
-39.009530450953044
-39.009530450953044
-39.009530450953044
-39.009530450953044
-39.009530450953044
-39.009530450953044
-39.009530450953044
-39.009530450953044
-39.009530450953044
-39.009530450953044
-39.009530450953044
-39.009530450953044
-39.009530450953044
-39.009530450953044
-39.009530450953044
-39.009530450953044
-39.009530450953044
-39.009530450953044
-39.009530450953044
-39.009530450953044
-39.009530450953044
-39.009530450953044
-39.009530450953044
-39.009530450953044
-39.009530450953044
-39.009530450953044
-39.009530450953044
-39.009530450953044
-39.009530450953044
-39.009530450953044
-39.009530450953044
-39.009530450953044
-39.009530450953044
-39.009530450953044
-39.009530450953044
-39.009530450953044
-39.009530450953044
-39.009530450953044
-39.009530450953044
-39.009530450953044
-39.009530450953044
-39.009530450953044
-39.009530450953044
-39.009530450953044
-39.009530450953044
-39.009530450953044
-39.009530450953044
-39.009530450953044
-39.009530450953044
-39.009530450953044
-39.009530450953044
-39.009530450953044
-39.009530450953044
-39.009530450953044
-39.009530450953044
-39.009530450953044
-39.009530450953044
-39.009530450953044
-39.009530450953044
-39.009530450953044
-39.009530450953044
-39.009530450953044
-39.009530450953044
-39.009530450953044
-39.009530450953044
-39.009530450953044
-39.009530450953044
-39.009530450953044
-39.009530450953044
-39.009530450953044
-39.009530450953044
-39.009530450953044
-39.009530450953044
-39.009530450953044
-39.009530450953044
-39.009530450953044
-39.009530450953044
-39.009530450953044
-39.009530450953044
-39.009530450953044
-39.009530450953044
-39.009530450953044
-39.009530450953044
-39.009530450953044
-39.009530450953044
-39.009530450953044
-39.009530450953044
-39.009530450953044
-39.009530450953044
-39.009530450953044
-39.009530450953044
-39.009530450953044
-39.009530450953044
-39.009530450953044
-39.009530450953044
-39.009530450953044
-39.009530450953044
-39.009530450953044
-39.009530450953044
-39.009530450953044
-39.009530450953044
-39.009530450953044
-39.009530450953044
-39.009530450953044
-39.009530450953044
-39.009530450953044
-39.009530450953044
-39.009530450953044
-39.009530450953044
-39.009530450953044
-39.009530450953044
-39.009530450953044
-39.009530450953044
-39.009530450953044
-39.009530450953044
-39.009530450953044
-39.009530450953044
-39.009530450953044
-39.009530450953044
-39.009530450953044
-39.009530450953044
-39.009530450953044
-39.009530450953044
-39.009530450953044
-39.009530450953044
-39.009530450953044
-39.009530450953044
-39.009530450953044
-39.009530450953044
-39.009530450953044
-39.009530450953044
-39.009530450953044
-39.009530450953044
-39.009530450953044
-39.009530450953044
-39.009530450953044
-39.009530450953044
-39.009530450953044
-39.009530450953044
-39.009530450953044
-39.009530450953044
-39.009530450953044
-39.009530450953044
-39.009530450953044
-39.009530450953044
-39.009530450953044
-39.009530450953044
-39.009530450953044
-39.009530450953044
-39.009530450953044
-39.009530450953044
-39.009530450953044
-39.009530450953044
-39.009530450953044
-39.009530450953044
-39.009530450953044
-39.009530450953044
-39.009530450953044
-39.009530450953044
-39.009530450953044
-39.009530450953044
-39.009530450953044
-39.009530450953044
-39.009530450953044
-39.009530450953044
-39.009530450953044
-39.009530450953044
-39.009530450953044
-39.009530450953044
-39.009530450953044
-39.009530450953044
-39.009530450953044
-39.009530450953044
-39.009530450953044
-39.009530450953044
-39.009530450953044
-39.009530450953044
-39.009530450953044
-39.009530450953044
-39.009530450953044
-39.009530450953044
-39.009530450953044
-39.009530450953044
-39.009530450953044
-39.009530450953044
-39.009530450953044
-39.009530450953044
-39.009530450953044
-39.009530450953044
-39.009530450953044
-39.009530450953044
-39.009530450953044
-39.009530450953044
-39.009530450953044
-39.009530450953044
-39.009530450953044
-39.009530450953044
-39.009530450953044
-39.009530450953044
-39.009530450953044
-39.009530450953044
-39.009530450953044
-39.009530450953044
-39.009530450953044
-39.009530450953044
-39.009530450953044
-39.009530450953044
-39.009530450953044
-39.009530450953044
-39.009530450953044
-39.009530450953044
-39.009530450953044
-39.009530450953044
-39.009530450953044
-39.009530450953044
-39.009530450953044
-39.009530450953044
-39.009530450953044
-39.009530450953044
-39.009530450953044
-39.009530450953044
-39.009530450953044
-39.009530450953044
-39.009530450953044
-39.009530450953044
-39.009530450953044
-39.009530450953044
-39.009530450953044
-39.009530450953044
-39.009530450953044
-39.009530450953044
-39.009530450953044
-39.009530450953044
-39.009530450953044
-39.009530450953044
-39.009530450953044
-39.009530450953044
-39.009530450953044
-39.009530450953044
-39.009530450953044
-39.009530450953044
-39.009530450953044
-39.009530450953044
-39.009530450953044
-39.009530450953044
-39.009530450953044
-39.009530450953044
-39.009530450953044
-39.009530450953044
-39.009530450953044
-39.009530450953044
-39.009530450953044
-39.009530450953044
-39.009530450953044
-39.009530450953044
-39.009530450953044
-39.009530450953044
-39.009530450953044
-39.009530450953044
-39.009530450953044
-39.009530450953044
-39.009530450953044
-39.009530450953044
-39.009530450953044
-39.009530450953044
-39.009530450953044
-39.009530450953044
-39.009530450953044
-39.009530450953044
-39.009530450953044
-39.009530450953044
-39.009530450953044
-39.009530450953044
-39.009530450953044
-39.009530450953044
-39.009530450953044
-39.009530450953044
-39.009530450953044
-39.009530450953044
-39.009530450953044
-39.009530450953044
-39.009530450953044
-39.009530450953044
-39.009530450953044
-39.009530450953044
-39.009530450953044
-39.009530450953044
-39.009530450953044
-39.009530450953044
-39.009530450953044
-39.009530450953044
-39.009530450953044
-39.009530450953044
-39.009530450953044
-39.009530450953044
-39.009530450953044
-39.009530450953044
-39.009530450953044
-39.009530450953044
-39.009530450953044
-39.009530450953044
-39.009530450953044
-39.009530450953044
-39.009530450953044
-39.009530450953044
-39.009530450953044
-39.009530450953044
-39.009530450953044
-39.009530450953044
-39.009530450953044
-39.009530450953044
-39.009530450953044
-39.009530450953044
-39.009530450953044
-39.009530450953044
-39.009530450953044
-39.009530450953044
-39.009530450953044
-39.009530450953044
-39.009530450953044
-39.009530450953044
-39.009530450953044
-39.009530450953044
-39.009530450953044
-39.009530450953044
-39.009530450953044
-39.009530450953044
-39.009530450953044
-39.009530450953044
-39.009530450953044
-39.009530450953044
-39.009530450953044
-39.009530450953044
-39.009530450953044
-39.009530450953044
-39.009530450953044
-39.009530450953044
-39.009530450953044
-39.009530450953044
-39.009530450953044
-39.009530450953044
-39.009530450953044
-39.009530450953044
-39.009530450953044
-39.009530450953044
-39.009530450953044
-39.009530450953044
-39.009530450953044
-39.009530450953044
-39.009530450953044
-39.009530450953044
-39.009530450953044
-39.009530450953044
-39.009530450953044
-39.009530450953044
-39.009530450953044
-39.009530450953044
-39.009530450953044
-39.009530450953044
-39.009530450953044
-39.009530450953044
-39.009530450953044
-39.009530450953044
-39.009530450953044
-39.009530450953044
-39.009530450953044
-39.009530450953044
-39.009530450953044
-39.009530450953044
-39.009530450953044
-39.009530450953044
-39.009530450953044
-39.009530450953044
-39.009530450953044
-39.009530450953044
-39.009530450953044
-29.116471873547187
19.402515574151554
20.393231055323103
10.50006369130637
-38.01897814969781
-39.009530450953044
-39.009530450953044
-39.009530450953044
-39.009530450953044
-39.009530450953044
-39.009530450953044
-39.009530450953044
-39.009530450953044
-39.009530450953044
-39.009530450953044
-39.009530450953044
-39.009530450953044
-39.009530450953044
-39.009530450953044
-39.009530450953044
-39.009530450953044
-39.009530450953044
-39.009530450953044
-39.009530450953044
-39.009530450953044
-39.009530450953044
-39.009530450953044
-39.009530450953044
-39.009530450953044
-39.009530450953044
-39.009530450953044
-39.009530450953044
-39.009530450953044
-39.009530450953044
-39.009530450953044
-39.009530450953044
-39.009530450953044
-39.009530450953044
-39.009530450953044
-39.009530450953044
-39.009530450953044
-39.009530450953044
-39.009530450953044
-39.009530450953044
-39.009530450953044
-39.009530450953044
-39.009530450953044
-39.009530450953044
-39.009530450953044
-39.009530450953044
-39.009530450953044
-39.009530450953044
-39.009530450953044
-39.009530450953044
-39.009530450953044
-39.009530450953044
-39.009530450953044
-39.009530450953044
-39.009530450953044
-39.009530450953044
-39.009530450953044
-39.009530450953044
-39.009530450953044
-39.009530450953044
-39.009530450953044
-39.009530450953044
-39.009530450953044
-39.009530450953044
-39.009530450953044
-39.009530450953044
-39.009530450953044
-39.009530450953044
-39.009530450953044
-39.009530450953044
-39.009530450953044
-39.009530450953044
-39.009530450953044
-39.009530450953044
-39.009530450953044
-39.009530450953044
-39.009530450953044
-39.009530450953044
-39.009530450953044
-39.009530450953044
-39.009530450953044
-39.009530450953044
-39.009530450953044
-39.009530450953044
-39.009530450953044
-39.009530450953044
-39.009530450953044
-39.009530450953044
-39.009530450953044
-39.009530450953044
-39.009530450953044
-39.009530450953044
-39.009530450953044
-39.009530450953044
-39.009530450953044
-39.009530450953044
-39.009530450953044
-39.009530450953044
-39.009530450953044
-39.009530450953044
-39.009530450953044
-39.009530450953044
-39.009530450953044
-39.009530450953044
-39.009530450953044
-39.009530450953044
-39.009530450953044
-39.009530450953044
-39.009530450953044
-39.009530450953044
-39.009530450953044
-39.009530450953044
-39.009530450953044
-39.009530450953044
-39.009530450953044
-39.009530450953044
-39.009530450953044
-39.009530450953044
-39.009530450953044
-39.009530450953044
-39.009530450953044
-39.009530450953044
-39.009530450953044
-39.009530450953044
-39.009530450953044
-39.009530450953044
-39.009530450953044
-39.009530450953044
-39.009530450953044
-39.009530450953044
-39.009530450953044
-39.009530450953044
-39.009530450953044
-39.009530450953044
-39.009530450953044
-39.009530450953044
-39.009530450953044
-39.009530450953044
-39.009530450953044
-39.009530450953044
-39.009530450953044
-39.009530450953044
-39.009530450953044
-39.009530450953044
-39.009530450953044
-39.009530450953044
-39.009530450953044
-39.009530450953044
-39.009530450953044
-39.009530450953044
-39.009530450953044
-39.009530450953044
-39.009530450953044
-39.009530450953044
-39.009530450953044
-39.009530450953044
-39.009530450953044
-39.009530450953044
-39.009530450953044
-39.009530450953044
-39.009530450953044
-39.009530450953044
-39.009530450953044
-39.009530450953044
-39.009530450953044
-39.009530450953044
-39.009530450953044
-39.009530450953044
-39.009530450953044
-39.009530450953044
-39.009530450953044
-39.009530450953044
-39.009530450953044
-39.009530450953044
-39.009530450953044
-39.009530450953044
-39.009530450953044
-39.009530450953044
-39.009530450953044
-39.009530450953044
-39.009530450953044
-39.009530450953044
-39.009530450953044
-39.009530450953044
-39.009530450953044
-39.009530450953044
-39.009530450953044
-39.009530450953044
-39.009530450953044
-39.009530450953044
-39.009530450953044
-39.009530450953044
-39.009530450953044
-39.009530450953044
-39.009530450953044
-39.009530450953044
-39.009530450953044
-39.009530450953044
-39.009530450953044
-39.009530450953044
-39.009530450953044
-39.009530450953044
-39.009530450953044
-39.009530450953044
-39.009530450953044
-39.009530450953044
-39.009530450953044
-39.009530450953044
-39.009530450953044
-39.009530450953044
-39.009530450953044
-39.009530450953044
-39.009530450953044
-39.009530450953044
-39.009530450953044
-39.009530450953044
-39.009530450953044
-39.009530450953044
-39.009530450953044
-39.009530450953044
-39.009530450953044
-39.009530450953044
-39.009530450953044
-39.009530450953044
-39.009530450953044
-39.009530450953044
-39.009530450953044
-39.009530450953044
-39.009530450953044
-39.009530450953044
-39.009530450953044
-39.009530450953044
-39.009530450953044
-39.009530450953044
-39.009530450953044
-39.009530450953044
-39.009530450953044
-39.009530450953044
-39.009530450953044
-39.009530450953044
-39.009530450953044
-39.009530450953044
-39.009530450953044
-39.009530450953044
-39.009530450953044
-39.009530450953044
-39.009530450953044
-39.009530450953044
-39.009530450953044
-39.009530450953044
-39.009530450953044
-39.009530450953044
-39.009530450953044
-39.009530450953044
-39.009530450953044
-39.009530450953044
-39.009530450953044
-39.009530450953044
-39.009530450953044
-39.009530450953044
-39.009530450953044
-39.009530450953044
-39.009530450953044
-39.009530450953044
-39.009530450953044
-39.009530450953044
-39.009530450953044
-39.009530450953044
-39.009530450953044
-39.009530450953044
-39.009530450953044
-39.009530450953044
-39.009530450953044
-39.009530450953044
-39.009530450953044
-39.009530450953044
-39.009530450953044
-39.009530450953044
-39.009530450953044
-39.009530450953044
-39.009530450953044
-39.009530450953044
-39.009530450953044
-39.009530450953044
-39.009530450953044
-39.009530450953044
-39.009530450953044
-39.009530450953044
-39.009530450953044
-39.009530450953044
-39.009530450953044
-39.009530450953044
-39.009530450953044
-39.009530450953044
-39.009530450953044
-39.009530450953044
-39.009530450953044
-39.009530450953044
-39.009530450953044
-39.009530450953044
-39.009530450953044
-39.009530450953044
-39.009530450953044
-39.009530450953044
-39.009530450953044
-39.009530450953044
-39.009530450953044
-39.009530450953044
-39.009530450953044
-39.009530450953044
-39.009530450953044
-39.009530450953044
-39.009530450953044
-39.009530450953044
-39.009530450953044
-39.009530450953044
-39.009530450953044
-39.009530450953044
-39.009530450953044
-39.009530450953044
-39.009530450953044
-39.009530450953044
-39.009530450953044
-39.009530450953044
-39.009530450953044
-39.009530450953044
-39.009530450953044
-39.009530450953044
-39.009530450953044
-39.009530450953044
-39.009530450953044
-39.009530450953044
-39.009530450953044
-39.009530450953044
-39.009530450953044
-39.009530450953044
-39.009530450953044
-39.009530450953044
-39.009530450953044
-39.009530450953044
-39.009530450953044
-39.009530450953044
-39.009530450953044
-39.009530450953044
-39.009530450953044
-39.009530450953044
-39.009530450953044
-39.009530450953044
-39.009530450953044
-39.009530450953044
-39.009530450953044
-39.009530450953044
-39.009530450953044
-39.009530450953044
-39.009530450953044
-39.009530450953044
-39.009530450953044
-39.009530450953044
-39.009530450953044
-39.009530450953044
-39.009530450953044
-39.009530450953044
-39.009530450953044
-39.009530450953044
-39.009530450953044
-39.009530450953044
-39.009530450953044
-39.009530450953044
-39.009530450953044
-39.009530450953044
-39.009530450953044
-39.009530450953044
-39.009530450953044
-39.009530450953044
-39.009530450953044
-39.009530450953044
-39.009530450953044
-39.009530450953044
-39.009530450953044
-39.009530450953044
-39.009530450953044
-39.009530450953044
-39.009530450953044
-39.009530450953044
-39.009530450953044
-39.009530450953044
-39.009530450953044
-39.009530450953044
-39.009530450953044
-39.009530450953044
-39.009530450953044
-39.009530450953044
-39.009530450953044
-39.009530450953044
-39.009530450953044
-39.009530450953044
-39.009530450953044
-39.009530450953044
-39.009530450953044
-39.009530450953044
-39.009530450953044
-39.009530450953044
-39.009530450953044
-39.009530450953044
-39.009530450953044
-39.009530450953044
-39.009530450953044
-39.009530450953044
-39.009530450953044
-39.009530450953044
-39.009530450953044
-39.009530450953044
-39.009530450953044
-39.009530450953044
-39.009530450953044
-39.009530450953044
-39.009530450953044
-39.009530450953044
-39.009530450953044
-39.009530450953044
-39.009530450953044
-39.009530450953044
-39.009530450953044
-39.009530450953044
-39.009530450953044
-39.009530450953044
-39.009530450953044
-39.009530450953044
-39.009530450953044
-39.009530450953044
-39.009530450953044
-39.009530450953044
-39.009530450953044
-39.009530450953044
-39.009530450953044
-39.009530450953044
-39.009530450953044
-39.009530450953044
-39.009530450953044
-39.009530450953044
-39.009530450953044
-39.009530450953044
-39.009530450953044
-39.009530450953044
-39.009530450953044
-39.009530450953044
-39.009530450953044
-39.009530450953044
-39.009530450953044
-39.009530450953044
-39.009530450953044
-39.009530450953044
-39.009530450953044
-39.009530450953044
-39.009530450953044
-39.009530450953044
-39.009530450953044
-39.009530450953044
-39.009530450953044
-39.009530450953044
-39.009530450953044
-39.009530450953044
-39.009530450953044
-39.009530450953044
-39.009530450953044
-39.009530450953044
-39.009530450953044
-39.009530450953044
-39.009530450953044
-39.009530450953044
-39.009530450953044
-39.009530450953044
-39.009530450953044
-39.009530450953044
-39.009530450953044
-39.009530450953044
-39.009530450953044
-39.009530450953044
-39.009530450953044
-39.009530450953044
-39.009530450953044
-39.009530450953044
-39.009530450953044
-39.009530450953044
-39.009530450953044
-39.009530450953044
-39.009530450953044
-39.009530450953044
-39.009530450953044
-39.009530450953044
-39.009530450953044
-39.009530450953044
-39.009530450953044
-39.009530450953044
-39.009530450953044
-39.009530450953044
-39.009530450953044
-39.009530450953044
-39.009530450953044
-39.009530450953044
-39.009530450953044
-39.009530450953044
-39.009530450953044
-39.009530450953044
-39.009530450953044
-39.009530450953044
-39.009530450953044
-39.009530450953044
-39.009530450953044
-39.009530450953044
-39.009530450953044
-39.009530450953044
-39.009530450953044
-39.009530450953044
-39.009530450953044
-39.009530450953044
-39.009530450953044
-39.009530450953044
-39.009530450953044
-39.009530450953044
-39.009530450953044
-39.009530450953044
-39.009530450953044
-39.009530450953044
-39.009530450953044
-39.009530450953044
-39.009530450953044
-39.009530450953044
-39.009530450953044
-39.009530450953044
-39.009530450953044
-39.009530450953044
-39.009530450953044
-39.009530450953044
-39.009530450953044
-39.009530450953044
-39.009530450953044
-39.009530450953044
-39.009530450953044
-39.009530450953044
-39.009530450953044
-39.009530450953044
-39.009530450953044
-39.009530450953044
-39.009530450953044
-39.009530450953044
-39.009530450953044
-39.009530450953044
-39.009530450953044
-39.009530450953044
-39.009530450953044
-39.009530450953044
-39.009530450953044
-39.009530450953044
-39.009530450953044
-39.009530450953044
-39.009530450953044
-39.009530450953044
-39.009530450953044
-39.009530450953044
-39.009530450953044
-39.009530450953044
-39.009530450953044
-39.009530450953044
-39.009530450953044
-39.009530450953044
-39.009530450953044
-39.009530450953044
-39.009530450953044
-39.009530450953044
-39.009530450953044
-39.009530450953044
-39.009530450953044
-39.009530450953044
-39.009530450953044
-39.009530450953044
-39.009530450953044
-39.009530450953044
-39.009530450953044
-39.009530450953044
-39.009530450953044
-39.009530450953044
-39.009530450953044
-39.009530450953044
-39.009530450953044
-39.009530450953044
-39.009530450953044
-39.009530450953044
-39.009530450953044
-39.009530450953044
-39.009530450953044
-39.009530450953044
-39.009530450953044
-39.009530450953044
-39.009530450953044
-39.009530450953044
-39.009530450953044
-39.009530450953044
-39.009530450953044
-39.009530450953044
-39.009530450953044
-39.009530450953044
-39.009530450953044
-39.009530450953044
-39.009530450953044
-39.009530450953044
-39.009530450953044
-39.009530450953044
-39.009530450953044
-39.009530450953044
-39.009530450953044
-39.009530450953044
-39.009530450953044
-39.009530450953044
-39.009530450953044
-39.009530450953044
-39.009530450953044
-39.009530450953044
-39.009530450953044
-39.009530450953044
-39.009530450953044
-39.009530450953044
-39.009530450953044
-39.009530450953044
-39.009530450953044
-39.009530450953044
-39.009530450953044
-39.009530450953044
-39.009530450953044
-39.009530450953044
-39.009530450953044
-39.009530450953044
-39.009530450953044
-39.009530450953044
-39.009530450953044
-39.009530450953044
-39.009530450953044
-39.009530450953044
-39.009530450953044
-39.009530450953044
-39.009530450953044
-39.009530450953044
-39.009530450953044
-39.009530450953044
-39.009530450953044
-39.009530450953044
-39.009530450953044
-39.009530450953044
-39.009530450953044
-39.009530450953044
-39.009530450953044
-39.009530450953044
-39.009530450953044
-39.009530450953044
-39.009530450953044
-39.009530450953044
-39.009530450953044
-39.009530450953044
-39.009530450953044
-39.009530450953044
-39.009530450953044
-39.009530450953044
-39.009530450953044
-39.009530450953044
-39.009530450953044
-39.009530450953044
-39.009530450953044
-39.009530450953044
-39.009530450953044
-39.009530450953044
-39.009530450953044
-39.009530450953044
-39.009530450953044
-39.009530450953044
-39.009530450953044
-39.009530450953044
-39.009530450953044
-39.009530450953044
-39.009530450953044
-39.009530450953044
-39.009530450953044
-39.009530450953044
-39.009530450953044
-39.009530450953044
-39.009530450953044
-39.009530450953044
-39.009530450953044
-39.009530450953044
-39.009530450953044
-39.009530450953044
-39.009530450953044
-39.009530450953044
-39.009530450953044
-39.009530450953044
-39.009530450953044
-39.009530450953044
-39.009530450953044
-39.009530450953044
-39.009530450953044
-39.009530450953044
-39.009530450953044
-39.009530450953044
-39.009530450953044
-39.009530450953044
-39.009530450953044
-39.009530450953044
-39.009530450953044
-39.009530450953044
-39.009530450953044
-39.009530450953044
-39.009530450953044
-39.009530450953044
-39.009530450953044
-39.009530450953044
-39.009530450953044
-39.009530450953044
-39.009530450953044
-39.009530450953044
-39.009530450953044
-39.009530450953044
-39.009530450953044
-39.009530450953044
-39.009530450953044
-39.009530450953044
-39.009530450953044
-39.009530450953044
-39.009530450953044
-39.009530450953044
-39.009530450953044
-39.009530450953044
-39.009530450953044
-39.009530450953044
-39.009530450953044
-39.009530450953044
-39.009530450953044
-39.009530450953044
-39.009530450953044
-39.009530450953044
-39.009530450953044
-39.009530450953044
-39.009530450953044
-39.009530450953044
-39.009530450953044
-39.009530450953044
-39.009530450953044
-39.009530450953044
-39.009530450953044
-39.009530450953044
-39.009530450953044
-39.009530450953044
-39.009530450953044
-39.009530450953044
-39.009530450953044
-39.009530450953044
-39.009530450953044
-39.009530450953044
-39.009530450953044
-39.009530450953044
-39.009530450953044
-39.009530450953044
-39.009530450953044
-39.009530450953044
-39.009530450953044
-39.009530450953044
-39.009530450953044
-39.009530450953044
-39.009530450953044
-39.009530450953044
-39.009530450953044
-39.009530450953044
-39.009530450953044
-39.009530450953044
-39.009530450953044
-39.009530450953044
-39.009530450953044
-39.009530450953044
-39.009530450953044
-39.009530450953044
-39.009530450953044
-39.009530450953044
-39.009530450953044
-39.009530450953044
-39.009530450953044
-39.009530450953044
-39.009530450953044
-39.009530450953044
-39.009530450953044
-39.009530450953044
-39.009530450953044
-39.009530450953044
-39.009530450953044
-39.009530450953044
-39.009530450953044
-39.009530450953044
-39.009530450953044
-39.009530450953044
-39.009530450953044
-39.009530450953044
-39.009530450953044
-39.009530450953044
-39.009530450953044
-39.009530450953044
-39.009530450953044
-39.009530450953044
-39.009530450953044
-39.009530450953044
-39.009530450953044
-39.009530450953044
-39.009530450953044
-39.009530450953044
-39.009530450953044
-39.009530450953044
-39.009530450953044
-39.009530450953044
-39.009530450953044
-39.009530450953044
-39.009530450953044
-39.009530450953044
-39.009530450953044
-39.009530450953044
-39.009530450953044
-39.009530450953044
-39.009530450953044
-39.009530450953044
-39.009530450953044
-39.009530450953044
-39.009530450953044
-39.009530450953044
-39.009530450953044
-39.009530450953044
-39.009530450953044
-39.009530450953044
-39.009530450953044
-39.009530450953044
-39.009530450953044
-39.009530450953044
-39.009530450953044
-39.009530450953044
-39.009530450953044
-39.009530450953044
-39.009530450953044
-39.009530450953044
-39.009530450953044
-39.009530450953044
-39.009530450953044
-39.009530450953044
-39.009530450953044
-39.009530450953044
-39.009530450953044
-39.009530450953044
-39.009530450953044
-39.009530450953044
-39.009530450953044
-39.009530450953044
-39.009530450953044
-39.009530450953044
-39.009530450953044
-39.009530450953044
-39.009530450953044
-39.009530450953044
-39.009530450953044
-39.009530450953044
-39.009530450953044
-39.009530450953044
-39.009530450953044
-39.009530450953044
-39.009530450953044
-39.009530450953044
-39.009530450953044
-39.009530450953044
-39.009530450953044
-39.009530450953044
-39.009530450953044
-39.009530450953044
-39.009530450953044
-39.009530450953044
-39.009530450953044
-39.009530450953044
-39.009530450953044
-39.009530450953044
-39.009530450953044
-39.009530450953044
-39.009530450953044
-39.009530450953044
-39.009530450953044
-39.009530450953044
-39.009530450953044
-39.009530450953044
-39.009530450953044
-39.009530450953044
-39.009530450953044
-39.009530450953044
-39.009530450953044
-39.009530450953044
-39.009530450953044
-39.009530450953044
-39.009530450953044
-39.009530450953044
-39.009530450953044
-39.009530450953044
-39.009530450953044
-39.009530450953044
-39.009530450953044
-39.009530450953044
-39.009530450953044
-39.009530450953044
-39.009530450953044
-39.009530450953044
-39.009530450953044
-39.009530450953044
-39.009530450953044
-39.009530450953044
-39.009530450953044
-39.009530450953044
-39.009530450953044
-39.009530450953044
-39.009530450953044
-39.009530450953044
-39.009530450953044
-39.009530450953044
-39.009530450953044
-39.009530450953044
-39.009530450953044
-39.009530450953044
-3.5820953045095303
58.50222687122268
59.500887959088786
59.49705950720595
59.4560260344026
59.40972059507205
59.36244444444445
59.31682519758251
59.271569967457005
59.229645281264524
59.17671641097164
59.10946536494653
59.03409298000929
58.9894109716411
58.97859088795908
58.96431473733147
58.94446954904695
58.92908461180847
58.889632728963285
58.83987540678754
58.79292561599256
58.75623523942352
58.72694653649465
58.70226034402604
58.6737749883775
58.64572059507206
58.6122519758252
58.5823189214319
58.551795908879605
58.50415992561599
58.43582519758253
58.41087540678755
58.373189214318906
58.33538586703859
58.30636913063692
58.2755908879591
58.25965783356578
58.244101348210144
58.202063691306364
37.73749465364946
-33.18317061831706
-39.009530450953044
-39.009530450953044
-39.009530450953044
-39.009530450953044
-39.009530450953044
-39.009530450953044
-39.009530450953044
-39.009530450953044
-39.009530450953044
-39.009530450953044
-39.009530450953044
-39.009530450953044
-39.009530450953044
-39.009530450953044
-39.009530450953044
-39.009530450953044
-39.009530450953044
-18.647350534635052
52.14349465364946
57.985632728963274
58.01696327289633
57.97959088795908
57.94774151557415
57.9282310553231
57.913147373314736
57.88963272896327
57.85295072059506
57.820126452812644
57.78310553231055
57.72496745699674
57.68154904695491
57.640456996745705
57.61012226871223
57.58808042770805
57.55631055323105
57.516314737331484
57.478846118084604
57.44192561599257
57.4095950720595
57.37521850302185
57.34615992561599
57.326636913063695
42.85069967456997
-29.380840074384004
-39.009530450953044
-39.009530450953044
-39.009530450953044
-39.009530450953044
-39.009530450953044
-39.009530450953044
-39.009530450953044
-39.009530450953044
-39.009530450953044
-39.009530450953044
-39.009530450953044
-39.009530450953044
-39.009530450953044
-39.009530450953044
-39.009530450953044
-39.009530450953044
-39.009530450953044
-39.009530450953044
-39.009530450953044
-39.009530450953044
-39.009530450953044
-39.009530450953044
-39.009530450953044
-39.009530450953044
-39.009530450953044
-39.009530450953044
-39.009530450953044
-39.009530450953044
-39.009530450953044
-39.009530450953044
-39.009530450953044
-39.009530450953044
-39.009530450953044
-39.009530450953044
-39.009530450953044
-39.009530450953044
-39.009530450953044
-39.009530450953044
-39.009530450953044
-39.009530450953044
-39.009530450953044
-39.009530450953044
-39.009530450953044
-39.009530450953044
-39.009530450953044
-39.009530450953044
-39.009530450953044
-39.009530450953044
-39.009530450953044
-39.009530450953044
-39.009530450953044
-39.009530450953044
-39.009530450953044
-39.009530450953044
-39.009530450953044
-39.009530450953044
-39.009530450953044
-39.009530450953044
-39.009530450953044
-39.009530450953044
-39.009530450953044
-39.009530450953044
-39.009530450953044
-39.009530450953044
-39.009530450953044
-39.009530450953044
-39.009530450953044
-39.009530450953044
-39.009530450953044
-39.009530450953044
-39.009530450953044
-39.009530450953044
-39.009530450953044
-39.009530450953044
-39.009530450953044
-39.009530450953044
-39.009530450953044
-39.009530450953044
-39.009530450953044
-39.009530450953044
-39.009530450953044
-39.009530450953044
-39.009530450953044
-39.009530450953044
-39.009530450953044
-39.009530450953044
-39.009530450953044
-39.009530450953044
-39.009530450953044
-39.009530450953044
-39.009530450953044
-39.009530450953044
-39.009530450953044
-39.009530450953044
-39.009530450953044
-39.009530450953044
-39.009530450953044
-39.009530450953044
-39.009530450953044
-39.009530450953044
-39.009530450953044
-39.009530450953044
-39.009530450953044
-39.009530450953044
-39.009530450953044
-39.009530450953044
-39.009530450953044
-39.009530450953044
-39.009530450953044
-39.009530450953044
-39.009530450953044
-39.009530450953044
-39.009530450953044
-39.009530450953044
-39.009530450953044
-39.009530450953044
-39.009530450953044
-39.009530450953044
-39.009530450953044
-39.009530450953044
-39.009530450953044
-39.009530450953044
-39.009530450953044
-39.009530450953044
-39.009530450953044
-39.009530450953044
-39.009530450953044
-39.009530450953044
-39.009530450953044
-39.009530450953044
-39.009530450953044
-39.009530450953044
-39.009530450953044
-39.009530450953044
-39.009530450953044
-39.009530450953044
-39.009530450953044
-39.009530450953044
-39.009530450953044
-39.009530450953044
-39.009530450953044
-39.009530450953044
-39.009530450953044
-39.009530450953044
-39.009530450953044
-39.009530450953044
-39.009530450953044
-39.009530450953044
-39.009530450953044
-39.009530450953044
-39.009530450953044
-39.009530450953044
-39.009530450953044
-39.009530450953044
-39.009530450953044
-39.009530450953044
-39.009530450953044
-39.009530450953044
-39.009530450953044
-39.009530450953044
-39.009530450953044
-39.009530450953044
-39.009530450953044
-39.009530450953044
-39.009530450953044
-39.009530450953044
-39.009530450953044
-39.009530450953044
-39.009530450953044
-39.009530450953044
-39.009530450953044
-39.009530450953044
-39.009530450953044
-39.009530450953044
-39.009530450953044
-39.009530450953044
-39.009530450953044
-39.009530450953044
-39.009530450953044
-39.009530450953044
-39.009530450953044
-39.009530450953044
-39.009530450953044
-39.009530450953044
-39.009530450953044
-39.009530450953044
-39.009530450953044
-39.009530450953044
-39.009530450953044
-39.009530450953044
-39.009530450953044
-39.009530450953044
-39.009530450953044
-39.009530450953044
-39.009530450953044
-39.009530450953044
-39.009530450953044
-39.009530450953044
-39.009530450953044
-39.009530450953044
-39.009530450953044
-39.009530450953044
-39.009530450953044
-39.009530450953044
-39.009530450953044
-39.009530450953044
-39.009530450953044
-39.009530450953044
-39.009530450953044
-39.009530450953044
-39.009530450953044
-39.009530450953044
-39.009530450953044
-39.009530450953044
-39.009530450953044
-39.009530450953044
-39.009530450953044
-39.009530450953044
-39.009530450953044
-39.009530450953044
-39.009530450953044
-39.009530450953044
-39.009530450953044
-39.009530450953044
-39.009530450953044
-39.009530450953044
-39.009530450953044
-39.009530450953044
-39.009530450953044
-39.009530450953044
-39.009530450953044
-39.009530450953044
-39.009530450953044
-39.009530450953044
-39.009530450953044
-39.009530450953044
-39.009530450953044
-39.009530450953044
-39.009530450953044
-39.009530450953044
-39.009530450953044
-39.009530450953044
-39.009530450953044
-39.009530450953044
-39.009530450953044
-39.009530450953044
-39.009530450953044
-39.009530450953044
-39.009530450953044
-39.009530450953044
-39.009530450953044
-39.009530450953044
-39.009530450953044
-39.009530450953044
-39.009530450953044
-39.009530450953044
-39.009530450953044
-39.009530450953044
-39.009530450953044
-39.009530450953044
-39.009530450953044
-39.009530450953044
-39.009530450953044
-39.009530450953044
-39.009530450953044
-39.009530450953044
-39.009530450953044
-39.009530450953044
-39.009530450953044
-39.009530450953044
-39.009530450953044
-39.009530450953044
-39.009530450953044
-39.009530450953044
-39.009530450953044
-39.009530450953044
-39.009530450953044
-39.009530450953044
-39.009530450953044
-39.009530450953044
-39.009530450953044
-39.009530450953044
-39.009530450953044
-39.009530450953044
-39.009530450953044
-39.009530450953044
-39.009530450953044
-39.009530450953044
-39.009530450953044
-39.009530450953044
-39.009530450953044
-39.009530450953044
-39.009530450953044
-39.009530450953044
-39.009530450953044
-39.009530450953044
-39.009530450953044
-39.009530450953044
-39.009530450953044
-39.009530450953044
-39.009530450953044
-39.009530450953044
-39.009530450953044
-39.009530450953044
-39.009530450953044
-39.009530450953044
-39.009530450953044
-39.009530450953044
-39.009530450953044
-39.009530450953044
-39.009530450953044
-39.009530450953044
-39.009530450953044
-39.009530450953044
-39.009530450953044
-39.009530450953044
-39.009530450953044
-39.009530450953044
-39.009530450953044
-39.009530450953044
-39.009530450953044
-39.009530450953044
-39.009530450953044
-39.009530450953044
-39.009530450953044
-39.009530450953044
-39.009530450953044
-39.009530450953044
-39.009530450953044
-39.009530450953044
-39.009530450953044
-39.009530450953044
-39.009530450953044
-39.009530450953044
-39.009530450953044
-39.009530450953044
-39.009530450953044
-39.009530450953044
-39.009530450953044
-39.009530450953044
-39.009530450953044
-39.009530450953044
-39.009530450953044
-39.009530450953044
-39.009530450953044
-39.009530450953044
-39.009530450953044
-39.009530450953044
-39.009530450953044
-39.009530450953044
-39.009530450953044
-39.009530450953044
-39.009530450953044
-39.009530450953044
-39.009530450953044
-39.009530450953044
-39.009530450953044
-39.009530450953044
-39.009530450953044
-39.009530450953044
-39.009530450953044
-39.009530450953044
-39.009530450953044
-39.009530450953044
-39.009530450953044
-39.009530450953044
-39.009530450953044
-39.009530450953044
-39.009530450953044
-39.009530450953044
-39.009530450953044
-39.009530450953044
-39.009530450953044
-39.009530450953044
-39.009530450953044
-39.009530450953044
-39.009530450953044
-39.009530450953044
-39.009530450953044
-39.009530450953044
-39.009530450953044
-39.009530450953044
-39.009530450953044
-39.009530450953044
-39.009530450953044
-39.009530450953044
-39.009530450953044
-39.009530450953044
-39.009530450953044
-39.009530450953044
-39.009530450953044
-39.009530450953044
-39.009530450953044
-39.009530450953044
-39.009530450953044
-39.009530450953044
-39.009530450953044
-39.009530450953044
-39.009530450953044
-39.009530450953044
-39.009530450953044
-39.009530450953044
-39.009530450953044
-39.009530450953044
-39.009530450953044
-39.009530450953044
-39.009530450953044
-39.009530450953044
-39.009530450953044
-39.009530450953044
-39.009530450953044
-39.009530450953044
-39.009530450953044
-39.009530450953044
-39.009530450953044
-39.009530450953044
-39.009530450953044
-39.009530450953044
-39.009530450953044
-39.009530450953044
-39.009530450953044
-39.009530450953044
-39.009530450953044
-39.009530450953044
-39.009530450953044
-39.009530450953044
-39.009530450953044
-39.009530450953044
-39.009530450953044
-39.009530450953044
-39.009530450953044
-39.009530450953044
-39.009530450953044
-39.009530450953044
-39.009530450953044
-39.009530450953044
-39.009530450953044
-39.009530450953044
-39.009530450953044
-39.009530450953044
-39.009530450953044
-39.009530450953044
-39.009530450953044
-39.009530450953044
-39.009530450953044
-39.009530450953044
-39.009530450953044
-39.009530450953044
-39.009530450953044
-39.009530450953044
-39.009530450953044
-39.009530450953044
-39.009530450953044
-39.009530450953044
-39.009530450953044
-39.009530450953044
-39.009530450953044
-39.009530450953044
-39.009530450953044
-9.297120409112042
53.51179172477917
57.04230218503021
57.04260344026035
57.03146118084611
57.01433984193399
56.99398000929799
56.96601348210133
56.94249046954904
56.91629800092981
56.882561599256164
56.85317247791725
56.81789214318921
56.79476662017667
56.77058251975825
56.74836494653649
56.72721013482101
56.702264528126456
56.67055741515575
56.62003021850303
56.57469130636914
56.55317666201766
56.53406787540679
56.50954486285449
56.48210134821014
56.46037749883774
56.436168293816834
33.024854486285456
-31.37975220827522
-39.009530450953044
-39.009530450953044
-39.009530450953044
-39.009530450953044
-39.009530450953044
-39.009530450953044
-39.009530450953044
-39.009530450953044
-39.009530450953044
-39.009530450953044
-39.009530450953044
-39.009530450953044
-39.009530450953044
-39.009530450953044
-39.009530450953044
-39.009530450953044
-39.009530450953044
-39.009530450953044
-39.009530450953044
-39.009530450953044
-39.009530450953044
-39.009530450953044
-39.009530450953044
-39.009530450953044
-39.009530450953044
-39.009530450953044
-39.009530450953044
-39.009530450953044
-39.009530450953044
-39.009530450953044
-39.009530450953044
-39.009530450953044
-39.009530450953044
-39.009530450953044
-39.009530450953044
-39.009530450953044
-39.009530450953044
-39.009530450953044
-39.009530450953044
-39.009530450953044
-39.009530450953044
-39.009530450953044
-39.009530450953044
-39.009530450953044
-39.009530450953044
-39.009530450953044
-39.009530450953044
-39.009530450953044
-39.009530450953044
-39.009530450953044
-39.009530450953044
-39.009530450953044
-39.009530450953044
-39.009530450953044
-39.009530450953044
-39.009530450953044
-39.009530450953044
-39.009530450953044
-39.009530450953044
-39.009530450953044
-39.009530450953044
-39.009530450953044
-39.009530450953044
-39.009530450953044
-39.009530450953044
-39.009530450953044
-39.009530450953044
-39.009530450953044
-39.009530450953044
-39.009530450953044
-39.009530450953044
-39.009530450953044
-39.009530450953044
-39.009530450953044
-39.009530450953044
-39.009530450953044
-39.009530450953044
-39.009530450953044
-39.009530450953044
-39.009530450953044
-39.009530450953044
-39.009530450953044
-39.009530450953044
-39.009530450953044
-39.009530450953044
-39.009530450953044
-39.009530450953044
-39.009530450953044
-39.009530450953044
-39.009530450953044
-39.009530450953044
-39.009530450953044
-39.009530450953044
-39.009530450953044
-39.009530450953044
-39.009530450953044
-39.009530450953044
-39.009530450953044
-39.009530450953044
-39.009530450953044
-39.009530450953044
-39.009530450953044
-39.009530450953044
-39.009530450953044
-39.009530450953044
-39.009530450953044
-39.009530450953044
-39.009530450953044
-39.009530450953044
-39.009530450953044
-39.009530450953044
-39.009530450953044
-39.009530450953044
-39.009530450953044
-39.009530450953044
-39.009530450953044
-39.009530450953044
-39.009530450953044
-39.009530450953044
-39.009530450953044
-39.009530450953044
-39.009530450953044
-39.009530450953044
-39.009530450953044
-39.009530450953044
-39.009530450953044
-39.009530450953044
-39.009530450953044
-39.009530450953044
-39.009530450953044
-39.009530450953044
-39.009530450953044
-39.009530450953044
-39.009530450953044
-39.009530450953044
-39.009530450953044
-39.009530450953044
-39.009530450953044
-39.009530450953044
-39.009530450953044
-39.009530450953044
-39.009530450953044
-39.009530450953044
-39.009530450953044
-39.009530450953044
-39.009530450953044
-39.009530450953044
-39.009530450953044
-39.009530450953044
-39.009530450953044
-39.009530450953044
-39.009530450953044
-39.009530450953044
-39.009530450953044
-39.009530450953044
-39.009530450953044
-39.009530450953044
-39.009530450953044
-39.009530450953044
-39.009530450953044
-39.009530450953044
-39.009530450953044
-39.009530450953044
-39.009530450953044
-39.009530450953044
-39.009530450953044
-39.009530450953044
-39.009530450953044
-39.009530450953044
-39.009530450953044
-39.009530450953044
-39.009530450953044
-39.009530450953044
-39.009530450953044
-39.009530450953044
-39.009530450953044
-39.009530450953044
-39.009530450953044
-39.009530450953044
-39.009530450953044
-39.009530450953044
-39.009530450953044
-39.009530450953044
-39.009530450953044
-39.009530450953044
-39.009530450953044
-39.009530450953044
-39.009530450953044
-39.009530450953044
-39.009530450953044
-39.009530450953044
-39.009530450953044
-39.009530450953044
-39.009530450953044
-39.009530450953044
-39.009530450953044
-39.009530450953044
-39.009530450953044
-39.009530450953044
-39.009530450953044
-39.009530450953044
-39.009530450953044
-39.009530450953044
-39.009530450953044
-39.009530450953044
-39.009530450953044
-39.009530450953044
-39.009530450953044
-39.009530450953044
-39.009530450953044
-39.009530450953044
-39.009530450953044
-39.009530450953044
-39.009530450953044
-39.009530450953044
-39.009530450953044
-39.009530450953044
-39.009530450953044
-39.009530450953044
-39.009530450953044
-39.009530450953044
-39.009530450953044
-39.009530450953044
-39.009530450953044
-39.009530450953044
-39.009530450953044
-39.009530450953044
-39.009530450953044
-39.009530450953044
-39.009530450953044
-39.009530450953044
-39.009530450953044
-39.009530450953044
-39.009530450953044
-39.009530450953044
-39.009530450953044
-39.009530450953044
-39.009530450953044
-39.009530450953044
-39.009530450953044
-39.009530450953044
-39.009530450953044
-39.009530450953044
-39.009530450953044
-39.009530450953044
-39.009530450953044
-39.009530450953044
-39.009530450953044
-39.009530450953044
-39.009530450953044
-39.009530450953044
-39.009530450953044
-39.009530450953044
-39.009530450953044
-39.009530450953044
-39.009530450953044
-39.009530450953044
-39.009530450953044
-39.009530450953044
-39.009530450953044
-39.009530450953044
-39.009530450953044
-39.009530450953044
-39.009530450953044
-39.009530450953044
-39.009530450953044
-39.009530450953044
-39.009530450953044
-39.009530450953044
-39.009530450953044
-39.009530450953044
-39.009530450953044
-39.009530450953044
-39.009530450953044
-39.009530450953044
-39.009530450953044
-39.009530450953044
-39.009530450953044
-39.009530450953044
-39.009530450953044
-39.009530450953044
-39.009530450953044
-39.009530450953044
-39.009530450953044
-39.009530450953044
-39.009530450953044
-39.009530450953044
-39.009530450953044
-39.009530450953044
-39.009530450953044
-39.009530450953044
-39.009530450953044
-39.009530450953044
-39.009530450953044
-39.009530450953044
-39.009530450953044
-39.009530450953044
-39.009530450953044
-39.009530450953044
-39.009530450953044
-39.009530450953044
-39.009530450953044
-39.009530450953044
-39.009530450953044
-39.009530450953044
-39.009530450953044
-39.009530450953044
-39.009530450953044
-39.009530450953044
-39.009530450953044
-39.009530450953044
-39.009530450953044
-39.009530450953044
-39.009530450953044
-39.009530450953044
-39.009530450953044
-39.009530450953044
-39.009530450953044
-39.009530450953044
-39.009530450953044
-39.009530450953044
-39.009530450953044
-39.009530450953044
-39.009530450953044
-39.009530450953044
-39.009530450953044
-39.009530450953044
-39.009530450953044
-39.009530450953044
-39.009530450953044
-39.009530450953044
-39.009530450953044
-39.009530450953044
-39.009530450953044
-39.009530450953044
-39.009530450953044
-39.009530450953044
-39.009530450953044
-39.009530450953044
-39.009530450953044
-33.309271036727104
33.22271641097164
56.145724779172475
56.19074151557415
56.19366620176662
56.16655741515574
56.141331473733146
56.12874988377498
56.10039423523942
56.0709339841934
56.03917247791725
56.01187959088795
55.97654067875406
55.953218503021844
55.932490469549045
55.90617666201767
55.8869130636913
55.860000929800094
55.83630218503022
55.80882519758252
55.31235239423525
-0.6279739655973984
-39.009530450953044
-39.009530450953044
-39.009530450953044
-39.009530450953044
-39.009530450953044
-39.009530450953044
-39.009530450953044
-39.009530450953044
-39.009530450953044
-39.009530450953044
-39.009530450953044
-39.009530450953044
-39.009530450953044
-39.009530450953044
-39.009530450953044
-39.009530450953044
-39.009530450953044
-39.009530450953044
-39.009530450953044
-39.009530450953044
-39.009530450953044
-39.009530450953044
-39.009530450953044
-39.009530450953044
-39.009530450953044
-39.009530450953044
-39.009530450953044
-39.009530450953044
-39.009530450953044
-39.009530450953044
-39.009530450953044
-39.009530450953044
-39.009530450953044
-39.009530450953044
-39.009530450953044
-39.009530450953044
-39.009530450953044
-39.009530450953044
-39.009530450953044
-39.009530450953044
-39.009530450953044
-39.009530450953044
-39.009530450953044
-39.009530450953044
-39.009530450953044
-39.009530450953044
-39.009530450953044
-39.009530450953044
-39.009530450953044
-39.009530450953044
-39.009530450953044
-39.009530450953044
-39.009530450953044
-39.009530450953044
-39.009530450953044
-39.009530450953044
-39.009530450953044
-39.009530450953044
-39.009530450953044
-39.009530450953044
-39.009530450953044
-39.009530450953044
-39.009530450953044
-39.009530450953044
-39.009530450953044
-39.009530450953044
-39.009530450953044
-39.009530450953044
-39.009530450953044
-39.009530450953044
-39.009530450953044
-39.009530450953044
-39.009530450953044
-39.009530450953044
-39.009530450953044
-39.009530450953044
-39.009530450953044
-39.009530450953044
-39.009530450953044
-39.009530450953044
-39.009530450953044
-39.009530450953044
-39.009530450953044
-39.009530450953044
-39.009530450953044
-39.009530450953044
-39.009530450953044
-39.009530450953044
-39.009530450953044
-39.009530450953044
-39.009530450953044
-39.009530450953044
-39.009530450953044
-39.009530450953044
-39.009530450953044
-39.009530450953044
-39.009530450953044
-39.009530450953044
-39.009530450953044
-39.009530450953044
-39.009530450953044
-39.009530450953044
-39.009530450953044
-39.009530450953044
-39.009530450953044
-39.009530450953044
-39.009530450953044
-39.009530450953044
-39.009530450953044
-39.009530450953044
-39.009530450953044
-39.009530450953044
-39.009530450953044
-39.009530450953044
-39.009530450953044
-39.009530450953044
-39.009530450953044
-39.009530450953044
-39.009530450953044
-39.009530450953044
-39.009530450953044
-39.009530450953044
-39.009530450953044
-39.009530450953044
-39.009530450953044
-39.009530450953044
-39.009530450953044
-39.009530450953044
-39.009530450953044
-39.009530450953044
-39.009530450953044
-39.009530450953044
-39.009530450953044
-39.009530450953044
-39.009530450953044
-39.009530450953044
-39.009530450953044
-39.009530450953044
-39.009530450953044
-39.009530450953044
-39.009530450953044
-39.009530450953044
-39.009530450953044
-39.009530450953044
-39.009530450953044
-39.009530450953044
-39.009530450953044
-39.009530450953044
-39.009530450953044
-39.009530450953044
-39.009530450953044
-39.009530450953044
-39.009530450953044
-39.009530450953044
-39.009530450953044
-39.009530450953044
-39.009530450953044
-39.009530450953044
-39.009530450953044
-39.009530450953044
-39.009530450953044
-39.009530450953044
-39.009530450953044
-39.009530450953044
-39.009530450953044
-39.009530450953044
-39.009530450953044
-39.009530450953044
-39.009530450953044
-39.009530450953044
-39.009530450953044
-39.009530450953044
-39.009530450953044
-39.009530450953044
-39.009530450953044
-39.009530450953044
-39.009530450953044
-39.009530450953044
-39.009530450953044
-39.009530450953044
-39.009530450953044
-39.009530450953044
-39.009530450953044
-39.009530450953044
-39.009530450953044
-39.009530450953044
-39.009530450953044
-39.009530450953044
-39.009530450953044
-39.009530450953044
-39.009530450953044
-39.009530450953044
-39.009530450953044
-39.009530450953044
-39.009530450953044
-39.009530450953044
-39.009530450953044
-39.009530450953044
-39.009530450953044
-39.009530450953044
-39.009530450953044
-39.009530450953044
-39.009530450953044
-39.009530450953044
-39.009530450953044
-39.009530450953044
-39.009530450953044
-39.009530450953044
-39.009530450953044
-39.009530450953044
-39.009530450953044
-39.009530450953044
-39.009530450953044
-39.009530450953044
-39.009530450953044
-39.009530450953044
-39.009530450953044
-39.009530450953044
-39.009530450953044
-39.009530450953044
-39.009530450953044
-39.009530450953044
-39.009530450953044
-39.009530450953044
-39.009530450953044
-39.009530450953044
-39.009530450953044
-39.009530450953044
-39.009530450953044
-39.009530450953044
-39.009530450953044
-39.009530450953044
-39.009530450953044
-39.009530450953044
-39.009530450953044
-39.009530450953044
-39.009530450953044
-39.009530450953044
-39.009530450953044
-39.009530450953044
-39.009530450953044
-39.009530450953044
-39.009530450953044
-39.009530450953044
-39.009530450953044
-39.009530450953044
-39.009530450953044
-39.009530450953044
-39.009530450953044
-39.009530450953044
-39.009530450953044
-39.009530450953044
-39.009530450953044
-39.009530450953044
-39.009530450953044
-39.009530450953044
-39.009530450953044
-39.009530450953044
-39.009530450953044
-39.009530450953044
-39.009530450953044
-39.009530450953044
-39.009530450953044
-39.009530450953044
-39.009530450953044
-39.009530450953044
-39.009530450953044
-39.009530450953044
-39.009530450953044
-39.009530450953044
-39.009530450953044
-39.009530450953044
-39.009530450953044
-39.009530450953044
-39.009530450953044
-39.009530450953044
-39.009530450953044
-39.009530450953044
-39.009530450953044
-39.009530450953044
-39.009530450953044
-39.009530450953044
-39.009530450953044
-39.009530450953044
-39.009530450953044
-39.009530450953044
-39.009530450953044
-39.009530450953044
-39.009530450953044
-39.009530450953044
-39.009530450953044
-39.009530450953044
-39.009530450953044
-39.009530450953044
-39.009530450953044
-39.009530450953044
-39.009530450953044
-39.009530450953044
-39.009530450953044
-39.009530450953044
-39.009530450953044
-39.009530450953044
-39.009530450953044
-39.009530450953044
-39.009530450953044
-39.009530450953044
-39.009530450953044
-39.009530450953044
-39.009530450953044
-39.009530450953044
-39.009530450953044
-39.009530450953044
-39.009530450953044
-39.009530450953044
-39.009530450953044
-39.009530450953044
-39.009530450953044
-39.009530450953044
-39.009530450953044
-39.009530450953044
-39.009530450953044
-39.009530450953044
-39.009530450953044
-39.009530450953044
-39.009530450953044
-39.009530450953044
-39.009530450953044
-39.009530450953044
-39.009530450953044
-39.009530450953044
-39.009530450953044
-39.009530450953044
-39.009530450953044
-39.009530450953044
-39.009530450953044
-39.009530450953044
-39.009530450953044
-39.009530450953044
-39.009530450953044
-39.009530450953044
-39.009530450953044
-39.009530450953044
-39.009530450953044
-39.009530450953044
-39.009530450953044
-39.009530450953044
-39.009530450953044
-39.009530450953044
-39.009530450953044
-39.009530450953044
-39.009530450953044
-39.009530450953044
-39.009530450953044
-39.009530450953044
-39.009530450953044
-39.009530450953044
-39.009530450953044
-39.009530450953044
-39.009530450953044
-39.009530450953044
-39.009530450953044
-39.009530450953044
-39.009530450953044
-39.009530450953044
-39.009530450953044
-39.009530450953044
-39.009530450953044
-39.009530450953044
-39.009530450953044
-39.009530450953044
-39.009530450953044
-39.009530450953044
-39.009530450953044
-39.009530450953044
-39.009530450953044
-39.009530450953044
-39.009530450953044
-39.009530450953044
-39.009530450953044
-39.009530450953044
-39.009530450953044
-39.009530450953044
-39.009530450953044
-39.009530450953044
-39.009530450953044
-39.009530450953044
-39.009530450953044
-39.009530450953044
-39.009530450953044
-39.009530450953044
-39.009530450953044
-39.009530450953044
-39.009530450953044
-39.009530450953044
-39.009530450953044
-39.009530450953044
-39.009530450953044
-39.009530450953044
-39.009530450953044
-39.009530450953044
-39.009530450953044
-39.009530450953044
-39.009530450953044
-39.009530450953044
-39.009530450953044
-39.009530450953044
-39.009530450953044
-39.009530450953044
-39.009530450953044
-39.009530450953044
-39.009530450953044
-39.009530450953044
-39.009530450953044
-39.009530450953044
-39.009530450953044
-39.009530450953044
-39.009530450953044
-39.009530450953044
-39.009530450953044
-39.009530450953044
-39.009530450953044
-39.009530450953044
-39.009530450953044
-39.009530450953044
-39.009530450953044
-39.009530450953044
-39.009530450953044
-39.009530450953044
-39.009530450953044
-39.009530450953044
-39.009530450953044
-39.009530450953044
-39.009530450953044
-39.009530450953044
-39.009530450953044
-39.009530450953044
-39.009530450953044
-39.009530450953044
-39.009530450953044
-39.009530450953044
-39.009530450953044
-39.009530450953044
-39.009530450953044
-39.009530450953044
-39.009530450953044
-39.009530450953044
-39.009530450953044
-39.009530450953044
-39.009530450953044
-39.009530450953044
-39.009530450953044
-39.009530450953044
-39.009530450953044
-39.009530450953044
-39.009530450953044
-39.009530450953044
-39.009530450953044
-39.009530450953044
-39.009530450953044
-39.009530450953044
-39.009530450953044
-39.009530450953044
-39.009530450953044
-39.009530450953044
-39.009530450953044
-39.009530450953044
-39.009530450953044
-39.009530450953044
-39.009530450953044
-39.009530450953044
-39.009530450953044
-39.009530450953044
-39.009530450953044
-39.009530450953044
-39.009530450953044
-39.009530450953044
-39.009530450953044
-39.009530450953044
-39.009530450953044
-39.009530450953044
-39.009530450953044
-39.009530450953044
-39.009530450953044
-39.009530450953044
-39.009530450953044
-39.009530450953044
-39.009530450953044
-39.009530450953044
-39.009530450953044
-39.009530450953044
-39.009530450953044
-39.009530450953044
-39.009530450953044
-39.009530450953044
-39.009530450953044
-39.009530450953044
-39.009530450953044
-39.009530450953044
-39.009530450953044
-39.009530450953044
-39.009530450953044
-39.009530450953044
-39.009530450953044
-39.009530450953044
-39.009530450953044
-39.009530450953044
-39.009530450953044
-39.009530450953044
-39.009530450953044
-39.009530450953044
-39.009530450953044
-39.009530450953044
-39.009530450953044
-39.009530450953044
-39.009530450953044
-39.009530450953044
-39.009530450953044
-39.009530450953044
-39.009526266852625
0.5708503021850297
26.96038586703859
26.960318921431888
-13.566241748024172
-39.009530450953044
-39.009530450953044
-39.009530450953044
-39.009530450953044
-39.009530450953044
-39.009530450953044
-39.009530450953044
-39.009530450953044
-39.009530450953044
-39.009530450953044
-39.009530450953044
-39.009530450953044
-39.009530450953044
-39.009530450953044
-39.009530450953044
-39.009530450953044
-39.009530450953044
-39.009530450953044
-39.009530450953044
-39.009530450953044
-39.009530450953044
-39.009530450953044
-39.009530450953044
-39.009530450953044
-39.009530450953044
-39.009530450953044
-39.009530450953044
-39.009530450953044
-39.009530450953044
-39.009530450953044
-39.009530450953044
-39.009530450953044
-39.009530450953044
-39.009530450953044
-39.009530450953044
-39.009530450953044
-39.009530450953044
-39.009530450953044
-39.009530450953044
-39.009530450953044
-39.009530450953044
-39.009530450953044
-39.009530450953044
-39.009530450953044
-39.009530450953044
-39.009530450953044
-39.009530450953044
-39.009530450953044
-39.009530450953044
-39.009530450953044
-39.009530450953044
-39.009530450953044
-39.009530450953044
-39.009530450953044
-39.009530450953044
-39.009530450953044
-39.009530450953044
-39.009530450953044
-39.009530450953044
-39.009530450953044
-39.009530450953044
-39.009530450953044
-39.009530450953044
-39.009530450953044
-39.009530450953044
-39.009530450953044
-39.009530450953044
-39.009530450953044
-39.009530450953044
-39.009530450953044
-39.009530450953044
-39.009530450953044
-39.009530450953044
-39.009530450953044
-39.009530450953044
-39.009530450953044
-39.009530450953044
-39.009530450953044
-39.009530450953044
-39.009530450953044
-39.009530450953044
-39.009530450953044
-39.009530450953044
-39.009530450953044
-39.009530450953044
-39.009530450953044
-39.009530450953044
-39.009530450953044
-39.009530450953044
-39.009530450953044
-39.009530450953044
-39.009530450953044
-39.009530450953044
-39.009530450953044
-39.009530450953044
-39.009530450953044
-39.009530450953044
-39.009530450953044
-39.009530450953044
-39.009530450953044
-39.009530450953044
-39.009530450953044
-39.009530450953044
-39.009530450953044
-39.009530450953044
-39.009530450953044
-39.009530450953044
-39.009530450953044
-39.009530450953044
-39.009530450953044
-39.009530450953044
-39.009530450953044
-39.009530450953044
-39.009530450953044
-39.009530450953044
-39.009530450953044
-39.009530450953044
-39.009530450953044
-39.009530450953044
-39.009530450953044
-39.009530450953044
-39.009530450953044
-39.009530450953044
-39.009530450953044
-39.009530450953044
-39.009530450953044
-39.009530450953044
-39.009530450953044
-39.009530450953044
-39.009530450953044
-39.009530450953044
-39.009530450953044
-39.009530450953044
-39.009530450953044
-39.009530450953044
-39.009530450953044
-39.009530450953044
-39.009530450953044
-39.009530450953044
-39.009530450953044
-39.009530450953044
-39.009530450953044
-39.009530450953044
-39.009530450953044
-39.009530450953044
-39.009530450953044
-39.009530450953044
-39.009530450953044
-39.009530450953044
-39.009530450953044
-39.009530450953044
-39.009530450953044
-39.009530450953044
-39.009530450953044
-39.009530450953044
-39.009530450953044
-39.009530450953044
-39.009530450953044
-39.009530450953044
-39.009530450953044
-39.009530450953044
-39.009530450953044
-39.009530450953044
-39.009530450953044
-39.009530450953044
-39.009530450953044
-39.009530450953044
-39.009530450953044
-39.009530450953044
-39.009530450953044
-39.009530450953044
-39.009530450953044
-39.009530450953044
-39.009530450953044
-39.009530450953044
-39.009530450953044
-39.009530450953044
-39.009530450953044
-39.009530450953044
-39.009530450953044
-39.009530450953044
-39.009530450953044
-39.009530450953044
-39.009530450953044
-39.009530450953044
-39.009530450953044
-39.009530450953044
-39.009530450953044
-39.009530450953044
-39.009530450953044
-39.009530450953044
-39.009530450953044
-39.009530450953044
-39.009530450953044
-39.009530450953044
-39.009530450953044
-39.009530450953044
-39.009530450953044
-39.009530450953044
-39.009530450953044
-39.009530450953044
-39.009530450953044
-39.009530450953044
-39.009530450953044
-39.009530450953044
-39.009530450953044
-39.009530450953044
-39.009530450953044
-39.009530450953044
-39.009530450953044
-39.009530450953044
-39.009530450953044
-39.009530450953044
-39.009530450953044
-39.009530450953044
-39.009530450953044
-39.009530450953044
-39.009530450953044
-39.009530450953044
-39.009530450953044
-39.009530450953044
-39.009530450953044
-39.009530450953044
-39.009530450953044
-39.009530450953044
-39.009530450953044
-39.009530450953044
-39.009530450953044
-39.009530450953044
-39.009530450953044
-39.009530450953044
-39.009530450953044
-39.009530450953044
-39.009530450953044
-39.009530450953044
-39.009530450953044
-39.009530450953044
-39.009530450953044
-39.009530450953044
-39.009530450953044
-39.009530450953044
-39.009530450953044
-39.009530450953044
-39.009530450953044
-39.009530450953044
-39.009530450953044
-39.009530450953044
-39.009530450953044
-39.009530450953044
-39.009530450953044
-39.009530450953044
-39.009530450953044
-39.009530450953044
-39.009530450953044
-39.009530450953044
-39.009530450953044
-39.009530450953044
-39.009530450953044
-39.009530450953044
-39.009530450953044
-39.009530450953044
-39.009530450953044
-39.009530450953044
-39.009530450953044
-39.009530450953044
-39.009530450953044
-39.009530450953044
-39.009530450953044
-39.009530450953044
-39.009530450953044
-39.009530450953044
-39.009530450953044
-39.009530450953044
-39.009530450953044
-39.009530450953044
-39.009530450953044
-39.009530450953044
-39.009530450953044
-39.009530450953044
-39.009530450953044
-39.009530450953044
-39.009530450953044
-39.009530450953044
-39.009530450953044
-39.009530450953044
-39.009530450953044
-39.009530450953044
-39.009530450953044
-39.009530450953044
-39.009530450953044
-39.009530450953044
-39.009530450953044
-39.009530450953044
-39.009530450953044
-39.009530450953044
-39.009530450953044
-39.009530450953044
-39.009530450953044
-39.009530450953044
-39.009530450953044
-39.009530450953044
-39.009530450953044
-39.009530450953044
-39.009530450953044
-39.009530450953044
-39.009530450953044
-39.009530450953044
-39.009530450953044
-39.009530450953044
-39.009530450953044
-39.009530450953044
-39.009530450953044
-39.009530450953044
-39.009530450953044
-39.009530450953044
-39.009530450953044
-39.009530450953044
-39.009530450953044
-39.009530450953044
-39.009530450953044
-39.009530450953044
-39.009530450953044
-39.009530450953044
-39.009530450953044
-39.009530450953044
-39.009530450953044
-39.009530450953044
-39.009530450953044
-39.009530450953044
-39.009530450953044
-39.009530450953044
-39.009530450953044
-39.009530450953044
-39.009530450953044
-39.009530450953044
-39.009530450953044
-39.009530450953044
-39.009530450953044
-39.009530450953044
-39.009530450953044
-39.009530450953044
-39.009530450953044
-39.009530450953044
-39.009530450953044
-39.009530450953044
-39.009530450953044
-39.009530450953044
-39.009530450953044
-39.009530450953044
-39.009530450953044
-39.009530450953044
-39.009530450953044
-39.009530450953044
-39.009530450953044
-39.009530450953044
-39.009530450953044
-39.009530450953044
-39.009530450953044
-39.009530450953044
-39.009530450953044
-39.009530450953044
-39.009530450953044
-39.009530450953044
-39.009530450953044
-39.009530450953044
-39.009530450953044
-39.009530450953044
-39.009530450953044
-39.009530450953044
-39.009530450953044
-39.009530450953044
-39.009530450953044
-39.009530450953044
-39.009530450953044
-39.009530450953044
-39.009530450953044
-39.009530450953044
-39.009530450953044
-39.009530450953044
-39.009530450953044
-39.009530450953044
-39.009530450953044
-39.009530450953044
-39.009530450953044
-39.009530450953044
-39.009530450953044
-39.009530450953044
-39.009530450953044
-39.009530450953044
-39.009530450953044
-39.009530450953044
-39.009530450953044
-39.009530450953044
-39.009530450953044
-39.009530450953044
-39.009530450953044
-39.009530450953044
-39.009530450953044
-39.009530450953044
-39.009530450953044
-39.009530450953044
-39.009530450953044
-39.009530450953044
-39.009530450953044
-39.009530450953044
-39.009530450953044
-39.009530450953044
-39.009530450953044
-39.009530450953044
-39.009530450953044
-39.009530450953044
-39.009530450953044
-39.009530450953044
-39.009530450953044
-39.009530450953044
-39.009530450953044
-39.009530450953044
-39.009530450953044
-39.009530450953044
-39.009530450953044
-39.009530450953044
-39.009530450953044
-39.009530450953044
-39.009530450953044
-39.009530450953044
-39.009530450953044
-39.009530450953044
-39.009530450953044
-39.009530450953044
-39.009530450953044
-39.009530450953044
-39.009530450953044
-37.04037563923757
-3.752371455137145
53.82881682938169
55.216080427708036
55.20426871222687
55.17530636913064
55.16260344026034
55.14577917247791
55.10534402603439
55.077038586703864
55.051381682938164
54.989076243607634
54.93693816829381
54.900904695490475
54.86762436076244
54.845469549046946
54.82100092980009
54.75994653649466
54.678381682938166
54.64578754067875
54.629339841933984
54.60267456996745
54.571390051139
54.52874988377499
53.53917666201767
-5.367693630869361
-39.009530450953044
-39.009530450953044
-39.009530450953044
-39.009530450953044
-39.009530450953044
-39.009530450953044
-39.009530450953044
-39.009530450953044
-39.009530450953044
-39.009530450953044
-39.009530450953044
-39.009530450953044
-39.009530450953044
-39.009530450953044
-39.009530450953044
-39.009530450953044
-39.009530450953044
-39.009530450953044
-39.009530450953044
-39.009530450953044
-39.009530450953044
-39.009530450953044
-39.009530450953044
-39.009530450953044
-39.009530450953044
-39.009530450953044
-39.009530450953044
-39.009530450953044
-39.009530450953044
-39.009530450953044
-39.009530450953044
-39.009530450953044
-39.009530450953044
-39.009530450953044
-39.009530450953044
-39.009530450953044
-39.009530450953044
-39.009530450953044
-39.009530450953044
-39.009530450953044
-39.009530450953044
-39.009530450953044
-39.009530450953044
-39.009530450953044
-39.009530450953044
-39.009530450953044
-39.009530450953044
-39.009530450953044
-39.009530450953044
-39.009530450953044
-39.009530450953044
-39.009530450953044
-39.009530450953044
-39.009530450953044
-39.009530450953044
-39.009530450953044
-39.009530450953044
-39.009530450953044
-39.009530450953044
-39.009530450953044
-39.009530450953044
-39.009530450953044
-39.009530450953044
-39.009530450953044
-39.009530450953044
-39.009530450953044
-39.009530450953044
-39.009530450953044
-39.009530450953044
-39.009530450953044
-39.009530450953044
-39.009530450953044
-39.009530450953044
-39.009530450953044
-39.009530450953044
-39.009530450953044
-39.009530450953044
-39.009530450953044
-39.009530450953044
-39.009530450953044
-39.009530450953044
-39.009530450953044
-39.009530450953044
-39.009530450953044
-39.009530450953044
-39.009530450953044
-39.009530450953044
-39.009530450953044
-39.009530450953044
-39.009530450953044
-14.557856810785685
50.53214737331474
54.308268712226855
54.30717247791724
54.28973733147374
54.270314737331475
54.24127708042771
54.16573314737332
54.13364946536494
54.12879590887959
54.13183774988378
54.13066201766619
54.12723942352395
54.12392980009298
54.112498837749875
54.0953189214319
54.06580009298
54.043176662017665
54.01459925615992
53.98901766620177
53.967528126452805
53.94456578335657
53.90824360762436
53.86418503021849
53.83098837749884
53.79954486285449
53.77015155741516
53.74049883774988
53.720373314737344
53.69969130636913
53.66204277080427
53.62821013482102
53.60508879590888
53.571875406787534
53.535841933984194
53.5015239423524
53.47478335657835
53.44371641097164
53.40227289632728
33.9553440260344
-33.471953045095304
-39.009530450953044
-39.009530450953044
-39.009530450953044
-39.009530450953044
-39.009530450953044
-39.009530450953044
-39.009530450953044
-39.009530450953044
