-0.6946599920302857
-4.186043235704324
0.02233100883310021
0.025155276615526988
0.02413435611343493
0.02398791259879058
0.024151092515108573
0.02251510925151025
0.02467410506740983
0.031920966992096025
0.043100883310087656
0.05121385402138473
0.060272431427242465
0.11310088331008765
0.14668665736866507
0.15410088331008767
0.15644397954439732
0.15879544397954368
0.1569962807996274
0.15713854021385334
0.16626406322640563
0.24222640632263995
0.2864607159460709
0.2878707577870751
0.2840674105067405
0.2841259879125982
0.30321803812180315
0.3300213854021379
0.33385820548581996
0.3323519293351923
0.325900046490004
0.3212975360297529
0.3170715946071588
0.31154858205485747
0.3044900046489998
0.3005485820548575
0.30136448163644747
0.30115527661552693
0.30534356113435546
0.3119753602975354
0.31257368665736807
0.31449000464899984
0.31563644816364417
0.3164732682473262
0.3198833100883303
0.32629335192933445
0.33506322640632197
0.3818749418874935
0.41869920966992036
0.4221971176197111
0.4239669920966985
0.4228247326824726
0.4188749418874934
0.41747745234774464
0.41788331008833046
0.41743979544397886
0.41636448163644746
0.4175151092515102
0.4195862389586232
0.4171594607159454
0.41287075778707505
0.41260297536029683
0.4213226406322634
0.4329335192933512
0.4803644816364474
0.49526406322640576
0.4958038121803806
0.48275778707577804
0.3451008833100877
0.25852766155276546
0.2257033937703387
0.18197117619711695
0.07152766155276548
-0.01645560204556088
-0.03908321710832239
-0.0583886564388663
-0.06635099953510062
-0.06755183635518433
-0.07219200371920105
-0.07755602045560273
-0.07740120874012155
-0.07052254765225544
-0.07605392840539352
-0.08469827986982867
-0.09670246397024705
-0.11261041376104206
-0.1388405392840546
-0.1788279869827994
-0.2808656438865651
-0.49276522547652324
-0.6150079033007908
-0.6210664807066488
-0.617192003719201
-0.47140120874012154
-0.17354765225476593
0.06339795443979476
