-2.472840871355513
-2.856679683867966
0.0028014876801514743
0.004249186424921348
0.004466759646678671
0.00827429102743181
0.012554625755465282
0.018060901906092896
0.02194793119479583
0.02593119479312218
0.029311947931197502
0.03154207345421005
0.030742910274293732
0.030337052533707963
0.025646675964670303
0.01766759646676235
0.009952115295214236
0.006261738726176578
0.00434960483496319
0.0025295211529548214
0.0017010692701096332
0.0015671780567205116
0.002303579730360679
0.006069270106929717
0.014320316132034319
0.024173872617389968
0.02949186424918913
0.03385588098559081
0.03534123663412636
0.034274291027431805
0.03548768014877072
0.03833286843328955
0.03719479311948201
0.03809437470944018
0.04157554625755734
0.04651278475128118
0.0533077638307791
0.054450023245005016
0.053989772198979935
0.04999395629939834
0.042734542073456915
0.03763412366341508
0.03638307763831047
0.03625755462575816
0.039818224081825115
0.04322408182241089
0.04479311947931466
0.047688516968854386
0.050684332868436
0.051885169688519674
0.051362157136218424
0.05253370525337323
0.05217387261738997
0.053487680148770714
0.05624081822408452
0.05780567178056989
0.06012784751278745
0.059127847512787456
0.05608182240818495
0.04967178056718076
0.04703161320316403
0.0462701069270134
0.047851696885172386
0.0516006508600678
0.05533286843328955
0.05655462575546527
0.05700232450023516
0.053805671780569886
0.050479311947933904
0.050194793119482016
0.05036215713621842
0.04853788935379164
0.04741236634123933
0.048843328684335566
0.04957136215713892
0.047872617387264435
0.05041655044165775
0.05144583914458663
0.050052533705256086
0.04575127847513056
0.04151278475128118
0.03444583914458662
0.029370525337055236
0.02619479311948202
0.022533705253373233
0.018006508600653566
0.015232450023247713
0.00441655044165775
-0.001206880520685346
-0.00567549976754727
-0.008106462110643505
-0.00844537424453472
-0.010683867968384091
-0.015240353324032627
-0.02275918177591547
-0.0295206880520661
-0.0372696420269615
-0.04172152487214979
-0.03992654579265188
-0.040692236169220915
-0.033913993491396635
0.013173872617389965
0.4412993956299423
0.6822031613203189
0.7373956299395655
0.7757387261738752
0.8043621571362184
0.8123830776383105
0.8086257554625783
0.7188014876801516
0.5678851696885194
0.40754207345421
0.35152115295211805
0.21979730357973307
0.07328684332868704
-0.06912738261273554
-0.4504830311483004
-0.5813658763365849
-0.7067298930729866
-0.7885834495583424
-0.875231985123196
-0.9449934913993465
-1.0070646211064596
-1.118579265457924
-1.3493826127382587
-1.833420269642024
-2.2148930729893044
-2.3943867968386767
-2.378700604370058
-2.407842863784283
-2.4012696420269606
-2.264876336587631
-2.2136754997675476
-2.196926545792652
-2.291357508135748
-2.3654872152487183
-2.4775499767549944
-2.597219432821941
-2.636211064621104
-2.6640227801022762
-2.6472278010227774
-2.523784286378426
-2.3195416085541583
-2.2503575081357488
-2.2412738261273795
-2.2657257089725684
-2.451252905625288
-2.5254244537424424
-2.540077173407714
-2.5445834495583424
-2.4930227801022755
-2.492185960018593
-2.470943282194326
