2.575034867503491
2.7624825662482606
2.367921896792194
2.121896792189683
2.1311018131101855
0.8679218967921938
0.3700139470013988
1.798465829846587
2.181311018131106
2.318131101813114
2.297210599721064
2.405997210599725
2.5490934449093485
2.5348675034867543
-2.907810320781028
-67.1086471408647
-3590.0709902370986
-47.369316596931654
-50.42873082287308
-51.514504881450485
-80.1931659693166
-50.1299860529986
-50.18354253835425
-50.16680613668061
-50.12705718270571
-50.02705718270571
-49.94379358437936
-49.9881450488145
-50.134588563458856
-49.88437935843793
-49.790655509065544
-50.06555090655509
-50.181450488145046
-50.05090655509065
-48.49232914923291
-44.978103207810314
-42.642956764295675
-45.41324965132496
-49.44965132496513
-50.056345885634585
-51.13793584379358
-80.1931659693166
-49.33082287308228
-47.849232914923284
-42.62873082287308
-41.20781032078103
-47.377266387726635
-48.72496513249651
-46.83835425383542
-44.45467224546722
-32.61952580195258
-11.157182705718267
1.1394700139470055
25.886331938633198
57.3189679218968
72.13779637377964
97.22398884239888
81.74741980474198
48.99135285913529
-57.134588563458856
-1835.132078103208
165.36290097629012
169.64198047419805
155.80683403068343
133.21143654114368
103.65495118549512
103.52942817294281
131.74867503486752
169.85620641562065
189.60683403068342
216.50097629009764
211.57754532775454
197.75536959553696
156.2771269177127
40.806834030683405
-14.322873082287304
14.736541143654119
7.285913528591357
32.93444909344491
78.89846582984659
112.97963737796375
128.1871687587169
77.76415620641562
4.9880055788005615
12.07838214783822
64.31562064156206
93.59679218967922
80.32273361227337
83.37587168758718
91.24700139470015
80.44407252440726
62.58675034867504
53.35285913528592
60.698047419804745
78.55620641562065
-36.285216178521615
78.16415620641563
75.39762900976291
64.34407252440725
36.809762900976295
17.881311018131107
-13.63793584379358
-35.18437935843793
-3.6408647140864674
48.86415620641562
47.21059972105998
51.418967921896794
104.64114365411437
34.73570432357044
-16.909483960948393
-7.157601115760108
24.206415620641565
98.11813110181312
116.2913528591353
91.1976290097629
68.04323570432358
50.010599721059975
44.07126917712692
93.46206415620642
50.44532775453278
69.91813110181312
52.109344490934454
24.721896792189682
36.547419804741985
-80.1931659693166
52.4863319386332
51.79972105997211
56.06206415620642
46.866666666666674
73.59762900976291
80.52189679218968
59.93152022315203
45.027754532775454
51.840306834030685
63.98716875871688
65.7260808926081
57.03152022315203
60.34993026499303
69.66750348675035
56.2373779637378
19.32566248256625
0.6762900976290138
-4.340864714086467
14.147838214783826
42.444072524407254
68.52440725244072
82.14365411436542
34.11520223152023
-28.417852161785213
-27.743793584379354
4.125244072524412
19.76206415620642
2.8662482566248295
273.98675034867506
280.77629009762904
-19.04128312412831
-33.6626220362622
-2.6500697350069693
19.84156206415621
14.392189679218973
6.127754532775457
-7.0705718270571785
-32.09609483960948
-42.75969316596931
-45.18730822873082
-49.24295676429567
-47.614504881450486
-24.050906555090652
-3.597768479776844
-30.178103207810317
-35.21910739191073
-13.222036262203622
-3.501952580195254
-3.277266387726635
-0.11743375174337112
1.286750348675039
-39.19191073919107
2.574198047419809
3.262900976290102
2.225662482566252
0.5980474198047461
0.07503486750349081
1.0549511854951226
1.6432357043235746
1.597210599721064
0.23193863319386737
0.3147838214783862
0.9716875871687628
1.6566248256624867
0.2545327754532816
-0.6232914923291452
-4.50027894002789
-3.5605299860529946
-0.8513249651324925
-5.265550906555086
-11.258856345885631
-12.89232914923291
-15.294421199442116
-21.24672245467224
-22.35006973500697
-25.29191073919107
-48.96513249651325
-60.32580195258019
-80.74714086471408
-97.797350069735
-93.12580195258019
-69.76136680613668
-52.17391910739191
-29.475592747559272
-6.646722454672242
1.076708507670855
1.7599721059972147
2.0248256624825705
1.8503486750348717
1.792189679218972
1.8252440725244112
-1.085216178521614
-43.43040446304044
-31.42580195258019
-30.930822873082285
-29.6044630404463
-31.71324965132496
-33.43542538354254
-28.165550906555087
-19.844211994421194
-10.55843793584379
-3.991073919107388
-1.5638772663877225
1.1076708507670892
2.4423988842398923
2.797629009762905
2.4821478382147877
2.000976290097633
2.012691771269181
2.4436541143654154
2.6340306834030724
2.267085076708512
2.016875871687591
2.2432357043235744
2.5373779637378004
1.908507670850771
1.7495118549511897
2.187587168758721
2.5737796373779678
2.29135285913529
1.795955369595541
1.8490934449093486
2.1398884239888463
1.1419804741980515
-3.327057182705714
-9.67099023709902
-18.960111576011155
-33.21701534170153
-41.743793584379354
-31.753417015341697
-14.777684797768476
-6.234170153417011
-0.9119944211994381
1.593026499302654
2.4122733612273404
2.312691771269181
1.8269177126917753
1.9532775453277587
2.294700139470018
2.077126917712696
1.6758716875871729
1.707252440725248
2.076290097629014
2.188005578800562
1.882566248256629
1.6336122733612315
1.8290097629009803
2.105160390516043
2.0457461645746204
1.7373779637378004
1.7022315202231562
1.99135285913529
2.0733612273361266
1.8440725244072564
1.6541143654114405
1.7716875871687627
1.988005578800562
1.9290097629009804
-39.22622036262203
1.896792189679223
1.898465829846587
1.7227336122733652
1.6842398884239929
1.8440725244072564
1.9357043235704363
1.7871687587168799
1.602649930264997
1.6804741980474238
1.8800557880055828
1.8704323570432397
1.689679218967926
1.6223152022315244
1.7662482566248296
1.9398884239888465
1.8352859135285955
1.6503486750348715
1.6758716875871729
1.8486750348675076
1.701394700139474
1.585076708507675
1.6557880055788046
1.788842398884244
1.8093444909344532
1.688842398884244
1.614365411436545
1.6620641562064198
1.7193863319386373
1.6821478382147879
1.6377963737796415
1.687587168758721
1.7591352859135327
1.715202231520227
1.602649930264997
1.5470013947001435
1.6398884239888465
1.7691771269177168
1.7808926080892649
1.6708507670850807
1.5281729428172983
1.5357043235704364
1.6411436541143696
1.711436541143658
1.7022315202231562
1.6093444909344532
1.5361227336122774
1.5553695955369635
1.6160390516039091
1.6185495118549553
1.5792189679219009
1.584239888423993
1.6244072524407294
1.6344490934449134
1.5854951185495159
1.5239888423988883
-80.1931659693166
1.5193863319386371
1.5993026499302692
1.9620641562064196
-80.1931659693166
1.5691771269177168
1.5177126917712733
1.485913528591357
1.5306834030683443
-80.1931659693166
1.5432357043235745
1.788423988842403
-3590.0709902370986
-69.98228730822872
1.5616457461645787
1.4767085076708548
1.4034867503486792
1.4185495118549551
1.5126917712691812
-39.30278940027893
1.4223152022315242
1.408507670850771
1.4733612273361267
1.5122733612273402
1.497629009762905
1.4654114365411477
1.4474198047419846
1.4528591352859175
1.4511854951185537
1.4193863319386373
1.4189679218967963
1.4365411436541184
-80.1931659693166
1.4670850767085117
1.4562064156206456
1.4198047419804782
1.3783821478382188
1.3804741980474238
1.4327754532775494
-39.36638772663877
1.401394700139474
1.381311018131106
1.403068340306838
1.7382147838214825
-80.1931659693166
1.382566248256629
1.38716875871688
1.4160390516039092
1.4143654114365452
1.375034867503491
1.3172942817294322
1.3147838214783862
1.3675034867503528
1.4156206415620682
1.4101813110181352
1.3340306834030724
1.2788005578800599
1.3055788005578841
1.3407252440725286
1.3557880055788045
1.3239888423988884
1.313947001394704
1.3152022315202272
1.311854951185499
1.2708507670850808
1.284239888423993
1.3294281729428215
1.3357043235704364
1.306415620641566
1.2499302649930306
1.2511854951185535
1.2704323570432399
1.2695955369595577
1.2662482566248296
1.2624825662482606
1.2520223152022356
1.2457461645746206
1.2394700139470054
1.2218967921896833
1.2369595536959594
1.2394700139470054
1.2566248256624866
1.2281729428172983
1.206834030683407
1.1419804741980515
1.1423988842398924
1.2122733612273402
-409.24421199442116
1.2327754532775494
1.2164574616457502
1.1691771269177167
1.1407252440725284
1.1566248256624867
1.2039051603905202
1.2181311018131142
1.1725244072524448
1.1536959553695996
1.1587168758716917
1.1608089260808967
1.1390516039051644
-39.29609483960948
1.1516039051603946
1.1453277545327796
1.104741980474202
1.5758716875871728
-3590.0709902370986
1.0993026499302692
1.1323570432357084
1.1164574616457503
1.090097629009767
1.1097629009762942
1.1432357043235746
1.1093444909344532
1.0524407252440766
1.0357043235704364
1.0612273361227376
1.100557880055792
1.094700139470018
1.0603905160390557
1.0302649930265033
1.0482566248256666
1.085076708507675
1.085076708507675
1.0683403068340347
1.0486750348675076
1.0235704323570474
1.0373779637378004
1.0624825662482607
1.0403068340306874
1.0428172942817335
1.0311018131101855
1.0244072524407293
1.0269177126917752
2.0361227336122774
-1835.132078103208
1.0340306834030724
1.0311018131101855
-12.170571827057179
0.994281729428177
0.9804741980474239
1.003486750348679
1.0089260808926122
0.9725244072524448
0.9846582984658339
0.9993026499302691
0.9842398884239929
0.9721059972106038
0.9570432357043276
0.9486750348675076
0.9629009762901017
0.9783821478382189
0.9649930264993067
0.9311018131101854
0.9260808926080933
0.9377963737796414
0.9407252440725284
0.9319386331938674
1674.7457461645747
0.9277545327754574
0.9306834030683444
0.9260808926080933
0.9273361227336163
0.9248256624825703
0.9248256624825703
15.211436541143659
0.8984658298465871
0.895118549511859
0.897210599721064
0.8955369595537
0.9068340306834072
0.9043235704323611
0.897210599721064
0.8792189679219008
0.890934449093449
0.8754532775453319
0.8695955369595577
0.8645746164574657
0.8624825662482607
0.8662482566248297
0.8528591352859176
0.8365411436541185
0.8290097629009804
0.8306834030683443
0.8340306834030724
0.8331938633193904
-25.147140864714082
-3151.3362622036266
0.790934449093449
0.796792189679223
0.793444909344495
0.7984658298465871
0.8135285913528632
0.8064156206415661
0.7741980474198088
0.7712691771269218
0.794281729428177
0.7679218967921937
0.7511854951185536
0.7729428172942858
0.7888423988842439
0.7729428172942858
0.7260808926080933
0.7327754532775493
0.7582984658298506
0.7457461645746205
0.7511854951185536
0.7490934449093486
0.7344490934449134
0.7294281729428214
0.7139470013947042
0.7185495118549552
0.7218967921896833
0.7252440725244114
0.7202231520223192
0.6896792189679259
0.6955369595537
0.698047419804746
0.689260808926085
0.690097629009767
0.6599721059972147
0.6528591352859175
0.6457461645746205
0.6398884239888465
0.6499302649930305
0.6495118549511896
0.6524407252440766
0.6302649930265034
0.6319386331938673
0.6352859135285954
0.6093444909344532
0.6022315202231561
0.6168758716875913
0.6227336122733653
0.6223152022315243
-80.1931659693166
0.6152022315202272
0.6160390516039093
0.597210599721064
0.5733612273361268
0.5716875871687628
-80.1931659693166
0.5980474198047461
0.5930264993026539
0.5704323570432398
0.5691771269177167
0.5603905160390557
0.5474198047419845
0.5645746164574657
0.5850767085076749
0.5900976290097669
0.5516039051603946
0.5298465829846624
0.5403068340306875
0.5499302649930305
0.5511854951185535
0.5260808926080933
0.502649930264997
0.4997210599721101
0.5122733612273401
0.5139470013947042
0.5076708507670892
0.5085076708507712
0.496373779637382
0.47838214783821886
0.48967921896792593
0.47921896792190083
0.48800557880056195
0.4817294281729469
0.47838214783821886
0.4649930264993067
0.4608089260808967
0.47210599721060376
0.46834030683403477
0.47252440725244477
0.4541143654114406
0.4637377963737837
0.45662482566248663
0.4545327754532816
0.4641562064156247
0.4449093444909385
0.4264993026499343
0.41059972105997616
1.2411436541143694
0.41896792189679627
0.40767085076708914
0.3800557880055829
0.40264993026499707
0.4193863319386373
0.4013947001394741
0.3800557880055829
0.35871687587169165
0.35118549511855357
0.37921896792190085
0.395955369595541
0.37670850767085484
0.3645746164574657
0.3549511854951226
0.35913528591353266
0.3461645746164615
0.33988842398884644
0.3524407252440766
0.3725244072524448
0.38967921896792596
0.33947001394700543
0.3047419804742021
0.3156206415620682
0.3365411436541184
0.3210599721060013
0.3043235704323611
0.31687587168759124
0.3101813110181352
0.3105997210599762
0.292189679218972
0.30181311018131507
0.30181311018131507
0.293444909344495
0.27587168758717284
0.25829846582985067
0.2645746164574657
0.295118549511859
0.28591352859135694
0.2608089260808967
0.2440725244072565
0.2608089260808967
0.2536959553695996
0.22691771269177533
0.22984658298466235
0.22147838214784227
0.23068340306834437
0.2457461645746205
0.25704323570432763
0.2327754532775494
0.2047419804742021
0.19930264993026905
0.19721059972106403
0.20013947001395105
0.2039051603905201
0.21520223152022722
0.20181311018131506
0.193026499302654
0.18842398884240294
0.18298465829846988
0.17168758716876278
0.1641562064156247
0.1737796373779678
0.16917712691771675
0.15662482566248662
0.1654114365411477
0.1746164574616498
0.1729428172942858
0.15453277545328162
0.14867503486750755
0.11980474198047826
0.12733612273361633
0.15285913528591757
0.11813110181311424
0.12147838214784228
0.1327754532775494
0.11645746164575023
0.11143654114365817
0.11185495118549918
0.08005578800558286
0.07963737796374186
0.09386331938633599
0.08675034867503893
0.07168758716876278
0.08591352859135692
0.09260808926081299
0.0850767085076749
0.061227336122737674
0.07126917712692177
0.06541143654114771
0.05913528591353265
0.05955369595537365
0.06666666666667073
0.04951185495118955
0.04156206415621048
0.048675034867507544
0.05034867503487156
0.04951185495118955
0.02817294281729834
0.008926080892612149
0.03486750348675441
0.05076708507671256
0.036541143654118424
0.009344490934453152
0.003486750348679094
0.034449093444913405
0.02984658298466236
-0.0019525801952539603
-0.02914923291491923
-0.005718270571822998
0.015620641562068216
0.010599721059976166
-0.02412831241282718
-0.0358437935843753
-0.03960948396094434
-0.02914923291491923
-0.046722454672241405
-0.06806136680613262
-0.06052998605299455
-0.05048814504881045
-0.03835425383542133
-0.05299860529985647
-0.0663877266387686
-0.07308228730822468
-0.06722454672245061
-0.06052998605299455
-0.0852161785216138
-0.09442119944211588
-0.08145048814504476
-0.06931659693165564
-0.09149232914922886
-0.1157601115760071
-0.08479776847977279
-0.09735006973500292
-0.1161785216178481
-0.13877266387726234
-0.1274755927475552
-0.11115760111575605
-0.11366806136680208
-0.13709902370989832
-0.1354253835425343
-0.14086471408646736
-0.13960948396094433
-0.15216178521617446
-0.16847977684797363
-0.1559274755927435
-0.12538354253835018
-0.14295676429567236
-0.17266387726638366
-0.19818688981868493
-0.16262203626219957
-0.1676429567642916
-0.1755927475592707
-0.19818688981868493
-0.21241283124127908
-0.207391910739187
-0.22245467224546317
-40.21408647140864
-80.1931659693166
-0.2450488145048774
-0.2463040446304004
-0.24839609483960542
-0.25006973500696944
-0.2513249651324925
-0.22747559274755522
-0.25216178521617444
-0.2517433751743335
-0.24044630404462636
-0.25550906555090247
-0.2642956764295636
-0.27391910739190667
-0.2956764295676389
-0.2864714086471368
-0.27350069735006566
-0.29735006973500294
-0.30446304044629996
-80.1931659693166
-0.3161785216178481
-0.303626220362618
-0.29986052998604895
-0.3262203626220322
-0.3341701534170113
-0.3471408647140824
-0.309065550906551
-0.306136680613664
-0.3241283124128272
-0.3458856345885594
-0.3479776847977644
-0.3471408647140824
-0.3316596931659653
-0.3458856345885594
-0.3525801952580155
-0.3580195258019485
-0.37475592747558867
-0.3688981868898146
-0.3755927475592707
-0.3852161785216138
-0.3965132496513209
-0.401534170153413
-0.401534170153413
-0.40362622036261797
-0.39274755927475186
-0.39232914923291085
-0.42663877266387323
-0.4375174337517393
-0.4278940027893962
-0.4324965132496473
-0.4274755927475552
-0.4245467224546682
-0.42663877266387323
-0.45048814504881046
-0.4437935843793544
-0.44755927475592344
-0.4571827057182665
-0.4437935843793544
-0.44170153417014935
-0.4483960948396054
-0.43960948396094435
-0.4642956764295636
-0.47099023709901966
-0.48354253835424976
-0.4944211994421159
-0.49065550906554684
-0.49149232914922886
-0.4977684797768439
-0.49358437935843386
-0.49651324965132093
-0.514086471408643
-0.5245467224546682
-0.506973500697346
-0.511994421199438
-0.5157601115760071
-0.5216178521617811
-0.5324965132496473
-0.5258019525801912
-0.5220362622036222
-0.5287308228730783
-0.5429567642956724
-0.5743375174337477
-40.38479776847977
-80.1931659693166
-0.5818688981868858
-0.5697350069734967
-0.5814504881450447
-0.5906555090655469
-0.5923291492329109
-0.5739191073919067
-0.9642956764295636
-80.1931659693166
-0.5843793584379318
-0.611157601115756
-0.6182705718270531
-0.60027894002789
-0.5919107391910698
-0.59609483960948
-0.608228730822869
-518.9278940027895
-0.608228730822869
-0.5969316596931619
-0.6165969316596891
-0.6304044630404423
-0.6370990237098983
-0.6391910739191033
-0.6421199442119904
-0.6454672245467183
-0.6391910739191033
-0.6609483960948356
-0.6709902370990196
-0.6655509065550866
-0.6517433751743335
-0.6676429567642916
-0.6755927475592707
-0.6550906555090615
-0.6676429567642916
-0.6889818688981828
-0.6801952580195217
0.6955369595537
-80.1931659693166
-0.702789400278936
1.894700139470018
-0.7174337517433711
-0.6940027894002749
-0.7002789400278899
-0.7140864714086431
-0.701115760111572
-0.705299860529982
-0.7232914923291451
-0.7216178521617812
-0.7199442119944172
-0.7299860529986012
-0.7283124128312373
-0.7316596931659652
-0.7253835425383502
-0.7220362622036222
-0.7387726638772624
-0.7550906555090615
-0.7517433751743334
-0.7672245467224507
-0.7592747559274715
-0.7584379358437895
-0.7684797768479736
-0.7693165969316557
-0.7969316596931619
-0.7902370990237059
-0.7793584379358397
-0.7755927475592707
-0.8178521617852121
-0.8232914923291452
-0.8312412831241243
-0.8274755927475552
-0.8341701534170113
-0.8471408647140825
-0.8475592747559234
-0.8509065550906515
-0.8563458856345845
-0.8496513249651284
-0.8605299860529946
-0.8647140864714046
-0.8417015341701494
-0.8387726638772623
-0.8609483960948355
-0.8831241283124087
-0.8906555090655468
2.0461645746164616
-80.1931659693166
-0.9090655509065511
-0.901534170153413
-0.901534170153413
-0.9308228730822833
-0.9178521617852121
-0.90027894002789
-0.9258019525801912
-0.9425383542538314
-0.9337517433751703
-0.9412831241283084
-0.9529986052998565
-0.9563458856345846
-0.9483960948396054
-0.9400278940027853
-0.9329149232914883
-0.9157601115760071
-32.95843793584379
-3590.0709902370986
-0.9684797768479736
-0.9831241283124088
-0.9801952580195218
-0.9856345885634548
-0.997350069735003
-0.9818688981868857
-0.9789400278939987
-0.9931659693165928
-0.9847977684797727
-0.9722454672245426
-0.9914923291492288
-0.998186889818685
-0.9735006973500657
-0.9902370990237058
-1.017852161785212
-1.002370990237095
-0.9873082287308188
-1.0011157601115719
-1.0245467224546683
-1.0291492329149192
-1.0153417015341661
-1.011994421199438
-1.01283124128312
-1.0475592747559235
-1.0538354253835385
-1.0207810320780992
-1.0287308228730783
-1.0400278940027854
-1.0387726638772623
-1.0542538354253794
-1.0563458856345844
-1.0571827057182666
-1.0672245467224506
-1.0471408647140825
-1.0274755927475552
-1.0400278940027854
-1.0433751743375135
-1.0743375174337477
-1.0919107391910698
-40.6370990237099
-1.105718270571823
-1.102370990237095
-1.095258019525798
-1.0877266387726598
-1.092747559274752
-1.11283124128312
-1.1308228730822834
-1.1337517433751703
-40.668061366806135
-80.1931659693166
-1.1287308228730781
-1.1258019525801912
-1.1375174337517393
-1.1509065550906514
-1.1676429567642916
-1.1584379358437895
-1.1504881450488105
-1.1609483960948355
-1.1793584379358397
-1.1889818688981828
-1.1864714086471368
-1.190237099023706
-1.1789400278939988
-1.1789400278939988
-1.1831241283124088
-1.1835425383542497
-1.1931659693165928
-1.1818688981868857
-1.1952580195257978
-1.1877266387726597
-1.2044630404463
-1.219944211994417
-1.2220362622036223
-1.1885634588563418
-1.1852161785216138
-40.69776847977684
-80.1931659693166
-1.2186889818688942
-1.207391910739187
-1.1889818688981828
-1.2027894002789359
-1.2165969316596892
-1.2425383542538313
-1.2450488145048775
-1.2165969316596892
-1.221617852161781
-1.2458856345885594
-1.2588563458856306
-1.2475592747559234
-60.45885634588563
-1.2592747559274715
-1.2642956764295636
-1.2684797768479736
-1.2651324965132456
-1.2760111576011117
-1.284797768479773
-1.300697350069731
-1.2651324965132456
-1.2714086471408605
-1.294839609483957
-1.2923291492329108
-1.288563458856342
-1.301115760111572
-1.300697350069731
-1.30864714086471
-1.310739191073915
-1.308228730822869
-1.3178521617852121
-1.2998605299860488
-1.309902370990233
-1.3362622036262164
-1.3191073919107352
-1.3262203626220321
-1.3237099023709862
-1.3320781032078062
-1.3529986052998564
-1.3400278940027854
-1.3283124128312371
-1.3383542538354214
-1.3525801952580154
-1.3379358437935802
-1.3421199442119904
-1.3571827057182666
-1.3659693165969276
-1.3705718270571787
-1.3655509065550866
-1.3722454672245428
-1.3806136680613628
-1.4006973500697308
-1.3864714086471368
-1.3785216178521578
-1.4002789400278899
-1.4341701534170113
2.0419804741980516
-3261.0199442119947
-1.4178521617852122
-1.3986052998605258
-1.4103207810320741
-1.406555090655505
-1.406555090655505
-1.403207810320777
-1.41283124128312
-1.419525801952576
-1.404881450488141
-1.402789400278936
-1.385634588563455
-1.3801952580195218
-1.3789400278939987
-1.4006973500697308
-1.42538354253835
-1.399023709902367
-1.3772663877266347
-1.3940027894002749
-1.413668061366802
-1.4496513249651284
-1.4383542538354213
-1.41701534170153
-1.4266387726638732
-1.4642956764295636
-1.4873082287308188
-1.4755927475592707
-1.4617852161785176
-1.4705718270571786
-1.498605299860526
-1.509902370990233
-1.4709902370990195
-1.395676429567639
-1.4467224546722415
-1.4362622036262163
-1.389818688981865
-80.1931659693166
-1.4312412831241244
-1.4793584379358398
-1.500697350069731
-1.484379358437932
-1.4806136680613629
-1.4969316596931619
-1.505299860529982
-1.506136680613664
-1.4914923291492288
-1.4914923291492288
-1.501534170153413
-1.504044630404459
-1.4793584379358398
-13.427475592747555
-80.1931659693166
-1.517852161785212
-1.516178521617848
-1.5211994421199402
-1.5232914923291452
-1.5316596931659652
-1.5412831241283083
-1.506555090655505
-1.4994421199442078
-1.5153417015341661
-1.5450488145048773
-1.5622036262203585
-1.5596931659693125
-1.5479776847977644
-1.5546722454672204
-1.5362622036262163
-1.5337517433751702
-1.5450488145048773
-1.5638772663877225
-1.607810320781028
-1.5960948396094798
-1.5630404463040406
-1.5801952580195218
-1.593165969316593
-1.592747559274752
-1.5776847977684758
-1.588981868898183
-1.606555090655505
-1.5944211994421158
-1.6040446304044589
-1.598605299860526
-1.5977684797768439
-1.605718270571823
-1.61283124128312
-1.6354253835425343
-1.6429567642956724
-1.6492329149232874
-1.6496513249651283
-1.6429567642956724
-1.6517433751743336
-1.6576011157601076
-1.6504881450488105
-1.6362622036262162
-1.6592747559274714
-1.6672245467224507
-1.6697350069734966
-1.6889818688981828
-1.6965132496513209
-1.6764295676429528
-1.6814504881450447
-1.6914923291492288
-1.701115760111572
-1.693584379358434
-1.6914923291492288
-1.6810320781032038
-1.6852161785216138
-80.1931659693166
-1.7044630404463
-1.7128312412831201
-1.7191073919107351
-1.7203626220362582
0.1553695955369636
-80.1931659693166
-1.7542538354253794
-1.725801952580191
-1.7312412831241242
-1.7504881450488103
-1.7613668061366765
-1.7538354253835384
-1.7270571827057142
-1.7555090655509025
-1.7860529986052958
-1.7806136680613627
-1.7488145048814465
-1.7458856345885594
-1.7919107391910698
-1.7822873082287267
-1.7567642956764256
-1.7567642956764256
-1.7814504881450448
-1.803207810320777
-1.8191073919107352
-1.7956764295676388
-1.7609483960948356
-1.7797768479776808
-1.801115760111572
-1.806136680613664
-1.806555090655505
-1.813249651324961
-1.818270571827053
-1.8216178521617812
-1.8283124128312371
-1.8266387726638733
-1.8333333333333293
-1.8299860529986012
-1.8475592747559235
-60.60404463040446
-1.8588563458856304
-1.8563458856345845
-1.8835425383542497
-1.8726638772663837
-1.8601115760111535
-1.8743375174337478
-1.8927475592747518
-1.8944211994421158
-1.8960948396094799
-1.889818688981865
-1.889400278940024
-1.901115760111572
-1.909902370990233
-1.9103207810320741
-1.8965132496513208
-1.8927475592747518
-1.9182705718270532
-1.915760111576007
-1.9329149232914882
-1.9555090655509024
-1.9396094839609443
-1.9601115760111536
-1.9609483960948355
-1.9517433751743334
-1.9517433751743334
-1.9446304044630365
-1.9304044630404422
-1.9559274755927436
-1.9584379358437896
-1.9659693165969276
-1.9747559274755886
-1.9663877266387686
-1.988563458856342
-1.9668061366806096
-1.9642956764295636
-1.9931659693165928
-2.0044630404463
-1.999860529986049
-2.001952580195254
-2.003626220362618
-2.0124128312412792
-2.0304044630404423
-2.0400278940027854
-2.032078103207806
27.521896792189683
-2.0157601115760073
-2.027894002789396
-2.0249651324965092
-2.014086471408643
-2.02119944211994
-2.0584379358437896
-2.0483960948396054
-2.0429567642956723
-2.0496513249651285
-2.0576011157601077
-2.0534170153416973
-2.0651324965132454
-2.0634588563458816
-2.0647140864714046
-2.090655509065547
-2.0877266387726596
-2.092329149232911
-2.103207810320777
-2.100697350069731
-2.104044630404459
-2.099860529986049
-2.106555090655505
-2.1262203626220324
-2.1337517433751705
-2.107810320781028
-2.102370990237095
-2.114923291492325
-2.1479776847977643
-2.1421199442119905
-2.1379358437935805
-2.1672245467224505
-2.1580195258019486
-2.1396094839609443
-2.132914923291488
-2.135006973500693
-2.1433751743375136
-2.1588563458856305
-2.185216178521614
-2.1596931659693124
-2.1454672245467186
-2.1647140864714047
-2.183124128312409
-2.179776847977681
-2.1864714086471366
-60.69567642956764
-2.203626220362618
-2.214504881450484
-2.222036262203622
-2.2375174337517394
-2.2421199442119906
-2.2333333333333294
-2.2375174337517394
-2.245467224546718
-2.240027894002785
-2.2458856345885594
-41.21283124128312
-80.1931659693166
-2.2362622036262163
-2.2517433751743337
-2.2546722454672206
-2.2588563458856306
-2.2542538354253794
-2.2605299860529944
-2.2852161785216136
-2.301534170153413
-2.27935843793584
-2.2755927475592705
-2.2894002789400236
-2.312412831241279
-2.3086471408647102
-2.293165969316593
-2.315760111576007
-2.305299860529982
-2.3182705718270533
-2.3258019525801914
-2.328312412831237
-2.324965132496509
-41.268898186889814
-2.3458856345885595
-2.3412831241283083
-2.3634588563458814
-2.3688981868898145
-2.3521617852161745
-2.3245467224546683
-2.3404463040446264
-2.385634588563455
-2.3743375174337475
-2.386889818688978
-2.384379358437932
-2.3743375174337475
-2.3743375174337475
-2.3902370990237056
-2.4073919107391872
-2.39191073919107
-2.398605299860526
-2.411994421199438
-2.407810320781028
-2.384797768479773
-2.3894002789400237
-2.403207810320777
-2.4136680613668022
-2.424965132496509
-2.4341701534170115
-2.2182705718270532
-2.436680613668057
-2.4437935843793546
-2.4400278940027853
-2.4425383542538315
-2.4488145048814465
-2.4697350069734965
-2.4718270571827015
-2.4659693165969276
-2.466387726638769
-2.4797768479776807
-2.505299860529982
-2.4923291492329107
-2.482287308228727
-2.4889818688981826
-2.499442119944208
-41.35509065550906
-2.5178521617852123
-2.513668061366802
-2.509483960948392
-2.529149232914919
-2.536262203626216
-2.532078103207806
-2.5270571827057142
-2.5509065550906516
-2.5617852161785177
-2.604881450488141
-80.1931659693166
-2.5580195258019485
-2.5588563458856304
-2.5684797768479735
-2.5559274755927435
-2.5638772663877227
-2.5647140864714046
-2.5676429567642916
-2.581868898186886
-2.5910739191073877
-2.5592747559274716
-2.5722454672245427
-2.581032078103204
-2.601115760111572
-2.614923291492325
-2.614504881450484
-2.611576011157597
-2.614504881450484
-2.6249651324965093
-2.6165969316596893
-2.6258019525801912
-2.6463040446304005
-2.62538354253835
-2.6396094839609443
-2.6509065550906517
-2.6408647140864674
-2.6492329149232874
-2.023709902370986
-2.6609483960948355
-2.6684797768479736
-2.683124128312409
-2.6789400278939985
-2.6801952580195216
-2.705299860529982
-2.708228730822869
-41.45132496513249
-80.1931659693166
-2.720781032078099
-2.7182705718270532
-2.7249651324965094
-2.727475592747555
-2.7320781032078063
-2.728312412831237
-2.714923291492325
-2.7249651324965094
-2.730404463040442
-2.726220362622032
-2.731659693165965
-2.728730822873078
-2.73375174337517
-2.7479776847977644
-2.7529986052998563
-2.7617852161785175
-2.7768479776847936
-2.7630404463040406
-2.7701534170153375
-2.786889818688978
-2.795258019525798
-2.7718270571827017
-2.7684797768479736
-2.794421199442116
-2.811994421199438
-2.809065550906551
-2.794421199442116
-2.800697350069731
-2.811994421199438
-2.801534170153413
-2.788145048814501
-2.819525801952576
-2.8404463040446264
-2.8463040446304
-2.8425383542538314
-2.819525801952576
-2.83793584379358
-2.8563458856345845
-2.8433751743375133
-2.8211994421199402
-2.8450488145048776
-2.8613668061366764
-2.8571827057182664
-0.39232914923291085
-2.886889818688978
-2.89609483960948
-2.901115760111572
-2.885634588563455
-2.8785216178521575
-2.890655509065547
-2.88772663877266
-2.8977684797768437
-2.927894002789396
-2.930404463040442
-2.9211994421199403
-2.917433751743371
-2.909902370990233
-2.929986052998601
-2.9609483960948357
-2.9630404463040407
-2.9622036262203584
-2.9442119944211953
-2.9651324965132457
-2.9542538354253796
-2.9550906555090615
-2.968479776847974
-2.991492329149229
-2.9847977684797726
-2.9672245467224507
-2.9500697350069696
-2.9588563458856307
-2.999023709902367
-2.995676429567639
-2.985216178521614
-2.985216178521614
-3.013249651324961
-3.019107391910735
-3.007391910739187
-3.005718270571823
-3.009483960948392
-3.02119944211994
-3.0408647140864673
-3.0542538354253796
-3.0391910739191035
-3.024546722454668
-3.0387726638772623
-3.0580195258019485
-3.0463040446304004
-3.0622036262203585
-3.082287308228727
-3.0709902370990196
-3.0847977684797727
-3.093584379358434
-3.099442119944208
-3.090655509065547
-3.0760111576011115
-3.0801952580195215
-3.0868898186889777
-3.105718270571823
-3.104044630404459
-3.092747559274752
-3.110320781032074
-3.1258019525801912
-3.1270571827057143
-3.110739191073915
-3.085216178521614
-80.1931659693166
-3.1324965132496474
-3.1483960948396055
-3.1379358437935805
-3.1567642956764255
-61.13793584379358
1674.7457461645747
-3.1801952580195216
-3.1705718270571785
-3.1450488145048774
-3.165969316596928
-3.1801952580195216
-3.1835425383542497
-3.1672245467224505
-3.189400278940024
-3.183960948396091
-3.194421199442116
-3.191073919107388
-3.179776847977681
-3.1940027894002747
-3.192329149232911
-3.212412831241279
-3.213668061366802
-3.21701534170153
-3.23793584379358
-4.402370990237095
-3590.0709902370986
-3.2408647140864675
-3.2488145048814463
-3.2622036262203586
-3.2714086471408605
-3.268898186889815
-3.2571827057182663
-3.241283124128308
-3.2580195258019486
-3.277266387726635
-3.2927475592747517
-3.297350069735003
-3.299442119944208
-3.298186889818685
-3.2755927475592705
-3.2542538354253794
-3.2818688981868855
-3.2885634588563417
-3.3107391910739152
-3.3170153417015302
-3.306136680613664
-3.3170153417015302
-3.3458856345885595
-3.3513249651324926
-3.3463040446304
-3.34211994421199
-3.331659693165965
-3.3383542538354214
-3.3584379358437895
-3.3630404463040406
-3.3701534170153375
-3.3404463040446264
-3.3404463040446264
-3.3634588563458814
-3.3571827057182664
-3.3429567642956726
-3.3525801952580156
-3.3655509065550864
-3.373919107391907
-3.378103207810317
-3.3881450488145006
-3.3956764295676387
-3.405299860529982
-3.4253835425383503
-3.406555090655505
-3.4157601115760072
-3.4191073919107353
-3.434588563458852
-3.4463040446304003
-3.4379358437935803
-3.432078103207806
-3.412412831241279
-3.4400278940027853
-3.4488145048814465
-3.4404463040446265
-3.433333333333329
-3.442956764295672
-3.4542538354253796
-3.468479776847974
-3.4751743375174295
-3.4751743375174295
-3.489400278940024
-3.493584379358434
-3.4847977684797726
-3.4889818688981826
-3.507810320781028
-3.485634588563455
-3.4860529986052957
-3.490655509065547
-3.507810320781028
-3.5228730822873042
-3.522454672245463
-3.521617852161781
-3.511994421199438
-3.5082287308228692
-3.523291492329145
-3.540446304044626
-3.5529986052998566
-3.538354253835421
-3.5433751743375135
-3.574755927475589
-3.5680613668061327
-3.5270571827057142
-3.5793584379358396
-3.5910739191073877
-3.585216178521614
-3.5726638772663835
-3.5705718270571785
-3.587308228730819
-3.613668061366802
-3.61701534170153
-3.605299860529982
-3.591492329149229
-3.604044630404459
-3.6207810320780993
-3.613668061366802
-3.6228730822873043
-3.6262203626220324
-3.627894002789396
-3.6504881450488105
-3.6684797768479736
-3.6555090655509024
-3.6567642956764255
-3.6730822873082247
-3.6735006973500655
-3.6676429567642916
-3.6693165969316555
-3.6810320781032035
-3.6822873082287266
-3.6688981868898147
-3.668061366806133
-3.6781032078103166
-3.6877266387726597
-3.6735006973500655
-3.6801952580195216
-3.679776847977681
-3.701534170153413
-3.7099023709902332
-3.697350069735003
-3.699023709902367
-3.699442119944208
-3.699023709902367
-3.707391910739187
-3.712412831241279
-3.7266387726638732
-3.7203626220362582
-3.703626220362618
-3.702370990237095
-3.7345885634588525
-3.743375174337513
-3.7216178521617813
-3.720781032078099
-3.7542538354253794
-3.7609483960948356
-3.7630404463040406
-3.7605299860529944
-3.7617852161785175
-3.7663877266387686
-3.7672245467224506
-3.7521617852161744
-3.7735006973500655
-3.780613668061363
-3.784797768479773
-3.7822873082287267
-3.7496513249651287
-3.778521617852158
-3.79609483960948
-3.7852161785216136
-3.7906555090655467
-3.8191073919107352
-3.8203626220362583
-3.809065550906551
-3.796513249651321
-3.806973500697346
-3.8161785216178483
-3.831659693165965
-3.826220362622032
-3.8258019525801914
-3.8580195258019487
-3.8873082287308187
-3.8630404463040406
-3.8688981868898145
-3.8609483960948356
-3.8588563458856306
-3.8668061366806095
-3.8709902370990195
-3.886471408647137
-3.894839609483957
-3.907810320781028
-3.8935843793584337
-3.895258019525798
-3.905299860529982
-3.901952580195254
-80.1931659693166
-3.888981868898183
-3.893165969316593
-3.9211994421199403
-3.9350069735006934
-3.931241283124124
-3.9555090655509026
-3.9437935843793546
-3.929149232914919
-3.936680613668057
-3.936680613668057
-3.928312412831237
-3.9425383542538315
-3.9709902370990195
-3.988563458856342
-3.9735006973500657
-3.9793584379358395
-3.9797768479776807
-3.978103207810317
-3.9743375174337476
-3.976011157601112
-3.9793584379358395
-3.9722454672245426
-3.9362622036262165
-4.01701534170153
-4.030404463040442
-4.013249651324961
-4.003207810320777
-3.996931659693162
-4.025801952580191
-4.0308228730822835
-4.0329149232914885
-4.0517433751743335
-4.067642956764292
-4.069316596931656
-4.036680613668057
-4.040446304044626
-4.072245467224542
-4.0831241283124085
-4.082705718270568
-4.07935843793584
-4.080613668061363
-4.064714086471405
-4.082705718270568
-4.097768479776844
-4.088145048814501
-4.090655509065547
-4.08354253835425
-4.086471408647137
-4.104044630404459
-4.110320781032074
-4.107391910739187
-4.116178521617848
-4.1421199442119905
-4.148814504881447
-4.133333333333329
-4.105718270571823
-4.134170153417012
-4.1693165969316555
-4.166806136680609
-4.155509065550903
-4.160529986052994
-4.178521617852158
-4.1860529986052954
-4.181032078103204
-40.62538354253835
-1835.132078103208
-4.163877266387723
-4.178103207810317
-4.195676429567639
-4.19191073919107
-4.176011157601112
-4.1860529986052954
-80.1931659693166
-4.208228730822869
-4.209065550906551
-4.222454672245463
-4.207810320781028
-4.200697350069731
-4.240446304044626
-4.260111576011154
-4.2534170153416975
-4.2429567642956725
-4.252161785216175
-4.256764295676425
-4.231241283124124
-4.080613668061363
-4.25006973500697
-4.260529986052995
-4.267224546722451
-4.268898186889815
-4.277684797768476
-42.238354253835425
-80.1931659693166
-4.283124128312409
-4.278103207810317
-4.282287308228727
-4.306136680613664
-4.319107391910735
-4.318270571827053
-4.307810320781028
-4.303207810320777
-4.314086471408643
-4.3396094839609445
-4.3375174337517395
-4.344211994421196
-4.319944211994417
-4.324546722454668
-4.3333333333333295
-4.343375174337513
-4.328730822873078
-4.3228730822873045
-4.352580195258016
-4.376847977684793
-4.379776847977681
-4.365969316596928
-4.394421199442116
-4.410739191073915
-4.394421199442116
-4.378103207810317
-4.378521617852158
-4.3919107391910694
-4.396513249651321
-4.410320781032074
-4.431241283124124
-4.407391910739187
-4.400697350069731
-4.596931659693162
-4.4341701534170115
-4.4404463040446265
-4.409483960948392
-4.42119944211994
-4.445885634588559
-4.436680613668058
21.00725244072525
-4.4509065550906515
-4.449232914923288
-4.447977684797764
-4.463877266387723
-4.460111576011154
-4.451743375174334
-4.472663877266384
-4.472663877266384
-4.477266387726635
-4.515760111576007
-4.5044630404463
-4.481868898186886
-4.484797768479773
-4.501952580195254
-4.53333333333333
-4.517433751743371
-4.500697350069731
-4.511157601115756
-4.523291492329145
-4.519944211994417
-4.51701534170153
-4.522873082287304
-4.5266387726638735
-4.534588563458852
-4.534170153417011
-4.527057182705714
-4.548396094839606
-4.568061366806132
-4.5684797768479735
-4.560529986052995
-4.559274755927471
-4.569316596931656
-4.591073919107388
-4.573500697350066
-4.557601115760107
-4.5705718270571785
-4.573082287308225
-4.572245467224542
-1.2509065550906515
-80.1931659693166
-4.584797768479773
-4.604044630404459
-4.599860529986049
-4.590655509065547
-4.602789400278936
-4.625801952580191
-4.624965132496509
-4.616178521617848
-4.609065550906551
-4.601534170153413
-4.610739191073915
-4.612412831241279
-4.637099023709898
-4.649232914923288
-4.6546722454672205
-4.640864714086467
-4.639191073919103
-4.653835425383538
-4.663458856345882
-4.666806136680609
-4.670571827057179
-4.674755927475589
-4.673082287308224
-4.676429567642953
-4.691492329149229
-4.698186889818685
-4.68772663877266
-4.703207810320777
-4.706555090655505
-4.699023709902367
-4.7115760111575975
-4.737099023709899
-4.7199442119944175
-4.704881450488141
-4.739191073919104
-4.753835425383539
-4.7492329149232875
-4.740027894002785
-4.729149232914919
-4.751743375174334
-4.740446304044626
-4.7262203626220325
-4.7304044630404425
-4.740027894002785
-4.764295676429564
-4.7868898186889774
-4.7806136680613625
-4.7659693165969275
-4.771408647140861
-4.783960948396091
-80.1931659693166
-4.769316596931656
-4.788563458856342
-4.806973500697346
-4.79609483960948
-4.803207810320777
-4.800697350069731
-4.815341701534166
-4.80027894002789
-4.792329149232911
-4.809065550906551
-4.832496513249647
-4.8312412831241245
-4.840864714086467
-4.8437935843793545
-4.837099023709898
-4.847140864714082
-4.822036262203622
-4.8249651324965095
-1.3923291492329108
-80.1931659693166
-4.868061366806133
-4.878940027893999
-4.8730822873082245
-4.847140864714082
-4.852998605299857
-4.865969316596928
-4.869735006973497
-4.873500697350066
-4.8814504881450445
-4.894421199442116
-4.910739191073915
-4.89609483960948
-4.9044630404463
-4.9153417015341665
-4.9237099023709865
-4.941283124128308
-4.9425383542538315
-4.9216178521617815
-4.914504881450484
-4.926220362622032
-4.94211994421199
-4.93375174337517
-4.941701534170149
-4.961785216178518
-4.9634588563458815
-4.959693165969313
-4.970571827057179
-4.9718270571827015
-4.982705718270568
-42.591492329149226
-4.977684797768475
-4.999023709902367
-4.999860529986049
-4.988145048814501
-4.987308228730819
-4.993165969316593
-5.000697350069731
-5.004044630404459
-5.017852161785212
-5.027475592747555
-5.013249651324961
-5.017852161785212
-5.0370990237098985
-5.040864714086467
-5.0350069735006935
-5.016596931659689
-5.012412831241279
-5.017852161785212
-5.027475592747555
-5.030404463040442
-5.0391910739191035
-5.042538354253831
-5.0475592747559235
-5.063877266387722
-5.0831241283124085
-5.076011157601112
-5.07517433751743
-5.071408647140861
-5.085634588563455
-5.099860529986049
-5.096513249651321
-5.118688981868894
-5.126638772663873
-5.101534170153413
-5.097350069735003
-5.109902370990233
-5.113668061366802
-5.105299860529982
-5.111994421199438
-5.1170153417015305
-5.119525801952576
-5.125801952580191
-5.1400278940027855
-5.1253835425383505
-5.134170153417012
-5.163877266387723
-5.151324965132493
-5.141701534170149
-5.167642956764292
-5.168479776847974
-5.180613668061363
-5.17935843793584
-4.798186889818685
2990.949930264993
-5.191492329149229
-5.1839609483960905
-5.163877266387723
-5.174337517433748
-5.194839609483957
-5.204044630404459
-5.201115760111572
-5.189400278940024
-8.41743375174337
-3590.0709902370986
-5.200697350069731
-5.207810320781028
-5.215341701534166
-5.232914923291489
-5.237517433751739
-5.233333333333329
-5.243793584379354
-5.232078103207806
-5.23375174337517
-5.247559274755924
-5.25048814504881
-5.247977684797765
-5.2555090655509025
-5.26680613668061
-5.28772663877266
-5.292747559274752
-5.305299860529982
-5.299442119944208
-5.289400278940024
-5.304881450488141
-5.306973500697346
-5.3333333333333295
-5.321617852161781
-5.323291492329145
-5.325801952580191
-5.322036262203622
-5.350906555090652
-5.350906555090652
-5.340446304044626
-5.338772663877262
-5.3417015341701495
-5.348396094839606
-5.343375174337513
-5.355090655509062
-5.356764295676426
-5.363458856345882
-5.366387726638768
-5.385216178521614
-5.376011157601112
-5.358856345885631
-5.3709902370990195
-5.400697350069731
-5.397350069735003
-5.392329149232911
-5.397768479776844
-5.385216178521614
-5.3898186889818644
-5.392329149232911
-5.386471408647137
-5.393165969316593
-5.3856345885634545
-5.396931659693162
-5.406973500697346
-5.412412831241279
-5.416178521617848
-5.427057182705714
-5.435843793584375
-5.430404463040443
-5.4404463040446265
-5.4383542538354215
-80.1931659693166
-1.686052998605296
-5.408228730822869
-5.43793584379358
-5.4278940027893965
-5.380195258019522
-5.3730822873082245
-5.4278940027893965
-5.470571827057179
-5.434588563458853
-5.40027894002789
-5.418688981868894
-5.439191073919103
-5.445885634588559
-5.4195258019525765
-5.110739191073915
-5.473082287308225
-5.439609483960944
-5.437517433751739
-5.453417015341698
-5.47517433751743
-5.4739191073919065
-5.458019525801949
-5.4718270571827015
-5.494421199442116
-5.469316596931655
-5.470153417015338
-5.505718270571823
-5.509902370990233
-5.49609483960948
-5.1232914923291455
-5.517433751743371
-5.543793584379355
-5.514504881450484
-5.506136680613664
-5.511157601115756
-5.53333333333333
-5.547977684797765
-5.527057182705714
-5.53751743375174
-5.56680613668061
-5.555509065550902
-5.529986052998601
-5.536262203626216
-5.56680613668061
-5.55843793584379
-5.548814504881446
-5.540864714086467
-5.561366806136676
-5.569316596931656
-5.552580195258016
-5.553417015341697
-5.545048814504877
-5.56680613668061
-5.583960948396091
-5.5559274755927435
-5.554672245467221
-5.601952580195254
-5.598186889818685
-5.5789400278939985
-5.576011157601112
-5.568898186889815
-5.583960948396091
-5.606555090655505
-18.736262203626215
-5.636262203626217
-5.609483960948392
-5.604881450488141
-5.624546722454668
-5.6316596931659655
-5.6316596931659655
-5.6191073919107355
-5.6253835425383505
-5.6442119944211955
-5.651743375174333
-5.660111576011153
-5.6504881450488105
-5.652998605299857
-5.6714086471408605
-5.6567642956764255
-5.657601115760108
-5.650906555090652
-5.655927475592743
-5.660529986052994
-5.676847977684794
-5.697350069735003
-5.709902370990233
-5.703207810320777
-5.698605299860526
-5.705718270571823
-5.701534170153413
-5.70027894002789
-5.7136680613668025
-5.707810320781028
-5.720781032078099
-5.7115760111575975
-5.705718270571823
-5.719525801952576
-5.730822873082284
-5.732914923291489
-15.545048814504877
-80.1931659693166
-5.749651324965129
-5.740446304044626
-5.737517433751739
-5.731241283124124
-5.731241283124124
-5.757182705718266
-5.752161785216175
-5.7555090655509025
-5.7555090655509025
-5.755090655509061
-5.75885634588563
-5.761366806136676
-5.761366806136676
-5.777684797768476
-5.794421199442116
-5.786052998605296
-5.789400278940024
-5.800697350069731
-5.803626220362618
-5.818270571827053
-5.823291492329145
-5.8270571827057145
-5.811994421199438
-5.806973500697346
-5.830404463040442
-5.822454672245463
-5.8228730822873045
-5.8270571827057145
-5.822036262203622
-5.844211994421196
-5.855509065550902
-5.874337517433748
-5.886471408647137
-5.866387726638768
-5.857182705718267
-5.855090655509062
-5.879776847977681
-5.909065550906551
-5.896513249651321
-5.884797768479773
-5.898186889818685
-5.914923291492325
-5.909902370990233
-5.895676429567639
-5.903207810320777
-5.9278940027893965
-5.937517433751739
-5.912412831241279
-5.9278940027893965
-5.911576011157597
-5.923291492329145
-5.9383542538354215
-5.92538354253835
-5.909483960948392
-5.914504881450484
-5.918688981868894
-5.959693165969313
-5.983960948396091
-5.951324965132493
-5.958019525801949
-5.970153417015338
-5.985216178521614
-5.9822873082287265
-5.997768479776844
-5.988981868898183
-5.981032078103204
-6.005299860529982
-5.9927475592747514
-5.991073919107388
-5.972245467224543
-5.981032078103204
-6.015760111576007
-6.011576011157597
-6.012412831241279
-6.02538354253835
-6.026220362622032
-6.046722454672241
-6.0454672245467185
-6.036680613668057
-6.036680613668057
-6.0161785216178485
-6.012412831241279
-6.032496513249647
-6.061785216178517
-6.054672245467221
-6.034588563458852
-6.043793584379355
-6.047140864714082
-6.067642956764292
-6.056764295676426
-6.0496513249651285
-6.063458856345882
-6.093165969316593
-6.092747559274752
-6.0914923291492284
-6.117852161785212
-6.105718270571823
-6.0747559274755885
-6.073082287308225
-6.082287308228727
-6.095258019525798
-6.110739191073915
-6.1358437935843755
-6.134588563458852
-6.129149232914919
-6.134170153417012
-6.126638772663873
-6.126638772663873
-6.138772663877262
-6.1400278940027855
-6.136680613668057
-6.129986052998602
-6.135006973500693
-6.165969316596928
-6.181450488145045
-6.161785216178518
-6.147977684797764
-6.170153417015338
-6.193584379358434
-6.193165969316593
-6.1797768479776805
-6.198605299860526
-5.496931659693162
-6.200697350069731
-6.207391910739187
-6.224546722454668
-6.226638772663873
-6.213249651324961
-6.216178521617848
-6.2450488145048775
-6.244630404463036
-6.222873082287304
-6.235425383542534
-6.25006973500697
-6.241283124128309
-6.2366806136680575
-6.249651324965129
-6.2555090655509025
-6.2617852161785175
-6.25843793584379
-6.261366806136676
-6.256764295676425
-6.269735006973496
-6.278103207810317
-6.27099023709902
-6.263040446304041
-6.265132496513246
-6.283960948396091
-6.30027894002789
-6.297768479776844
-6.303626220362618
-6.279776847977681
-6.290237099023706
-6.314086471408643
-6.311576011157597
-6.320362622036258
-6.322454672245463
-6.305718270571823
-6.311994421199438
-6.313668061366802
-6.32538354253835
-6.320362622036258
-6.355927475592743
-6.352580195258016
-6.358019525801948
-6.378521617852158
-6.396931659693162
-6.3814504881450445
-6.374337517433748
-6.359274755927472
-6.3626220362621995
-6.386889818688978
-6.3877266387726594
-6.389400278940024
-6.392329149232911
-6.398605299860526
-6.410739191073915
-6.424128312412827
-6.401534170153413
-6.403626220362618
-6.401952580195254
-6.411157601115756
-6.434588563458853
-6.427057182705714
-6.408228730822869
-6.430822873082283
-6.4781032078103165
-80.1931659693166
-6.448396094839605
-6.454253835425379
-6.46304044630404
-6.456764295676425
-6.459693165969313
-6.468061366806133
-6.457601115760108
-6.476429567642953
-6.495676429567639
-6.496513249651321
-6.483960948396091
-6.4927475592747514
-6.510739191073915
-6.5140864714086435
-6.506555090655505
-6.506973500697346
-6.508228730822869
-6.515341701534166
-6.520781032078099
-6.525801952580191
-6.517852161785212
-6.5224546722454635
-6.543793584379355
-6.552998605299856
-6.5517433751743335
-6.53333333333333
-6.5412831241283085
-6.555509065550902
-6.5684797768479735
-6.569735006973497
-6.5705718270571785
-6.5726638772663835
-43.38479776847977
-6.596513249651321
-6.598186889818685
-6.597350069735003
-6.609065550906551
-6.603207810320777
-6.599023709902367
-6.609065550906551
-6.60027894002789
-6.60027894002789
-6.601952580195254
-6.612412831241279
-6.653417015341698
-6.620362622036258
-6.616178521617848
-6.642538354253832
-6.655090655509062
-6.6483960948396055
-6.647140864714083
-6.643375174337513
-5.719525801952576
-80.1931659693166
-6.649651324965128
-6.661785216178518
-6.682287308228727
-6.676011157601112
-6.6735006973500655
-6.668898186889814
-6.670990237099019
-6.683124128312409
-6.693165969316593
-6.694002789400275
-6.701534170153413
-6.702370990237095
-6.7199442119944175
-6.731241283124124
-6.7199442119944175
-4.816178521617848
2552.21520223152
-6.744211994421195
-6.7471408647140825
-6.7283124128312375
-6.723709902370986
-6.7408647140864675
-6.75467224546722
-6.76680613668061
-6.765550906555086
-6.7827057182705675
-6.7868898186889774
-6.797350069735003
-6.793584379358434
-6.792747559274752
-6.802370990237095
-6.8165969316596895
-6.828312412831237
-6.809902370990233
-6.811576011157597
-6.828730822873078
-6.822454672245463
-6.807391910739187
-6.811994421199438
-6.833751743375171
-6.834170153417011
-6.844630404463036
-6.8479776847977645
-6.831659693165966
-6.837099023709898
-6.82119944211994
-6.843375174337513
-6.849651324965128
-6.8521617852161745
-6.851743375174333
-43.522454672245466
-80.1931659693166
-6.864295676429563
-6.863458856345882
-6.855509065550902
-6.868061366806133
-6.865132496513246
-6.875592747559271
-6.8751743375174295
-6.879776847977681
-6.90864714086471
-6.902789400278936
-6.894421199442116
-4.8186889818688945
-6.89609483960948
-6.903626220362618
-6.911994421199438
-6.898186889818685
-6.909065550906551
-6.940027894002785
-6.9320781032078065
-6.926220362622032
-6.930822873082283
-6.9362622036262165
-6.936680613668058
-6.939191073919103
-6.942956764295673
-6.953835425383539
-6.947977684797764
-6.956764295676425
-6.960529986052994
-6.9509065550906515
-6.949651324965129
-6.9509065550906515
-6.9801952580195215
-6.9781032078103165
-6.983960948396091
-6.999023709902367
-6.993584379358434
-6.9822873082287265
-7.008228730822869
-7.010739191073915
-7.02914923291492
-7.032078103207806
-7.00864714086471
-7.015760111576007
-7.011576011157597
-7.029986052998601
-7.034170153417011
-7.026220362622032
-7.04170153417015
-7.05425383542538
-7.0642956764295635
-7.0789400278939985
-7.071827057182702
-7.0475592747559235
-7.060948396094836
-7.0684797768479735
-16.203207810320777
-80.1931659693166
-7.0684797768479735
-7.078521617852158
-7.094002789400275
-7.086889818688978
-7.084797768479773
-7.099442119944208
-7.104881450488141
-7.099023709902367
-7.097768479776844
-7.102789400278936
-7.1232914923291455
-7.127057182705714
-7.116178521617848
-7.138772663877262
-7.145048814504878
-7.136262203626217
-7.126220362622032
-7.106973500697346
-7.145885634588559
-7.1525801952580155
-7.155927475592743
-7.169735006973497
-7.168898186889814
-43.67977684797768
-7.137099023709898
-7.164714086471404
-7.19609483960948
-2.5584379358437896
-7.191492329149229
-7.189818688981865
-7.208228730822869
-7.223291492329145
-7.2220362622036225
-7.219525801952576
-7.218270571827053
-7.207391910739187
-7.223291492329145
-7.234170153417011
-7.235006973500694
-7.245467224546719
-7.241283124128309
-7.235006973500694
-7.2471408647140825
-7.2596931659693125
-7.27099023709902
-7.292747559274752
-7.265550906555086
-7.264295676429564
-7.27517433751743
-7.283960948396091
-7.273500697350066
-7.280195258019522
-7.260111576011154
-7.290237099023706
-7.307391910739187
-7.308228730822869
-7.314086471408643
-7.328312412831237
-7.3270571827057145
-7.317852161785212
-7.310739191073915
-7.310320781032074
-7.319944211994417
-7.333751743375171
-7.3437935843793545
-7.347140864714082
-7.342538354253831
-7.329567642956761
-7.3186889818688945
-7.329567642956761
-7.3291492329149195
-7.3291492329149195
-7.361366806136677
-7.390655509065547
-7.384379358437932
-7.390237099023706
-7.370153417015338
-7.365969316596928
-7.3500697350069695
-7.349651324965128
-7.378103207810317
-7.3751743375174295
-7.384379358437932
-7.3856345885634545
-7.3919107391910694
-7.403207810320777
-7.388145048814501
-7.395258019525798
-7.410739191073915
-7.406555090655505
-7.413668061366802
-7.406973500697346
-7.42119944211994
-7.419107391910735
-7.422036262203622
-7.42956764295676
-7.4237099023709865
-7.434588563458853
-7.438772663877263
-7.435843793584375
-7.44211994421199
-7.404881450488141
-7.460529986052994
-43.82329149232915
-80.1931659693166
11.019804741980478
-7.468061366806133
-7.486889818688978
-7.464295676429564
-7.4801952580195215
-7.495258019525798
-7.494839609483957
-7.504881450488141
-7.521617852161781
-7.526220362622032
-7.511576011157597
-7.51701534170153
-7.532496513249647
-7.536262203626216
-7.540446304044626
-7.557182705718266
-7.552161785216175
-7.540446304044626
-7.542538354253831
-7.553417015341697
-7.528312412831237
-7.53333333333333
-7.567224546722451
-7.5622036262203585
-7.552998605299856
-7.568898186889815
-7.597350069735003
-7.609065550906551
-7.581868898186886
-7.5873082287308184
-7.590237099023706
-7.590237099023706
-7.600697350069731
-7.597350069735003
-7.604881450488141
-7.593165969316593
-7.604044630404459
-7.617852161785212
-7.635425383542534
-7.624128312412827
-7.611157601115756
-7.626638772663873
-7.663877266387723
-16.501534170153413
-80.1931659693166
-7.6400278940027855
-7.657182705718267
-7.649651324965128
-7.654253835425379
-7.663877266387723
-7.687308228730819
-7.681450488145045
-7.678940027893999
-7.674337517433748
-7.6588563458856305
-7.6755927475592705
-7.686889818688978
-7.6651324965132455
-7.665969316596928
-7.678940027893999
-7.712412831241279
-7.7304044630404425
-7.704881450488141
-7.701952580195254
-7.691073919107388
-7.693165969316593
-6.247977684797765
-80.1931659693166
-7.703207810320777
-7.705718270571823
-7.7304044630404425
-7.732914923291489
-7.542538354253831
-7.706555090655505
-7.718688981868894
-7.721617852161781
-7.727057182705714
-7.737517433751739
-7.7463040446304
-7.75425383542538
-7.733333333333329
-7.727894002789396
-7.7366806136680575
-7.731659693165965
-7.719107391910735
-7.728730822873079
-7.7513249651324925
-7.773082287308225
-6.273919107391906
-80.1931659693166
-7.75048814504881
-7.7471408647140825
-16.549232914923287
-7.791492329149229
-7.792329149232911
-7.805718270571823
-7.8145048814504845
-7.799442119944208
-7.8044630404463
-7.806973500697346
-7.814086471408643
-7.832496513249647
-7.8479776847977645
-7.837935843793581
-7.843375174337513
-7.829986052998601
-7.830404463040442
-7.845467224546718
-8.027475592747555
-7.8437935843793545
-7.857182705718267
-7.866387726638768
-7.8668061366806095
-7.882287308228727
-7.881868898186886
-7.865132496513246
-7.8772663877266345
-7.8919107391910694
-7.897350069735003
-7.891073919107388
-7.901952580195254
-7.919944211994417
-7.92119944211994
-7.909065550906551
-7.899860529986049
-7.896513249651321
-7.906136680613664
-71.15592747559275
-7.9216178521617815
-7.930822873082283
-7.935843793584375
-7.935425383542534
-7.9362622036262165
-7.952580195258015
-7.955509065550903
-7.9592747559274715
-7.958019525801949
-7.964295676429564
-7.962203626220359
-7.994002789400275
-7.986889818688978
-7.963877266387723
-7.978521617852158
-8.006555090655505
-7.981450488145045
-7.991492329149229
-8.114504881450484
-71.53040446304044
-7.98354253835425
-7.994839609483957
-8.028312412831237
-8.009902370990233
-8.014086471408643
-8.036262203626217
-41.584797768479774
-8.068061366806132
-8.060111576011154
-8.042538354253832
-8.065132496513245
-8.069735006973497
-8.048814504881447
-8.040864714086467
-8.036262203626217
-8.07935843793584
-8.099442119944207
-8.084797768479772
-8.076429567642952
-8.07977684797768
-8.106136680613664
-8.090655509065547
-8.094839609483957
-8.116178521617847
-8.130404463040442
-45.04379358437935
1674.7457461645747
-8.111157601115757
-8.127057182705714
-8.14211994421199
-8.142538354253832
-8.124128312412827
-8.12496513249651
-8.127057182705714
-8.13333333333333
-8.131659693165965
-8.139191073919104
-8.14211994421199
-8.163458856345882
-8.160948396094836
-8.148396094839605
-8.147140864714082
-8.157182705718267
-8.159693165969312
1674.7457461645747
-8.167224546722451
-8.182705718270567
-8.173082287308224
-8.165132496513246
-8.17099023709902
-8.206555090655504
-8.223709902370986
-8.20027894002789
-8.19609483960948
-8.190237099023706
-8.186052998605296
-8.193165969316594
-8.201952580195254
-8.194839609483957
-8.228730822873079
-8.244211994421196
-8.242119944211991
-8.209902370990234
-8.21283124128312
-8.232496513249647
-8.222454672245464
-8.226638772663874
-8.236262203626216
-8.244211994421196
-8.225801952580191
-8.215760111576007
-8.235425383542534
-8.227057182705714
-8.237517433751739
-8.238772663877262
-8.259274755927471
-8.255927475592744
-8.270990237099019
-8.275592747559271
-8.267642956764291
-8.257601115760108
-8.28772663877266
-8.302370990237096
-8.300697350069731
-8.294839609483956
-16.82538354253835
-8.317852161785211
-8.305718270571823
-8.30027894002789
-8.307810320781028
-8.29609483960948
-8.281450488145044
-8.296931659693161
-8.306555090655506
-8.330404463040443
-8.339609483960944
-8.3463040446304
-8.34211994421199
-8.347140864714083
-8.345048814504878
-8.346722454672241
-8.360948396094836
-8.363458856345881
-8.37559274755927
-8.374755927475588
-8.382287308228726
-8.385634588563455
-8.389818688981865
-8.395676429567638
-8.37977684797768
-8.386889818688978
-8.403207810320778
-8.40864714086471
-8.407810320781028
-8.40069735006973
-8.39232914923291
-8.42914923291492
-8.448396094839605
-8.46680613668061
-8.448814504881446
-8.431659693165965
-8.456764295676425
-8.465550906555087
-8.46304044630404
-8.455927475592743
-8.483124128312408
-8.486471408647137
-8.490237099023705
-8.486052998605295
-8.498186889818685
-8.493165969316593
-8.49609483960948
-8.505299860529982
-8.51241283124128
-8.49232914923291
-8.506136680613665
-8.547977684797765
-8.55425383542538
-8.537099023709898
-8.519107391910735
-8.520362622036258
-8.54170153417015
-8.541283124128308
-44.28354253835425
-3590.0709902370986
-8.540864714086467
-8.55885634588563
-8.555509065550902
-8.547977684797765
-8.551743375174333
-8.565550906555087
-8.568479776847974
-8.580195258019522
-8.592329149232912
-8.594421199442117
-8.581032078103204
-8.585634588563455
-8.578940027894
-8.568898186889815
-8.58730822873082
-8.6044630404463
-8.609483960948392
-8.626220362622032
-8.630404463040442
-8.6463040446304
-8.631241283124124
-8.643793584379354
-10.144211994421195
-80.1931659693166
-8.650906555090652
-8.658856345885631
-8.659693165969312
-8.658856345885631
-8.646722454672242
-8.644630404463037
-8.65048814504881
-8.677684797768476
-8.684379358437932
-8.669735006973497
-8.664714086471404
-8.671408647140861
-8.683124128312409
-8.7044630404463
-8.714504881450484
-8.70864714086471
-8.716178521617849
-8.707391910739187
-8.694002789400274
-8.723291492329146
-8.723709902370986
-8.720781032078099
-8.717852161785212
-8.721617852161781
1.30390516039052
1236.011018131102
-8.732914923291489
-8.733751743375171
-8.724965132496509
-8.726638772663874
-8.732078103207806
-44.335425383542535
-80.1931659693166
-8.747559274755924
-8.728730822873079
-8.743375174337514
-8.744630404463036
-8.751743375174334
-44.48312412831241
-80.1931659693166
-8.761785216178518
-8.756345885634584
-8.926220362622033
-80.1931659693166
-8.806136680613664
-8.789818688981866
-8.788145048814501
-8.802370990237096
-8.8044630404463
-8.809065550906551
-8.819107391910736
-8.814086471408643
-8.806555090655506
-8.818270571827053
-8.827475592747556
-8.808228730822869
-8.830404463040443
-8.839191073919103
-3.3873082287308187
-80.1931659693166
-8.873500697350066
-8.862203626220358
-8.833333333333329
-8.83793584379358
-8.863458856345881
-8.882287308228726
-8.878940027893998
-8.860111576011153
-8.853835425383538
-8.863458856345881
-8.878940027893998
-8.873500697350066
-8.868479776847973
-8.897768479776843
-8.911576011157598
-8.905299860529983
-8.898186889818685
-8.890655509065548
-8.922036262203623
-8.91743375174337
-8.91283124128312
-8.92161785216178
-8.9463040446304
-8.923709902370986
-8.901115760111573
-8.911576011157598
-8.93333333333333
-8.94170153417015
-8.9626220362622
-8.952998605299856
-8.957601115760108
-8.977266387726635
-8.972245467224543
-8.970571827057178
-8.965132496513245
-8.955090655509062
-8.941283124128308
-9.014923291492325
-80.1931659693166
-8.963458856345882
-2712.6015341701536
-8.98730822873082
-9.006555090655505
-9.028730822873078
-9.01241283124128
-9.001534170153413
-9.011576011157597
-9.022036262203622
-9.032078103207807
-9.01324965132496
-9.031659693165965
-9.044630404463037
-9.038354253835422
-9.03751743375174
-9.040864714086467
-9.024546722454668
-9.028730822873078
-9.055090655509062
-9.061366806136677
-9.061785216178517
-9.07140864714086
-9.074337517433747
-9.07140864714086
-9.052998605299857
-9.069316596931655
-9.08354253835425
-9.093584379358434
-9.10027894002789
-9.107810320781027
-9.123709902370987
1894.113110181311
-9.118688981868894
-9.12496513249651
-44.660111576011154
-80.1931659693166
-9.098186889818685
-9.094002789400275
-9.101534170153412
-9.11241283124128
-9.127475592747555
-9.132496513249647
-9.149232914923287
-9.16680613668061
-9.135425383542534
-9.134588563458852
-9.14588563458856
-9.151743375174334
-9.160948396094836
-9.145048814504877
-9.148814504881447
-9.157601115760107
-9.152161785216174
-9.145467224546719
-9.155090655509062
-9.151743375174334
-9.177684797768476
-9.188145048814501
-9.165132496513246
-9.165550906555087
-9.183960948396091
-9.19191073919107
-9.188563458856342
-9.176847977684794
-9.189818688981864
-10.41701534170153
-80.1931659693166
-9.199860529986049
-9.214923291492324
-9.233751743375171
27.0700139470014
-9.240027894002786
-9.231241283124124
-9.231241283124124
-9.220362622036259
-9.243375174337514
-9.244211994421196
-9.224965132496509
-9.230404463040442
-9.232914923291489
-9.262203626220359
-9.276847977684794
-9.264295676429564
-9.270571827057179
-9.261366806136676
-9.250488145048811
-9.242119944211991
-9.266806136680609
-44.74211994421199
-9.281032078103204
-9.278521617852158
-9.279358437935839
-9.283542538354249
-9.270571827057179
-9.274755927475589
-9.286471408647136
-9.297350069735003
-9.299442119944208
-9.293165969316593
-9.281032078103204
-9.279358437935839
-9.295258019525798
-9.305299860529981
-9.306136680613664
-9.306973500697346
-9.850906555090651
-3590.0709902370986
-9.332496513249648
-9.317433751743371
-9.326638772663873
-9.317852161785211
-9.307391910739186
-9.326638772663873
-9.335425383542534
-9.32538354253835
-9.314504881450484
-9.322036262203623
-9.345467224546718
-9.357601115760108
-9.3626220362622
-9.368898186889815
-9.381032078103203
-9.394839609483958
-9.37977684797768
-9.372245467224543
-9.378940027893998
-9.404044630404458
-9.394421199442116
-9.37099023709902
-9.397768479776843
-9.394002789400275
-9.402370990237095
-9.417852161785213
-9.431241283124125
-9.43793584379358
-9.42914923291492
-9.419944211994418
-9.44170153417015
-9.448814504881446
-9.452580195258015
-9.456764295676425
-9.464295676429563
-9.472245467224543
-9.473500697350065
-9.47935843793584
-9.47977684797768
-9.477266387726635
-9.46722454672245
-9.486889818688978
-9.485634588563455
-9.484379358437932
-9.518688981868895
1674.7457461645747
-9.51283124128312
-9.5207810320781
-9.507391910739187
-9.50488145048814
-9.51283124128312
-9.52119944211994
-9.514504881450485
-9.528312412831237
-9.526220362622032
-9.52119944211994
-9.52956764295676
-9.517852161785212
-9.560111576011154
-9.586052998605295
-9.586471408647137
-9.578940027894
-9.588981868898182
-9.571827057182702
-9.573919107391907
-9.598186889818685
-9.614923291492325
-9.619525801952577
-9.60822873082287
-9.621617852161782
-9.610320781032074
-9.616178521617847
-9.624546722454669
-9.635425383542534
-9.632914923291489
-80.1931659693166
-9.781450488145044
-9.652580195258015
-45.42036262203626
-1835.132078103208
-9.644211994421195
-9.653417015341697
-9.630404463040442
-9.648814504881447
-9.673919107391907
-9.701534170153414
-9.691073919107389
-9.666387726638769
-9.693584379358434
-9.690237099023706
-9.708228730822869
-9.718688981868894
-9.720781032078099
-9.705299860529982
-9.704881450488141
-45.00822873082287
-9.756764295676426
-9.762622036262199
-9.748814504881446
-9.723291492329146
-9.735006973500694
-9.769316596931656
-9.776429567642953
-9.752580195258016
-9.738354253835421
-9.759693165969313
-9.758437935843789
-9.786471408647136
-9.798605299860526
-9.775592747559271
-10.716178521617849
-9.801534170153413
-9.806555090655506
-9.801534170153413
-9.78772663877266
-9.81283124128312
-9.806136680613664
-9.809902370990233
-9.796931659693161
-9.799860529986049
-9.788145048814501
-9.79609483960948
-9.816596931659689
-9.82956764295676
-9.819944211994418
-9.019525801952575
-9.831659693165966
-9.8463040446304
-9.834588563458853
-9.85048814504881
-9.869316596931656
-9.845048814504878
-9.851324965132493
-9.858019525801948
-9.872245467224543
-17.62161785216178
-9.881868898186886
-9.86680613668061
-9.859274755927471
-9.89191073919107
-9.911994421199438
-9.911576011157598
-9.905718270571823
-9.883124128312408
-9.896931659693163
-9.9299860529986
-9.939191073919103
-9.920362622036258
-9.910320781032073
-9.935425383542535
-9.966387726638768
-9.960529986052995
-9.960529986052995
-9.972245467224543
-9.95425383542538
-9.951324965132493
-9.978103207810317
-9.955509065550903
-9.945467224546718
-9.96722454672245
-9.968479776847973
-9.981450488145045
-9.9881450488145
-9.97140864714086
-9.993165969316593
-9.982705718270568
-9.97140864714086
-9.992747559274752
-9.994002789400275
-10.007391910739187
-10.02914923291492
-10.067642956764292
-10.05801952580195
-10.045467224546718
-10.04211994421199
-10.031659693165965
-10.05048814504881
-10.049651324965128
-10.038772663877262
-10.084797768479772
-10.077684797768475
-10.055090655509062
-10.049651324965128
-10.068898186889815
-45.13417015341701
-10.086052998605295
-10.076847977684794
-10.09191073919107
-10.126638772663874
-10.106555090655505
-10.094421199442117
-17.739609483960944
-3590.0709902370986
-10.123291492329145
-10.111157601115757
-10.113249651324962
-10.119525801952577
-10.13375174337517
-10.1463040446304
-10.140864714086467
-10.14170153417015
-10.155090655509062
-10.1463040446304
9.674198047419809
-80.1931659693166
-10.15843793584379
-10.16680613668061
-10.153835425383539
-10.155509065550902
-10.173500697350066
-10.191492329149229
-10.179776847977681
-10.173500697350066
-10.192329149232911
-10.203626220362619
-10.204044630404459
-10.209065550906551
-10.216178521617849
-10.199860529986049
-10.214086471408644
-10.206555090655504
-10.210739191073914
-10.214923291492324
-10.223291492329146
-10.234588563458852
-10.229567642956761
-10.232078103207806
-10.224128312412827
-10.21701534170153
-10.245467224546719
-10.267642956764291
-10.248396094839606
-10.237517433751739
-10.246722454672241
-10.242956764295672
-10.250488145048811
-10.247140864714082
-10.247977684797764
-10.240027894002786
-10.252580195258016
-10.272245467224543
-10.261366806136676
-10.266387726638769
9.602649930264997
-10.285216178521614
-10.283124128312409
-10.280613668061363
-10.298186889818686
-10.301534170153413
-10.308228730822869
-10.315341701534166
-10.298186889818686
-10.311157601115756
-10.355090655509061
139.17419804741982
-10.3044630404463
-10.320781032078099
-10.33793584379358
-10.360948396094836
-10.374337517433748
-10.380195258019521
-10.330404463040443
-10.295258019525798
-10.329149232914919
-10.368898186889815
-10.364295676429563
-10.349232914923288
-10.351324965132493
-10.361785216178518
-10.376847977684793
-10.377266387726635
-10.381868898186886
-10.386052998605296
-10.382287308228726
-10.381450488145045
-10.403207810320778
-10.41324965132496
-10.405299860529983
-10.407391910739188
-10.418270571827053
-10.407391910739188
-10.417852161785213
-10.407391910739188
-10.426638772663873
-10.432914923291488
-10.431241283124125
-10.432078103207806
-10.43751743375174
-10.45048814504881
-10.469316596931655
-10.452998605299856
-10.449232914923288
-10.46722454672245
-10.476429567642953
-10.47977684797768
-10.473082287308225
-10.488981868898183
-10.499023709902367
-10.503207810320777
-10.494421199442115
-10.492747559274752
-10.488981868898183
-10.482705718270568
-10.481450488145045
-10.48354253835425
-10.528312412831237
-10.518688981868895
-10.498186889818685
-10.503207810320777
-10.526220362622032
-10.544630404463037
-10.542538354253832
-10.542538354253832
-10.542538354253832
-10.546722454672242
-10.540446304044627
-10.541283124128308
-10.55467224546722
-10.551743375174333
-10.571827057182702
-10.57099023709902
-10.569735006973497
-10.57977684797768
-10.576847977684794
-10.570153417015337
-10.58772663877266
-10.60864714086471
-10.6044630404463
-10.586889818688977
-10.601534170153412
-10.615760111576007
-10.59567642956764
-10.606136680613664
-10.619525801952577
-10.611157601115757
-10.602789400278937
-10.627894002789397
-10.622454672245464
-10.619944211994417
-10.619944211994417
-10.62496513249651
-10.62914923291492
-10.273919107391906
-3590.0709902370986
-10.622454672245464
-10.632914923291489
-10.632496513249647
-10.647977684797764
-10.649651324965129
-10.643793584379354
-10.657182705718267
-10.663458856345882
-10.681868898186886
-10.690237099023706
-10.694421199442116
-10.693584379358434
-10.709902370990234
-10.694839609483957
-10.703207810320777
-10.70864714086471
-10.709483960948392
-10.710739191073914
-10.715341701534166
-10.719525801952576
-10.723709902370986
-10.746304044630401
-10.731241283124124
-10.737517433751739
-10.743793584379354
-10.754672245467221
-10.732914923291489
-10.734170153417011
-10.753417015341698
-10.764295676429564
-10.760948396094836
-10.748814504881446
-10.773500697350066
-10.768061366806133
-10.768061366806133
-10.770153417015338
-10.790237099023706
-10.811576011157596
-10.793165969316593
-10.781868898186886
-10.776847977684794
-10.788145048814501
-10.798186889818686
-10.811994421199438
-10.817433751743371
-10.81701534170153
-10.80027894002789
-80.1931659693166
-10.810739191073916
-10.796931659693161
-10.801952580195254
-10.827894002789396
-10.827894002789396
-10.826220362622033
-10.827475592747556
-10.811157601115756
-80.1931659693166
-10.84211994421199
-10.839609483960944
-10.851324965132493
-10.851324965132493
-10.857182705718266
-10.87140864714086
-10.876847977684793
-10.87935843793584
-10.870153417015338
-10.878940027893998
-10.901115760111573
-10.88354253835425
-10.865132496513246
-10.878521617852158
-10.888563458856343
-10.88354253835425
-10.885634588563455
-10.90864714086471
-10.918270571827053
-10.92914923291492
-10.916596931659688
-10.887308228730818
-10.889818688981865
-10.886471408647138
-10.904044630404458
-10.943375174337513
-10.923291492329145
-10.914086471408643
-10.943793584379355
-10.962203626220358
-18.160948396094835
-10.941283124128308
-10.942956764295673
-10.949232914923288
-10.963458856345882
-10.974337517433748
-10.981450488145045
-10.976847977684793
-10.977266387726635
-10.978103207810317
-10.9881450488145
-11.00027894002789
-10.997768479776845
-10.99567642956764
-11.006555090655505
-11.029986052998602
-11.031659693165965
-11.0207810320781
-11.018688981868895
-42.33793584379358
-80.1931659693166
-11.055090655509062
-11.06638772663877
-11.053417015341697
-11.044630404463037
-11.060111576011154
-11.355509065550903
-11.080195258019522
-11.070153417015337
-11.059693165969312
-11.057182705718267
-11.048396094839605
-11.06220362622036
-11.082287308228727
-11.101952580195254
-11.11701534170153
-11.10822873082287
-11.09149232914923
-11.08730822873082
-11.088145048814502
-11.122036262203622
-11.134170153417012
-11.122873082287304
-11.124128312412827
-11.109065550906552
-11.111994421199437
-11.12119944211994
-11.13751743375174
-11.149232914923287
-11.173919107391907
-11.151324965132492
-11.132914923291489
-11.150906555090652
-11.158856345885631
-80.1931659693166
-11.15843793584379
-11.165132496513246
-11.166387726638769
-11.163877266387722
-11.163877266387722
-11.185216178521614
-11.426638772663873
-11.202370990237094
-11.212412831241279
-11.228312412831237
-11.222873082287304
-11.217433751743371
-11.220781032078099
-11.215760111576007
-45.70613668061367
-11.231659693165966
-11.224128312412827
-11.239191073919104
-11.232496513249647
-11.222873082287304
-11.245885634588559
-11.272245467224543
-11.276011157601111
-11.270571827057179
-11.281868898186886
-45.82538354253835
-3590.0709902370986
-11.262203626220359
-11.261366806136676
-11.258437935843789
-11.285634588563454
-11.298186889818686
-11.301534170153413
-11.299023709902366
-11.276011157601111
-11.280195258019521
-11.311157601115756
-11.317433751743371
-11.292747559274751
-11.306555090655506
-11.309065550906551
-11.305299860529981
-11.294421199442116
-11.301115760111571
-11.31283124128312
-11.347140864714083
-11.3626220362622
-11.349651324965128
-11.337099023709898
-11.377266387726635
-11.36722454672245
-11.381450488145045
-11.384797768479773
-11.378103207810316
-11.356764295676426
-11.356345885634585
-11.364714086471405
-11.389818688981865
-11.41324965132496
-11.41283124128312
-11.411157601115756
-11.414086471408643
-11.44253835425383
-11.426638772663873
-11.415760111576008
-11.419944211994418
-11.427057182705715
-11.414923291492325
-11.534170153417012
-80.1931659693166
-11.435843793584375
-11.438772663877263
-11.447977684797765
-11.43793584379358
-11.460529986052995
-11.45843793584379
-11.457601115760108
-11.469316596931655
-11.47099023709902
-11.473082287308225
-11.481450488145045
-11.46680613668061
-11.463877266387723
-11.480613668061363
-11.469735006973497
-11.481450488145045
-11.486052998605295
-11.516178521617848
-11.511576011157597
-11.51283124128312
-11.514086471408643
-11.507391910739187
-11.509902370990233
-11.530404463040442
-11.555090655509062
-80.1931659693166
-11.477684797768475
-80.1931659693166
-11.516178521617848
-11.524128312412827
-11.548396094839605
-11.564714086471405
-11.57559274755927
-11.563458856345882
-11.545467224546718
-11.5626220362622
-11.57140864714086
-11.57057182705718
-11.568898186889815
-11.576847977684794
-11.585634588563455
-80.1931659693166
-11.57559274755927
-11.573082287308225
-11.565969316596927
-11.560111576011154
-11.57559274755927
-45.9044630404463
-11.594421199442117
-11.616178521617847
-11.624546722454669
-45.91617852161785
-11.6044630404463
-11.628730822873079
-11.624546722454669
-11.625801952580192
-11.62538354253835
-11.61701534170153
-11.667642956764292
-11.675592747559271
-11.655927475592744
-11.668479776847974
-11.681450488145044
-11.685216178521614
-11.68772663877266
-11.685634588563454
-11.68354253835425
-11.698186889818684
-11.699442119944209
-11.693165969316594
-11.694421199442116
-11.701534170153414
-11.716178521617849
-11.720362622036259
-11.711157601115756
-11.717433751743371
-11.727894002789396
-11.724128312412827
-11.730822873082284
-11.724546722454669
-63.07391910739191
-11.681868898186886
-11.721199442119941
-11.717852161785212
-11.62914923291492
-11.599023709902367
-11.698186889818684
-11.726638772663874
-11.656345885634584
-11.622873082287304
-11.68772663877266
-11.751324965132492
-11.714923291492324
-11.660948396094836
-11.692747559274752
-11.751743375174334
-11.756345885634584
-80.1931659693166
-11.678940027893999
-11.676847977684794
-11.760529986052994
-11.754672245467221
-11.694002789400274
-11.691492329149229
-11.755927475592744
-11.771408647140861
-11.754253835425379
-11.721199442119941
-11.735843793584376
-11.762203626220359
-11.752998605299856
-11.734170153417011
-11.774755927475589
-11.817852161785211
-11.787308228730819
-11.764295676429564
-11.761366806136676
-49.382705718270564
-11.794839609483956
-11.782705718270568
-11.786471408647136
-11.801952580195254
-11.801534170153413
-11.788563458856341
-11.783542538354249
-11.817433751743371
-11.831241283124124
-11.792747559274751
-11.819525801952576
-11.852161785216174
-11.837099023709898
-11.82119944211994
-11.834588563458853
-11.85885634588563
-11.868479776847973
-11.742956764295672
-80.1931659693166
-11.845048814504878
-11.855090655509061
-11.861366806136676
-11.855509065550903
-11.843375174337513
-11.873082287308225
-11.891492329149228
-11.761366806136676
-11.89232914923291
-11.90069735006973
-11.923291492329145
-11.90864714086471
-11.897350069735003
-11.916178521617848
-11.92580195258019
-11.906555090655505
-18.61283124128312
-11.94588563458856
-11.92119944211994
-11.785216178521614
-11.98354253835425
-11.968061366806133
-11.947559274755923
-11.952998605299856
-11.948396094839605
-11.949232914923288
-11.94253835425383
-11.798186889818686
-3590.0709902370986
-11.978521617852158
-11.970571827057178
-11.955090655509062
-12.0044630404463
-12.00404463040446
-12.001534170153413
-12.003626220362618
-12.031659693165965
-12.037099023709898
-12.019107391910735
-12.001952580195255
-12.028730822873078
-12.04170153417015
-12.040027894002785
-12.040446304044627
-12.038354253835422
-12.063458856345882
-12.06680613668061
-12.05383542538354
-12.036262203626217
-12.032496513249647
-49.450906555090654
-12.036262203626217
-12.042538354253832
-12.065132496513245
-12.08312412831241
-12.093584379358434
-12.095258019525797
-12.11701534170153
-12.118270571827052
-12.117433751743372
-12.11701534170153
-12.096931659693162
-80.1931659693166
-12.119107391910735
-12.140446304044627
-12.109483960948392
-12.082287308228727
-12.086471408647137
-12.119107391910735
-12.135006973500694
-12.126638772663874
-80.1931659693166
-12.127057182705714
-12.14211994421199
-12.126638772663874
-12.134170153417012
-12.159274755927472
-12.155090655509062
-12.1626220362622
-12.185634588563454
-12.158019525801949
-12.155927475592744
-12.155090655509062
-12.165550906555087
-12.181032078103204
-12.17099023709902
-12.176011157601112
-12.175592747559271
-12.185634588563454
-12.198605299860526
-12.207391910739187
-12.21701534170153
-12.213668061366802
-12.213668061366802
-12.215760111576007
-12.231659693165966
-12.208228730822869
-12.186889818688979
-12.217852161785212
-12.237099023709899
-12.230822873082284
-12.232914923291489
-12.246304044630401
-12.260948396094836
-12.272245467224543
-12.238354253835421
-12.243375174337514
-12.265969316596928
-12.268061366806133
-80.1931659693166
-12.263040446304041
-12.261366806136676
-12.173919107391907
-12.28772663877266
-12.286052998605296
-12.271827057182701
-12.28772663877266
-12.303207810320776
-18.828312412831238
-80.1931659693166
-12.311994421199438
-12.308228730822869
-12.294421199442116
-12.266387726638769
-12.301115760111571
-12.315341701534166
-12.305718270571823
-12.310739191073916
-12.408228730822868
-12.36722454672245
-12.359274755927471
-12.350069735006969
-12.353417015341698
-12.356764295676426
-12.35843793584379
-12.350069735006969
-12.355090655509061
-12.37935843793584
-12.394839609483958
-12.007391910739187
-12.422873082287305
-12.423291492329145
-12.401534170153413
-12.40069735006973
-12.401952580195253
-12.404044630404458
-12.411157601115756
-12.40488145048814
-12.414086471408643
-12.406973500697346
-12.43417015341701
-12.440027894002785
-12.430404463040443
-12.435843793584375
-12.440027894002785
-12.43375174337517
-12.42496513249651
-46.30488145048814
-12.45467224546722
-12.453835425383538
-12.449232914923288
-12.463458856345882
-12.478521617852158
-12.480195258019522
-12.481868898186885
-12.492747559274752
-12.478521617852158
-12.476847977684793
-12.495258019525798
-12.503207810320777
-12.486471408647137
-12.494421199442115
-12.50488145048814
-12.498186889818685
-12.498605299860525
-12.510739191073915
-49.568061366806134
-80.1931659693166
-12.560111576011154
-12.540864714086467
-12.548396094839605
-12.55383542538354
-12.553417015341697
-12.547140864714082
-12.52496513249651
-12.55425383542538
-12.56722454672245
-12.549651324965128
-12.52914923291492
-12.531241283124125
-12.542538354253832
-12.55467224546722
-12.565969316596927
-12.551324965132492
-12.547140864714082
-12.57099023709902
-12.582705718270567
-12.590655509065547
-12.578940027894
-12.559274755927472
-12.584379358437932
-12.588981868898182
-12.59986052998605
-12.544630404463037
-12.581032078103204
-12.590655509065547
-12.614086471408642
-12.598186889818685
-12.601534170153412
-12.623291492329145
-12.627475592747555
-12.620362622036259
-12.602789400278937
-12.61283124128312
-12.648814504881447
-12.654672245467221
-12.660111576011154
-12.652580195258015
-12.656764295676426
-12.657182705718267
-12.652580195258015
-19.00111576011157
-80.1931659693166
-12.654672245467221
-12.67099023709902
-12.685634588563454
-12.679776847977681
-12.683960948396091
-12.697350069735004
-12.694002789400274
-12.698605299860526
-12.698605299860526
-12.682287308228727
-12.692329149232911
-12.709902370990234
-12.711994421199439
-12.694421199442116
-12.688145048814501
-12.696513249651321
-12.719107391910734
-12.713668061366802
-12.717433751743371
-12.723291492329146
-12.177684797768476
-12.750069735006969
-12.762203626220359
-12.764295676429564
-12.768061366806133
-12.776429567642953
-12.790237099023706
-12.807391910739186
-12.785216178521614
-12.769316596931656
-12.774337517433748
-12.782705718270568
-12.773500697350066
-12.787308228730819
-12.803207810320776
-12.814086471408643
-12.814923291492326
-12.806555090655506
-12.831241283124124
-12.812412831241279
-12.813249651324961
-12.807810320781028
-12.787308228730819
-12.832914923291488
-12.856764295676426
-12.829986052998601
-12.81283124128312
-12.816178521617848
-12.835843793584376
-12.866387726638768
-12.870571827057178
-12.840864714086468
-19.097768479776843
1674.7457461645747
-12.85425383542538
-12.870153417015338
-12.868061366806133
-12.884379358437931
-12.891073919107388
-12.874755927475588
-12.876011157601111
-12.888981868898183
-12.880195258019521
-12.904044630404458
-12.915341701534166
-12.915341701534166
-12.939609483960945
-12.948814504881446
-12.945467224546718
-12.96680613668061
-12.965550906555087
-12.927475592747555
-12.942956764295673
-12.949232914923288
-12.939191073919103
-12.938772663877263
-12.952998605299856
1674.7457461645747
-12.958019525801948
-12.9626220362622
-12.965550906555087
-12.986052998605295
-12.96680613668061
-12.980195258019522
-46.58856345885634
-3590.0709902370986
-12.981450488145045
-12.98396094839609
-12.98354253835425
-13.010739191073915
-13.027475592747555
-13.011576011157597
-13.009483960948392
-13.009902370990233
-13.016178521617848
-13.0207810320781
-13.032496513249647
-13.022454672245463
-13.024128312412827
-13.047977684797765
-46.616596931659686
-80.1931659693166
-46.614923291492325
-80.1931659693166
-13.056764295676425
-13.067642956764292
-13.0626220362622
-13.073500697350065
-13.052998605299857
-13.078103207810317
-13.098186889818685
-13.09149232914923
-13.109902370990232
-13.10404463040446
-13.102370990237095
-13.085634588563455
-13.098186889818685
-19.218688981868894
-13.09149232914923
-13.099023709902367
-13.105718270571822
-13.11241283124128
-13.1044630404463
-13.11283124128312
-13.12538354253835
-13.09149232914923
-13.086471408647137
-13.105718270571822
-13.122036262203622
-13.143793584379354
-13.147559274755924
-13.132914923291489
-13.14588563458856
-13.165550906555087
-13.168479776847974
-13.160111576011154
-13.164714086471404
-13.173500697350066
-13.17517433751743
-13.160948396094836
-13.160948396094836
-13.150906555090652
-13.158856345885631
-13.177266387726634
-13.189818688981864
-13.182705718270567
-13.178103207810317
-13.195676429567639
-13.203207810320777
-13.186889818688979
-13.183960948396091
-13.181032078103204
-13.20027894002789
-13.221617852161781
-13.215760111576007
-18.545048814504877
-13.233333333333329
-13.226220362622032
-13.220781032078099
-13.230404463040442
-13.241283124128309
-13.245885634588559
-13.231241283124124
-13.230404463040442
-13.242119944211991
-13.244630404463036
-13.264714086471404
-13.259693165969313
-13.245885634588559
-13.251743375174334
-13.273082287308224
-13.280195258019521
-13.266387726638769
-13.275592747559271
-13.257182705718266
-12.477266387726635
-3590.0709902370986
-13.276011157601111
-13.281868898186886
-13.290237099023706
-13.282705718270568
-13.282287308228726
-13.288145048814501
-13.296931659693161
-13.292747559274751
-13.289400278940024
-13.298605299860526
-13.319107391910736
-13.327057182705714
-13.32119944211994
-13.328730822873078
-13.33375174337517
-13.340864714086468
-13.322873082287304
-13.310739191073916
-13.323709902370986
-13.345467224546718
-13.333333333333329
-13.345048814504878
-13.352580195258016
-13.355927475592743
-13.359274755927471
-13.344630404463036
-13.360111576011153
-13.369735006973496
-13.378521617852158
-13.401115760111573
-13.397350069735003
-13.381032078103203
-13.381450488145045
-13.383124128312408
-13.399442119944208
-13.402789400278936
-13.409902370990233
-13.402789400278936
-13.419944211994418
-13.392747559274753
-13.408228730822868
-13.417852161785213
-13.435425383542535
-13.445467224546718
-13.442956764295673
-13.443793584379355
-13.44170153417015
-12.53793584379358
-80.1931659693166
-13.42956764295676
-13.432914923291488
-13.417852161785213
-13.44672245467224
-13.45006973500697
-13.443375174337513
-13.452161785216175
-13.46304044630404
-13.467642956764292
-13.470571827057178
-13.478103207810317
-13.463458856345882
-13.460529986052995
-13.470571827057178
-13.494421199442115
-13.48772663877266
-13.48354253835425
-13.483124128312408
-13.485634588563455
-13.486471408647137
-13.48730822873082
-13.51659693165969
-13.531659693165965
-13.527475592747555
-13.522454672245463
-13.523709902370987
-13.535425383542535
-13.53375174337517
-13.54211994421199
-13.5463040446304
-13.53793584379358
-13.560948396094835
-13.573919107391907
-13.559274755927472
-13.563877266387722
-13.56220362622036
-13.57475592747559
-13.58730822873082
-13.594002789400275
-13.580613668061362
-13.58772663877266
-80.1931659693166
-13.6044630404463
-13.632914923291489
-13.610320781032074
-13.61283124128312
-13.625801952580192
-13.637099023709899
-13.645048814504877
-13.663877266387722
-13.668898186889814
-13.657601115760107
-13.646722454672242
-13.6463040446304
-13.653417015341697
-13.665132496513246
-13.681450488145044
-13.701115760111572
-13.684797768479772
-13.672663877266384
-13.674337517433747
-14.374755927475588
-80.1931659693166
-13.696513249651321
-13.68772663877266
-13.694839609483957
-13.708228730822869
-13.718688981868894
-13.696931659693162
-13.693165969316594
-13.684379358437932
-13.691073919107389
-80.1931659693166
-13.70864714086471
-13.711576011157597
-13.711576011157597
-13.713249651324961
-13.731659693165966
-13.742538354253831
-13.723291492329146
-13.721617852161781
-13.743793584379354
-13.757601115760108
-13.766806136680609
-13.776847977684794
-13.778940027893999
-13.757182705718266
-13.769735006973496
-13.769316596931656
-13.779358437935839
-13.797350069735003
-13.760529986052994
-13.758437935843789
-13.773919107391906
-13.785634588563454
-13.784379358437931
-13.788981868898183
-13.808228730822869
-13.821617852161781
-13.81283124128312
-13.811994421199438
-19.607810320781027
-13.846722454672241
-13.851324965132493
-13.848814504881446
-13.840446304044626
-13.834588563458853
-13.809483960948391
-13.819107391910736
-13.850906555090651
-13.884379358437931
-13.871827057182701
-13.857601115760108
-13.868061366806133
-13.876847977684793
-13.898605299860526
-13.897768479776843
-13.885216178521613
-13.888563458856343
-13.889400278940023
-13.92496513249651
-13.922036262203623
-13.896931659693163
-13.897768479776843
-13.945048814504878
-13.953417015341698
-13.93793584379358
-13.93333333333333
-13.947140864714083
-13.944630404463036
-13.983124128312408
-13.988563458856342
-13.978521617852158
-13.96722454672245
-13.98354253835425
-13.985216178521613
-13.970571827057178
-13.983124128312408
-14.0044630404463
-14.018270571827053
-14.011994421199438
-14.007810320781028
-13.981868898186885
-13.99609483960948
-14.030404463040442
-19.686052998605295
-14.027475592747555
-14.040446304044627
-14.036680613668057
-46.517852161785214
-14.040446304044627
-14.040864714086467
-14.039609483960945
-14.05048814504881
-14.057601115760107
-14.052998605299857
-14.056345885634585
-14.051743375174333
-14.040864714086467
-14.0463040446304
-14.06638772663877
-14.06304044630404
-14.047140864714082
-14.064295676429564
-14.081032078103204
-14.09609483960948
-14.081450488145045
-14.059693165969312
-14.07977684797768
-14.092747559274752
-14.088145048814502
-14.10404463040446
-14.101534170153412
-14.102789400278937
-14.109065550906552
-14.129986052998602
-14.126638772663874
-14.120362622036259
-14.13375174337517
-14.157601115760107
-14.15048814504881
-14.116178521617847
-14.14211994421199
-14.167642956764292
-14.177684797768476
-14.174337517433747
-14.158856345885631
-47.17266387726638
-80.1931659693166
-14.145467224546719
-14.18354253835425
-14.19191073919107
-14.188563458856342
-14.191073919107389
-14.195676429567639
-14.181450488145044
-14.191492329149229
-14.19609483960948
-14.20864714086471
-14.211576011157597
-14.211157601115756
-14.223291492329146
-14.229149232914919
-14.211994421199439
-14.249651324965129
-14.245885634588559
-14.257182705718266
-14.263458856345881
-12.95090655509065
-3590.0709902370986
-14.269316596931656
-14.272245467224543
-14.266387726638769
-14.274755927475589
-14.294002789400276
-14.289400278940024
-14.278103207810316
-14.286471408647136
-14.305299860529981
-14.288145048814501
-14.31283124128312
-14.306136680613664
-14.306136680613664
-14.307391910739186
-14.32119944211994
-14.328312412831238
-14.339191073919103
-14.335006973500693
-14.707391910739187
-3590.0709902370986
-14.349232914923288
-14.328312412831238
-14.345048814504878
-80.1931659693166
-14.35885634588563
-14.345467224546718
-14.355509065550903
-14.357601115760108
-14.345467224546718
-14.36304044630404
-14.37977684797768
-14.383124128312408
-14.376429567642953
-13.01659693165969
-14.430822873082283
-14.424128312412828
-14.406555090655505
-14.416596931659688
-14.42119944211994
-14.43835425383542
-14.432078103207806
-14.42914923291492
-14.43375174337517
-47.318688981868895
-80.1931659693166
-14.444630404463036
-14.42580195258019
-14.444630404463036
-14.44588563458856
-14.4463040446304
-14.467642956764292
-14.478940027893998
-14.472245467224543
-14.46304044630404
-14.465550906555087
-14.485216178521613
-14.488981868898183
-14.484797768479773
-14.477266387726635
-14.47517433751743
-14.49191073919107
-14.480195258019522
-14.486889818688978
-14.499023709902367
-14.48772663877266
-14.49651324965132
-13.068898186889815
-80.1931659693166
-14.47935843793584
-14.488563458856342
-14.506136680613665
-14.519107391910735
-14.528312412831237
-14.524128312412827
-14.50906555090655
-14.509483960948392
-14.535006973500693
-14.551743375174333
-14.556345885634585
-14.545048814504877
-14.514086471408643
-14.522454672245463
-14.544630404463037
-14.552998605299857
-14.573082287308225
-14.555927475592744
-14.543375174337513
-14.549651324965128
-14.563458856345882
-14.573500697350065
-14.581450488145045
-14.561785216178517
-14.577266387726635
-14.594839609483957
-14.57977684797768
-14.588145048814502
-14.604881450488142
-14.635843793584375
-14.60027894002789
-14.601115760111572
-14.614923291492325
-14.604881450488142
-14.607391910739187
-14.601115760111572
-14.601952580195254
-14.618688981868894
-14.602370990237095
-14.598186889818685
-14.605299860529982
-14.610739191073915
-14.62914923291492
-80.1931659693166
-14.644630404463037
-14.63793584379358
-14.647559274755924
-14.6463040446304
-14.648814504881447
-14.661785216178517
-14.664714086471404
-14.675592747559271
-14.664714086471404
-14.658856345885631
-14.674337517433747
-14.691073919107389
-14.695676429567639
-14.686471408647137
-14.696513249651321
-14.692747559274752
-14.702789400278936
-14.708228730822869
-14.709483960948392
-14.701952580195254
-14.710739191073914
-14.711576011157597
-14.699023709902367
-14.719107391910734
-14.731241283124124
-14.729567642956761
-14.732078103207806
-14.729567642956761
-14.724546722454669
-14.721617852161781
-14.753835425383539
-14.778103207810316
-14.751324965132492
-14.732496513249647
-14.723291492329146
-14.736680613668057
-14.752998605299856
-14.733751743375171
-14.746722454672241
-14.748814504881446
-14.765550906555086
-14.768061366806133
-14.758437935843789
-14.765550906555086
-14.765550906555086
-14.787308228730819
-14.782705718270568
-14.765969316596928
-14.788563458856341
-14.809483960948391
-14.788563458856341
-14.786889818688978
-14.79609483960948
-14.82119944211994
-20.08354253835425
-14.822454672245463
-63.84965132496513
-14.841701534170149
-14.837099023709898
-14.830822873082283
-14.845467224546718
-14.84211994421199
-14.82538354253835
-14.840446304044626
-14.848814504881446
-14.8626220362622
-14.877266387726635
-14.877266387726635
-14.881450488145045
-14.88396094839609
-14.895258019525798
-14.894002789400275
-14.888981868898183
-14.881868898186886
-20.122873082287303
-14.906136680613663
-14.899442119944208
-14.91283124128312
-14.944211994421195
-14.948814504881446
-14.943375174337513
-14.930404463040443
-14.930404463040443
-14.927894002789396
-14.932496513249648
-14.93375174337517
-14.960111576011153
-20.189400278940024
-3590.0709902370986
-14.96680613668061
-80.1931659693166
-14.967642956764292
-14.973919107391907
-14.988981868898183
-14.982287308228727
-14.99609483960948
-15.006973500697345
-20.173919107391907
-80.1931659693166
-14.986889818688978
-15.014086471408643
-15.05006973500697
-15.032914923291488
-15.042956764295672
-15.032914923291488
-15.02538354253835
-15.044630404463037
-15.034170153417012
-15.056345885634585
-15.069735006973497
-15.05885634588563
-15.052161785216175
-15.073082287308225
-15.05885634588563
-15.057182705718267
-15.044211994421195
-15.055509065550902
-15.094839609483957
-15.081868898186885
-15.095258019525797
-15.10822873082287
-15.101952580195254
-15.097768479776844
-15.111576011157597
-15.101115760111572
-15.101115760111572
-15.106136680613664
-15.115341701534167
-15.114504881450484
-15.1044630404463
-15.09986052998605
-15.101952580195254
-15.113249651324962
-15.160111576011154
-15.170571827057179
-15.151743375174334
-15.13751743375174
-15.143793584379354
-15.148814504881447
-15.106973500697347
-15.138772663877262
-15.155927475592744
-15.177684797768476
-15.181450488145044
-15.192329149232911
-15.201534170153414
-15.196931659693162
-15.203626220362619
-15.214923291492324
-15.227475592747556
-15.224128312412827
-15.20864714086471
-15.220781032078099
-15.213668061366802
-15.227894002789396
-15.225383542538351
-15.212412831241279
-15.219944211994417
-15.147977684797764
-15.231241283124124
-15.242956764295672
-15.226638772663874
-15.206973500697346
-15.213249651324961
-15.234588563458852
-15.243793584379354
-15.263040446304041
-15.256345885634584
-15.263458856345881
-15.283124128312409
-15.288145048814501
-15.269316596931656
-15.255090655509061
-15.280613668061363
-15.288563458856341
-15.294839609483956
-15.290237099023706
-15.292747559274751
-15.299442119944208
-15.308228730822869
-15.294421199442116
-15.294839609483956
-15.307391910739186
-15.315341701534166
-15.324546722454668
-15.329149232914919
-15.319107391910736
-15.32538354253835
-15.339191073919103
-15.33793584379358
-15.335006973500693
-15.357182705718266
-15.339609483960944
-15.328730822873078
-15.341701534170149
-15.359274755927471
-15.350069735006969
-15.386471408647138
-15.360948396094836
-15.370153417015338
