0.024202331141659657
-0.4772635983263617
-0.011726638772665905
-0.015751743375176364
-0.01778521617852365
-0.01730404463040649
-0.013965132496515278
-0.0034044630404483343
0.008131101813108152
0.017269177126915686
0.01905160390515836
0.02172942817294079
0.016599721059970075
0.012470013946999365
0.008813110181308986
0.00986331938632991
0.007168758716873841
0.008034867503484719
0.007470013946999365
0.01095536959553493
0.008005578800555852
0.001733612273359197
-0.006555090655511095
-0.01319525801952783
-0.020889818688983895
-0.020881450488147078
-0.017743375174339552
-0.013015341701536199
-0.007747559274757959
-0.0047224546722474964
-0.005977684797770509
-0.011078103207812351
-0.013408647140866745
-0.01870990237099227
-0.02025801952580398
-0.019555090655511094
-0.016634588563460888
-0.013751743375176368
-0.010663877266389756
-0.009701534170155447
-0.009525801952582225
-0.01398605299860733
-0.018040446304046658
-0.020714086471410674
-0.022224546722456703
-0.023676429567644982
-0.024199442119946242
-0.029475592747561306
-0.03130822873082491
-0.03258437935843997
-0.03666806136680817
-0.038011157601117784
-0.03987726638772867
-0.04183124128312616
-0.04686889818689185
-0.037488145048816535
-0.026387726638774693
0.012302649930262963
0.032687587168756686
0.03723570432356841
0.0319846582984638
0.02695118549511652
0.021218967921894767
0.015285913528589323
0.012172942817292254
0.005909344490932419
0.004708507670848737
0.007361227336120704
0.007357043235702294
0.008315202231518192
0.008813110181308988
0.008612273361225307
0.00503486750348472
0.0017963737796353484
-0.002517433751745404
-0.0018814504881470785
0.0007963737796353485
0.004482566248254596
0.010942817294279702
0.019131101813108155
0.026629009762898947
0.029984658298463796
0.02941562064156003
0.02746582984658096
0.024662482566246223
0.022449093444907316
0.020047419804739952
0.020800557880053756
0.020507670850765058
0.01768758716875669
0.017829846582982627
0.02210599721059769
0.02580055788005376
0.032336122733610244
0.03816875871687385
0.038235704323568404
0.035030683403066316
0.03441143654114163
0.034988842398882204
0.03612691771268975
0.041917712691769235
0.07033193863319183
0.2976331938633174
0.6422608089260788
0.7472524407252422
0.7892942817294262
0.8421311018131081
0.8601729428172924
0.9630223152022295
1.0795955369595518
1.0938214783821458
1.0867670850767066
1.051905160390514
1.005436541143652
0.9766582984658279
0.9453403068340288
0.9210641562064137
0.89867921896792
0.8795662482566227
0.8714365411436521
0.8609135285913508
0.84678382147838
0.8373403068340288
0.8304323570432336
0.8272859135285893
0.8205829846582965
0.8121729428172925
0.8011896792189658
0.7526624825662461
0.6948465829846562
0.6721269177126896
0.6643988842398864
0.6572859135285892
0.6502859135285892
0.36284239888423786
-0.624002789400281
-2.218852161785218
-9.492555090655511
-33.45011576011158
-40.261998605299866
-42.050270571827056
-43.58857182705719
-43.80417433751744
-42.068672245467226
-40.53883542538354
-23.087069735006978
-7.076672245467227
-1.9729442119944234
-1.8765550906555108
-1.8363668061366831
-1.8143542538354276
-1.772237099023712
-1.7094253835425401
-1.621391910739193
-1.5888940027894023
-1.5630320781032094
-1.5694965132496532
-1.5915550906555112
-1.6258814504881471
-1.6819860529986073
-1.7810404463040466
-1.9121032078103226
-2.154065550906557
-2.4267433751743397
-2.4422705718270588
-2.4577684797768495
-2.2411785216178544
-1.7865048814504907
-1.6742119944212015
-1.699052998605302
-1.9706387726638792
-2.36395258019526
-3.856655509065553
-5.083442119944214
-5.205634588563462
