-0.02427110314139873
-0.2482115295211556
0.0030395165039489446
-0.006918642491866955
-0.014914458391448546
-0.01849186424918913
-0.019408182240820932
-0.0192701069270134
-0.01500232450023516
-0.0065086006508627715
-0.0003035797303606791
0.008252905625287858
0.023746629474660243
0.03867131566712886
0.053307298930727186
0.07010227801022509
0.08093491399348869
0.0878219432821916
0.09447884704788198
0.100407717340769
0.10343700604369788
0.10266713156671045
0.10418177591817487
0.10453742445373973
0.10176336587633386
0.09775918177591546
0.09281775918177322
0.08735750813574811
0.08523616922361424
0.08663784286378158
0.09252905625290292
0.10119432821943011
0.10500604370060165
0.10696838679683596
0.09983031148302844
0.09337006043700333
0.09221943282194058
0.09446211064620837
0.10074244537424182
0.11355834495583177
0.12231985123198241
0.1302654579265431
0.13289307298930458
0.1354453742445347
0.13600185960018327
0.1383240353324008
0.13675918177591545
0.13524035332403264
0.13267131566712886
0.13050395165039247
0.12520688052068538
0.12092236169223344
0.1202361692236142
0.12094328219432551
0.12267131566712886
0.12508972570896987
0.12461692236168956
0.12431985123198244
0.12331985123198244
0.12073826127382341
0.11842026964202423
0.11536587633658493
0.11484286378428366
0.11436587633658493
0.11494328219432552
0.11725708972570625
0.123478847047882
0.12351231985122928
0.1269725708972544
0.12974662947466023
0.13550395165039247
0.14332821943281923
0.15352068805206615
0.15998093909809125
0.16629474662947197
0.170989307298928
0.16967968386796567
0.16751231985122927
0.16519014411901173
0.16016085541608285
0.1542570897257063
0.15334077173407443
0.153734077173405
0.15629056252905354
0.15718177591817487
0.15737006043700333
0.15896838679683595
0.16294746629474394
0.16588052068804937
0.16940353324035065
0.1723951650395138
0.17413993491399082
0.1739851231985096
0.1743365876336561
0.17456252905625025
0.1760729893072962
0.1841190144118987
0.19480520688051794
0.19787633658763093
0.20477591817758908
0.2136462110646184
0.25516085541608285
0.4315081357508109
0.6094913993491372
0.6774119014411872
0.6597215248721497
0.6588386796838652
0.7760855416085516
0.7567089725708946
0.7735165039516476
0.7988093909809363
0.7753658763365849
0.704529056252903
0.6568596001859573
0.6454746629474635
0.6312487215248695
0.6138637842863758
0.5896880520688026
0.5699139934913966
0.5547340771734051
0.5461399349139908
0.5241106462110618
0.4462026964202669
0.4119976754997648
0.40591399349139656
0.3716503951650368
0.011913993491396624
-0.49119897721990047
-0.5884332868433315
-0.6331069270106955
-0.6421320316132059
-0.6547387261738753
-0.656491864249189
-0.664152952115298
-0.6493956299395656
-0.5991906090190636
-0.5698684332868461
-0.4501320316132059
-0.4219311947931222
-0.41243747094374983
-0.43070525337052806
-0.45277219897722265
-0.5364583914458418
-0.7470441655044193
-0.8125253370525364
-0.8167596466759675
-0.7554625755462603
-0.5658893537889382
-0.49688935378893795
-0.4724960483496076
-0.48253370525337314
-0.5193621571362184
-0.5547889353788963
